0.0,0.0,0.0,0.0,0.0,0.0,0.0,0.0,0.0,0.0,0.0,0.0,0.0927185822543626,0.2035859251263659,6.2784878143879E-4,2.616036589328292E-5,0.0,0.0,0.0,0.0,0.0,0.0,0.0,0.0,0.0,0.0,0.0,0.0,0.0,0.0,0.0,0.0,6.083274164733343E-8,0.0027341130565455125,0.1402826237530481,0.29414875921393313,0.28026495825140213,0.12185104316576863,0.2687906664205514,0.2911037895444942,0.791147146838567,0.4746816818914908,0.1934158259772467,0.25806004175520275,0.26673537019315025,0.09279044090780558,0.21166465500398032,0.442078808465098,0.2369270039086198,0.15105792804825835,0.2184845605422111,0.11686883252133434,0.0,0.0,0.0,0.0,0.0,0.0,2.814788933615836E-8,0.0011561450263743937,0.02637703672620302,0.0099912379790637,0.16294484306297147,0.47214311489972394,0.6046004906445832,0.432059306613986,0.9024765777209484,1.151770666662004,1.555469283631061,1.404644365439312,1.2248516516650247,0.8891518085194644,1.0652396676276112,0.7640108627560664,0.8034230335987841,0.903660739832905,0.7653738903045034,0.7512956584024503,0.727701911640683,0.4177868412684382,0.1463598180061674,0.017626352518837523,0.0,0.0,0.0,0.0,5.906209139105747E-8,0.007542425887211904,0.0023003911983426276,0.059999307035740225,0.2562422152413817,0.6977212877467487,1.0940838834302378,1.0302004539586085,1.5385414170560765,1.721919659743629,2.2283964546661608,3.2310382037363095,2.6368479449142086,2.1920773410030012,1.311525003669279,1.212528054193322,0.7351376978463384,0.8995132727392181,1.1899617958116315,0.9243542055342892,0.6326189317781953,0.7126792122157432,0.43017266046209685,0.017190918433195042,0.0010253305495357195,0.0,0.0,-2.935866130192657E-7,-4.335589586981074E-6,-0.004524633623086683,-0.05985246349282914,0.10267077739220341,0.36659724049674813,0.8755085614238122,1.032487574479716,1.0154219269309237,1.1615035496963952,1.0838503873886427,1.4300240426763284,2.0663412016157054,2.5959921537535395,1.726927787123871,0.9239317331315297,1.700570573131662,0.7570807514624492,0.20410353685132643,0.3464597005999754,0.3793204898545772,0.3313277504189695,0.1541477687388149,0.1704389198782227,0.22830848773681015,0.17163760792627017,0.022994258922769652,0.0,0.0,0.0062295285416337845,-0.0018476120410609042,-0.045055407281409186,0.10033699166473375,0.23117543748830696,0.6485071384904606,0.9623518072080236,0.3250276395376376,0.20612425284053823,0.3545435255373041,1.091657589142115,1.6063198521511743,1.7279461812288972,1.7116989321803537,1.330157190540845,1.6547849786313413,0.919506431938752,0.6535224738638301,0.7578163206794793,0.5608578591940305,0.039144273799938754,-0.2650754671748271,-0.36330993465676475,0.03460533539754293,0.022854127525404885,-0.018484996120318474,0.0,4.224940593697384E-4,-0.05238089927250358,0.0020736986946665544,0.0059717019999539255,-0.06652045588221639,0.06547215101586096,0.33818513241357245,0.16886845280427268,-0.7979927520583557,-0.3829720839788728,0.2553181793971982,0.25435641157087874,0.4749155627106865,-0.0648558625428174,0.4158743456283726,0.3685512577268593,-0.4943110734379772,0.349849605860795,0.6405692337437479,0.5473334523939849,0.02741162812525834,-0.7764929480393152,-0.9801102646273536,-1.0609613636930022,-0.48415912654159315,-0.2460337547898589,-0.0326423998132137,-2.6891662679434453E-5,0.01061771539353141,-0.15092388693274636,-0.3748977036632415,-0.32064846533039765,-0.35600155145045337,-0.36323715820941577,-0.3289502041528646,-0.1642038382797603,-0.7947781077213053,-1.0819793439171852,-0.1479214719394986,-0.8079017109633634,-0.28371039415631716,-0.22632519728993086,0.46336268208759696,-0.3448993500406832,-0.3644663848009992,-0.30117121802253,0.26498966628642195,-0.4089136138848642,-0.12686282243313957,-0.35469254905713593,-0.5459358675856554,-0.20312454095935392,-0.4043838677785387,-0.2612493851714111,-0.003972474991054614,-7.931815123376165E-6,0.009403273480716881,-0.3506729047113968,-0.6849708461979108,-0.7728512686889492,-0.2593233285558468,0.2166304037996691,0.03994204454169669,-1.143469032139864,-0.5327548078401361,-0.49590909451880677,-0.6059922774648375,-0.2635095491340727,0.5393249118181523,0.3709649273563255,0.9364143011579881,-0.1567417601912515,-0.5045982697660588,-1.1272394264700312,-0.34055938809127967,-0.24254246260655057,-0.2103797858861858,0.5083241894866255,0.07087706215977561,-0.6424965823578871,-0.3662911904940536,-0.1727714295304982,0.0363457740697244,-2.547513414420155E-5,-0.0024087934466396855,-0.4476975083798498,-0.9093495623946323,-0.521767101291905,0.03531111785305561,-0.25280236094960157,0.019865920057320595,-0.03170918114713422,-0.514240022552204,-0.2665315902975497,-0.5312447503158159,-0.9215875910386359,-0.8436207996269989,0.25422284969059017,-0.22943139678552205,-1.5268374079754539,-1.1733960584615069,-0.31305488689888883,-0.4316113805615814,-0.7788142488995256,-0.4487274163732842,-0.31621765515922545,-0.024920524452636567,-1.0103096673604872,-0.810140575408294,-0.2407340536431614,-0.007976186995728921,2.1513043681903857E-6,-0.009433735449198049,-0.3027107669919413,-0.8236623908706836,-0.1247492317432744,0.6661904744912982,0.8276407916353778,0.06453746387764778,0.10744340152024129,-0.9371199480937952,-0.35930790012366187,-0.5460147766454431,-0.6161710525347418,-1.131147536621265,0.3249337423512698,-1.5655840685247409,-0.8409270680723085,-1.0820598429399773,-0.9593904938739107,-0.5151188354428425,-0.36109365831337753,-0.4246503671934727,0.10145909826400058,0.3047412435035972,-0.5719602043314493,-0.9094490165531318,-0.24508253963894297,-0.029608775427712706,-0.030815863609363336,-0.027057042595313562,-0.09532986560660733,-0.3982463239003493,0.010925283621523845,0.20946407290827998,0.20228757467125522,0.6588880448863402,0.2995288668930704,0.13939606967496268,0.052608174634128785,-0.14016912045906557,-0.21829548387647216,0.303666750075987,0.2826541645357089,-2.1658378414089174,-0.5536159551448354,-1.291693359934705,-0.8774340484510815,0.39549926917999784,0.2867761052978597,0.6323668793288205,0.911952140179753,1.4397511204032003,1.3302208842958856,0.20020954390352833,-0.11724332238351125,-0.014328572036942622,-0.03322133600922084,-0.0022390347905014954,-0.035384213336556905,-0.12130140458442647,0.3238276093007185,-0.09676718005360989,0.19919708654261528,0.3006967076001775,-0.5416196353867329,0.09969585244916894,0.15716166656136377,0.10796335486453319,0.0755812194058364,0.21320882292722473,0.6132230884787053,-0.42301007709386096,-0.5538978323555991,-0.7855516523315108,-0.2639845517656935,0.30374406711137736,0.7713131759094295,1.21325302407553,0.6839339034925301,2.245096490355893,1.7460813607729844,0.41434894214416546,-0.047491011992944636,-0.013823713811132373,-2.2157367894715062E-4,0.002070019112412125,-0.005045323455600177,0.0020555897503976386,-0.46113018581896553,-1.4351495831222663,-0.8042670347009143,-1.403972098257632,-1.0982225735450573,0.1321376028740347,-0.051546138823796196,-0.07133618351362164,0.03855979689094951,0.820653589443348,0.16670134839586281,-0.12673489813394426,-0.15597090172211941,-1.2969795303571483,-0.18608558778732276,-0.22906614448660492,-0.18570647521040592,-0.27405444413466545,0.39053191171550905,2.1951561906753434,1.6429539141748342,0.4027616003491206,0.19904047452209586,0.08780051145779204,3.1952833216640915E-4,-7.818309404763743E-4,-0.0013389231311321899,-0.0608112955866019,-1.379727812504372,-1.4068686645850788,-1.517698754509559,-1.6887918249547997,-0.9061231133923364,-0.37246761931301564,-0.29929893017945647,0.5553598394902999,0.2509515516865546,0.28625906079599234,0.4936890732902947,0.6001135615303341,-0.7183830113260622,-1.6784049211146599,-0.6745320238397375,-0.5296192768578795,-1.1724888861114922,-0.1688973378426993,0.504133092045461,1.4371324578970859,0.8231502207534653,0.1618008427318002,0.2441388067159497,0.0051014814660216845,1.0672251890842843E-4,2.967193434621371E-4,-0.007616506305978546,0.07895841298021294,-0.9967555696209948,-0.6861600309407724,-1.3790297081329985,-0.4695657117291315,-0.34197569706722525,-0.6974916917337287,-0.7263385697443555,-0.250306050940049,0.4455347021043143,0.742018176818183,0.5681861081087353,-0.12194128347228023,-0.6442020616164907,-1.7825914403790606,-0.7656418552701151,-1.1612514263187337,-0.1225244281967786,0.15950645633815227,0.543750539868797,0.5552015880495733,0.9768416670461325,0.7247947194779373,0.3119519170159362,0.0021820870860443163,1.1989701466259173E-5,0.0024059000923960187,-0.037967596866974006,0.26467056063600175,0.25291700819391993,0.4961723849595224,-0.16454334366198464,-0.43492169686250876,-0.9257831119731844,-0.095661232005171,0.5424611315204004,0.844642294048969,-0.06894136760159887,0.2514782411076652,0.32540716283664434,-1.077996255033395,-0.20258980675707963,-1.8959136280149822,-1.3446072548571284,-0.4411850218054945,-0.2002882678434695,-1.1283044031680833,-0.17777579039230995,0.5483447008045805,0.9936287722448703,1.0918772142044226,0.36398563176057547,-0.023362034146281036,0.0,5.504122363863131E-4,-0.028851245035573025,0.45128240388021795,0.7255484946379364,0.3640299255980861,-0.5363442538659222,-0.14542928213726658,0.1573569138272751,0.5037127331686274,0.47798552966966795,0.29333749301714707,-0.11675018100347462,-0.6934904978748492,0.2617220640045233,-1.014257409475174,-0.014649823222288494,-0.07854736839576668,-0.3441724342118116,0.1538758530858424,-0.47347922196625675,-0.2686094088159668,0.5323798961804952,0.808009245322506,1.3251951655381262,0.7059958653839157,0.2357391007300315,0.0253247215603246,-4.8050873430122826E-5,1.871864361434124E-4,0.005447781144678517,0.6219902610462835,1.0582039062171864,0.2589700946398543,-0.6037917040862771,0.5234213545431735,0.8825318987563264,0.5842039450286876,1.0700600794508068,0.6129889612347525,1.1292316843359984,-0.11122649140500059,0.09489893146907741,-0.201918568562352,-0.11795982486116248,0.09206612986278213,0.7212986081725364,0.2801123611643612,-0.7815593893412602,0.5211320014878872,1.3467328729694765,1.6682262168841382,1.6663378604034194,0.8324872893288782,0.02494487975127375,0.0066471144119603955,-5.037524680195912E-7,0.001630167250505273,0.04013563719175589,0.5465814920922123,0.9484771407279923,0.44956865325551604,-0.3832544131665425,0.32274165542330563,1.2254796653096673,1.252013317026971,1.6973671988443069,2.162951967894386,2.6556967885339975,1.344103501518443,-0.3387744453387262,0.7545680214714677,1.3322002482172006,0.7027693760506167,0.6766275606444223,0.7178925719292492,0.4143539254046181,0.8063936077161612,1.6882189696366214,1.650640326300996,1.148724996841564,0.526777745927072,-0.021093044430283637,-2.5541118339575885E-4,0.0,-0.001203695582854064,0.11354530460631525,0.5560312152058058,1.3923729430251857,1.2069715693058027,1.3221060611949296,1.1537877714788123,1.314865958188761,1.123460135917977,1.167376273242364,1.046165207636574,1.0181472601805472,0.7093796215584679,0.933375039827053,1.253614844290003,0.7222528563063487,0.5843390156596108,1.3550319102828405,1.0553318845891158,0.9152696304663771,0.8741670492687489,1.405447397306143,1.2829727420226764,0.6056961483464818,0.2684701387099944,0.05807085003706628,-1.6035355873283353E-4,1.4909400732523774E-5,0.013194215866442502,0.14499152180484542,0.5757062994920078,1.2038719372040154,1.6567554854996498,1.9598611595654785,1.71747227132897,1.2870098651209003,1.2867817598841313,1.604688850085229,1.2462551070369667,0.649424595724799,1.4888011183001704,1.0443926879658152,1.0703453832838783,0.07710708313233708,0.5016390485854391,1.1528955203435522,1.3215852848175282,0.7632305899007212,0.4013256479386116,0.870829399220801,0.9271253002712717,0.3835302977025821,0.22323827179059397,0.08015687612665325,-1.9514775910027962E-9,1.4443481959632406E-5,4.7941191187143346E-4,0.14503716843910705,0.4661474452518674,0.6623720599744841,1.4277990029528416,1.542475549039418,1.7389289302192843,0.8723161562589774,0.9929132750688013,0.848650983644656,0.5998718901800265,0.8464335672025323,1.5499674058220638,0.8013819608092109,0.8693032590289352,0.7553568920008854,0.900423729979825,1.3408632998834547,1.220677867160641,0.6122575514078717,0.2792429316486377,0.08589149194466646,0.2958617189343601,0.09833110478826025,0.16387456094214717,0.07078247452435037,-3.6027278603128538E-9,0.0,0.0,0.09116970806147502,0.2155779624316354,0.05237041327635574,0.38789333601328435,0.3943988845703716,0.2188762381197288,0.7687774922200385,1.0252141366074414,-0.12166816995151924,0.4263920176791538,1.8539413526430326,1.1098052033755839,-0.03972532185643804,1.402338552969962,1.2666210173579695,1.339784824077066,1.271203866956477,0.6856226373614421,0.23656325626740773,0.4258347431170482,-0.003049588163696359,0.16476869973560507,0.038457325866541416,0.053637063974358995,0.007948125534479758,0.0,0.0,0.0,0.0027155634445147985,-0.17955850689339883,-0.6900471176078503,-1.0457015324889296,-0.823234815673096,-0.6745664376784068,-0.16878106755179645,0.45264368760350315,0.37205582081208005,1.1510891871013818,1.5898050520265923,0.8039506204790529,1.2033684469024641,1.3453242666409018,1.5970260342471947,1.5083173409909059,1.5779470667154625,1.391396276142541,0.7691515420087071,0.0613922996307002,-0.012490271919554242,-0.09942082645779589,0.19872907439392215,0.12701078941315094,0.047273041520550764,0.0,0.0,0.0,0.006405952933343543,-0.14693631599282073,-0.5983882702820023,-1.1007558171967975,-1.0646571073795914,-1.5908258999742657,-1.5040660707664582,-1.222469127054885,0.10985798399473869,-0.1083060628034596,-0.22119518532318172,-0.33264907820779893,0.6629351953687584,0.3518688440827031,0.20072099645426777,0.724414082682021,0.4374789879100461,0.223926968501441,0.12151975884155135,-0.013836386087280578,-0.14128107482556304,-0.25859283004219846,-0.021692849177210188,0.04142892843826885,0.050170492758648245,0.0,0.0,0.0,0.0,-0.009192691804405316,-0.06724192772889315,-0.0726460478239682,-0.14102299523549802,-0.21404753598242846,-0.31116385363943944,-0.38550382245144293,-0.26486355593000205,-0.5070098336126273,-0.45658923843163385,-0.7737148136801486,-1.0212573151825104,-0.682399812342043,-0.29071742982675186,-0.16924800528107398,-0.15427717717768183,-0.15922742648952307,-0.04257287681488358,0.009784479715515678,-0.10766185461841322,0.005349748841654051,-4.6348377488391414E-7,-4.4254744491422775E-5,0.0,0.0,0.0,0.0,0.0,0.0,-2.1923886701792218E-5,2.3910418225550278E-5,1.815063800816414E-4,-0.0025699472543052448,-0.006718395558800469,-0.0036187339809136292,-0.009982981796004473,-0.050380023277484386,-0.06897078079606843,-0.057354234759658444,-0.07408797979150429,-0.03737036286527728,-0.03106905110078653,-0.026872462729711968,-0.02956539114010558,-0.007695453970750765,0.00522445547725531,0.00578496690028051,0.01334472904325231,0.0031802881978407267,0.0,0.0,0.0,0.0,
0.0,0.0,0.0,0.0,0.0,0.0,0.0,0.0,0.0,0.0,0.0,0.0,0.00690420619769564,0.034058946620221124,0.02107783787910315,8.782432449626314E-4,0.0,0.0,0.0,0.0,0.0,0.0,0.0,0.0,0.0,0.0,0.0,0.0,0.0,0.0,0.0,0.0,7.728716528188328E-9,0.001442888775467394,0.04098782599818288,0.05497596617067332,0.02987045308930658,0.011220080104545215,0.03163435704006736,0.08280431727992657,0.054323846254801494,0.057515566741591286,-0.002274392614918847,0.017888815587910813,0.05562167855109928,0.08982532665699329,0.04364397620624158,0.08865845563195995,0.07055058165311216,0.011011546068245953,0.002396679005808249,0.0035963151928439575,0.0,0.0,0.0,0.0,0.0,0.0,-1.367945972815401E-10,0.0020420219334248138,6.395583511994446E-4,0.005592273019772962,0.048184259720839416,0.1085931935278515,0.1153132912916864,0.18604911540339406,0.40539019269196314,0.4396613754902794,0.5334702798027489,0.459169420561502,0.33009216753331405,-0.019566010132684712,-0.10393375526403738,-0.04843406188281263,-0.11625399505893663,-0.03122500539284132,0.16636452907793414,0.21795058049060997,0.10496648624759515,0.08566427620092514,0.10448292169671196,0.00385363258850036,0.0,0.0,0.0,0.0,-1.3746841032785488E-4,0.006306661367430511,-0.0017182037802773362,0.029392425637887926,0.0695459554417616,0.18260637912524844,0.3762433342590668,0.633153861150441,1.0632997806917335,1.5801002899770582,1.9749295641436329,1.9319331444375802,1.121184959792197,0.6088956941600872,0.6869616531704802,0.5441214948123158,-0.03728918700739738,-0.21699370162735876,-0.19181418129256986,-0.3686551974438628,-0.4760736462536996,-0.05829198966506502,0.0037230477808955806,-7.198748136598752E-4,0.005660641271942192,0.0,0.0,-3.6343788185394063E-7,0.0035317555835131316,0.002944594135444773,0.0237745322514903,0.060607480718591254,0.21533256103281181,0.3647405388673774,0.8216670667755691,1.269667540149674,1.6177986656641943,1.581904082205441,1.6600993259964258,1.1686517436832233,0.09749632261020495,0.1527350810611565,0.670388682461924,0.9348698465103858,0.8516467997176358,0.2621049624808129,-0.13873733208249547,-0.6791540211045498,-1.1582566585605512,-0.6021909967114978,0.053289012807464266,0.22725078834271348,0.11449709632301348,0.0013229399116851473,0.0,0.0,-8.361641887624717E-4,0.016661255618922746,0.1388742913234147,0.29649328711698425,0.5998213419486857,0.7875121887328875,0.7353576306207116,0.9215013176248524,0.7333421952909749,0.5494047846913804,0.6540864903431618,0.19900870071777768,1.1259295685187725,1.9267636752309034,2.3620630829475058,1.6878921041126642,1.6564671903106776,1.2485702574728392,0.29716358494607237,-0.7074905200431573,-1.3087257111511652,-0.9291641619343024,-0.23206682302581624,0.15280679585818505,-0.016665402017460664,-0.004088086325845423,0.0,0.001150457375763899,0.033699706016236744,0.2108400098526287,0.4718605502564254,0.597718987529267,0.8552449766376468,0.755147371644547,0.8808262418224911,0.8649579179032542,0.8697342384144929,-0.014938910458116844,-0.3268498615398068,-0.123317611583799,0.3630512493378005,0.8295899280094158,0.8701997045471043,-0.2308720409007311,-0.008533851340641125,-0.2915866070005685,0.21783098170950266,0.28473303838625225,-0.8018717104010046,-0.8049812736135443,-0.3801195915151489,-0.043756519039921705,0.054721406585278264,-0.002330024678040794,-2.526880328430195E-5,0.027092503826075393,0.0980679738628355,0.3039746403737726,0.8057353998749649,0.9184751883054373,1.2001215712154145,0.6348772079548469,0.6773520887824374,1.013618805114749,0.7153818739377615,0.3131824712606444,0.17286904146275153,-0.5031735847937384,-1.0798030183308436,-0.20428620287703714,0.22814563174928967,-0.2966111725602446,0.30101986807971237,-0.10870105952337981,-0.886892993562873,-0.14409485173722827,-0.042751750786733704,-0.4353720080800054,0.09109545708320159,0.31985117311662964,-0.13274392860441508,0.011451844576385449,0.009925648123752377,0.0719068343411651,0.16786265812154885,0.5332014098906783,0.9678860400799895,1.235904455521023,1.8055614513910259,1.2839991078219029,1.1633617664103573,1.9501956737111257,1.2724930261103222,0.9579999536105742,1.153815780749167,0.41988463415183047,-0.03264654305895621,-0.4271195741777403,-0.905069991991371,-0.7645542125394874,0.04542627970589646,0.4536643702167225,0.4537955062682751,0.3650728730047634,1.3224685529133107,1.0218687033840779,0.9569567727543603,0.8774531349033986,0.24649617639448848,0.02406935537351329,0.0010700020242052645,0.06668789193001295,0.10208775098019089,0.48209199050466717,1.2304062398133466,1.4823512910171137,0.9205691301722184,1.2604461463621468,1.9177226088731743,1.4812114217216472,0.9549559287811983,1.631511721480534,1.6969981636319391,1.8436683979396296,1.7861546598757168,0.6133209059521068,-0.28434204472928626,-0.32967381839348825,0.6379625868349527,0.47723656027786987,1.025088027846974,1.9901841443691415,2.2887790479931818,2.0851735951381487,1.8806664069062107,1.0943008229401046,0.4467530581608425,0.061997122255334734,4.2582080179360914E-4,0.03176243420516449,0.12726982565294953,0.642835289709014,0.9954960977334705,0.6525034387735208,-0.22938555249199175,0.9493158156491749,0.31492438466460815,0.13830091992406401,1.080079249587521,1.301874580500458,0.9576689585806538,3.430156986190049,2.9066787108567964,2.5404796071154765,2.1288026928896833,2.0366448266354906,1.5418164990274692,1.5631505896906905,2.3051039936577196,2.0139027790589785,1.6867765984549097,2.031051637399263,1.2928706081782944,0.6754246471557549,0.17064272579873144,0.022049612940082747,-5.275930042071722E-4,0.08098196602145798,0.22666223095631619,0.43029772108825676,0.182381152512424,-0.746426456421548,-0.5483485543686276,-0.1940133701893109,-1.0313879541991977,0.5670520894882852,0.4916072256009127,0.7685490147454234,1.0369191765712957,0.9380080457337248,-1.8791176151825593,-1.992849685524092,-0.11212820392913316,-0.3359406541278525,0.557690665561105,1.4916914668840293,1.0645333271348816,0.8974173433714726,0.5928168214505334,0.4801810340979416,0.5793803612060493,0.21667015845158777,-0.02061727155669314,-0.024184646047128725,4.648740982906375E-5,0.08436282718178323,0.3091275398153346,0.24628131779426,-0.449275112197493,-0.854809473285781,-0.7812760998181131,-0.7054564602028709,0.27996017795190187,0.13446973458316483,-0.2185750216112102,1.0143784753641127,-0.34883289144797947,-3.5113848503906855,-5.476634575464851,-3.7897044318460353,-2.3695387727840918,-1.353212827009725,-1.6820786147235376,-1.191535746441168,-1.203792936967039,-0.7037965352502713,0.20845698871401322,0.9578572788894055,0.721212706297795,0.15274058214628433,-0.01832814524894457,-0.030302449795538342,-1.648360285818766E-4,0.07556125336806922,0.35676706761840676,0.08823357208229039,-1.0086675285699758,-1.0491145872048897,-0.7359372717419829,-1.4586499947722247,-0.5664146418817311,-0.5327838594876836,-1.726009768123821,-0.4005589543219205,0.3773786810785949,-2.0746245463657904,-3.4441153322959024,-2.6452845801070417,-1.3543982877876903,-1.9684152252870675,-2.159248325856176,-2.8355088180286683,-1.7386495547519722,-1.2005002973254684,0.5475894440377016,1.6012103303740641,1.1215727084242506,0.15456579853351282,0.03825104279564823,0.006787163923807856,1.0654584244680915E-4,0.04765219861437261,0.2007891208621971,0.05285197346772591,-1.1600167253085973,-1.4608558020235207,-1.3887834707245872,-1.346018227201206,-2.083929893248041,-2.1499036326982153,-1.0800175539442596,-1.2717630947246839,-1.8438410617403143,-3.0725896348709902,-2.6281903019511703,-1.4290657812681726,-1.2396985722616372,-2.5069751447066504,-2.2468374518850713,-1.821291391462382,-0.8489660770274167,0.14705733198434348,0.41055402802172686,1.491059525215964,1.1721075297805124,0.134939906313524,0.007806205948728609,-0.002105134294240836,3.436280391447152E-5,0.002616901916339435,0.08631267540844527,-0.09045551416289295,-0.5860590031578019,-1.0061549060709412,-1.3807794880471354,-0.732783768914511,-2.294249572100385,-1.7553712687312197,-0.7701058020295125,-1.452554369899372,-1.9831843446705824,-2.0182473133291454,-1.6112907695964822,-1.357651346734053,-1.7460282856396454,-1.8004567603322037,-1.1491108540385093,-1.4015781426114913,0.8554199351019395,1.4540572675237715,0.17806458947469603,0.8132217058041183,0.9884986148342353,0.37097999591388914,0.03479636592239009,-0.009031605047297156,-2.9936449151280913E-6,0.008017574497972675,0.10626038487826654,-0.04682899221339245,0.30757329581958354,-0.12529858411856618,-0.862472701365184,-0.8055048137199844,-1.4373942140589173,-0.1848316160288573,-0.3580718607490582,-1.1092734625059832,-0.8636932303841961,-1.264322581524849,-1.8369297929827362,-0.8157707021838091,-1.3558826985944201,-1.4673612095316049,0.022419428001489255,-0.07221686172117484,0.38872571141729634,1.4125103953440086,0.007001575917008538,0.1453159202173372,0.5457234668325641,0.6517188178291595,0.13895635905102183,-0.010888513678311474,0.0,-1.1735561340958424E-4,0.10129634297873624,0.22454512796674653,0.5248211302750027,0.5760119695118213,-0.16998797565983406,-1.5396335918751116,-0.8920393890582595,0.25203900846184324,-0.9770948039603754,-1.2238694017050138,-1.6111427523390398,-2.141693407500189,-2.5086835958934803,-1.284125449403269,-1.5449661211810504,-1.433950588150503,0.1784734638595821,0.0648136399943319,-0.333604645808149,0.851944781589992,0.3997993119794329,-0.012905978409402835,0.555283494910748,0.5353163731977456,0.10481636223658071,0.03100459451235646,-0.002454347818313401,-4.78488540866644E-5,0.16185132361887514,0.20543855184301182,0.5417317135408598,0.36895914510575123,0.5465100724124492,-0.24874104860220936,0.21910390659838921,0.9555232950564011,0.18449453673801752,-0.38294787780898915,-1.2279861509125554,-2.4396027692304143,-1.684930741316381,-1.1979402386061044,-0.883985687126288,0.23317657714300308,1.4060886188294592,0.07677947190613033,0.04339293588080393,0.9074291226658348,0.3528843003375617,-0.17315972955780698,-0.06054834517555324,0.22207245577853887,0.04606979451292927,0.021883435943664344,-2.558372933302361E-5,0.03492835834345328,0.2606408663895264,0.5636846625926762,0.9844041471930526,0.3635473795993987,0.9232598986710414,1.2877800263999073,1.540770088803679,2.5603126534952754,1.961426263736637,0.990569902040353,0.10365121895178954,-1.0224956551924598,-0.3429837647813423,-0.5034522493387578,1.1763326349246384,0.8522967271036234,1.0446974066982397,1.2375381764546787,0.9706403188188911,1.015874706661112,0.714621495788355,0.443174297741923,0.06591638409501585,0.15854500809556993,-0.0012098966695256073,-0.008845894798820423,0.0,0.04960656915630146,0.2203697680359511,0.7125274622342439,1.5891667211580518,1.3110405644483487,1.379651779777879,1.8707694485170603,3.031483794725093,4.856551641710205,4.904882505182171,3.807822401858752,4.024155219140177,1.9806608836981694,0.9748651556751783,0.8422419778590323,1.277948217325971,-0.042034692473369745,1.4098799193163456,1.1707059769122294,0.5431294956801149,0.4537311584520964,0.6381409153767919,0.1683293678833521,0.04581936083507257,0.17109951182949193,0.02199950159081974,-2.3620807553895995E-4,-8.01123973725751E-5,0.03681916039851425,0.1980322051617147,0.7802468257909796,1.4720995348645107,1.8411774690883898,1.5578791638023672,1.3014958130059093,2.163062342184776,2.415184309948009,2.9314810081629514,2.9707166808535654,4.3651044760522435,3.40841703306859,1.6097605142330396,1.6772798181941504,1.0717623265332434,0.7556339407232967,0.649685026594751,0.6990710002741687,0.47004370911647597,0.287177166085684,0.28969022750617507,-0.20111143234979154,-0.19730624070906586,0.022260837714987713,0.08251532062594129,4.6503526206352107E-7,-7.760888495468213E-5,0.0012169522628629856,0.15546837833124177,0.6193588379208566,1.00823656528585,1.5467817812410243,1.454919615859512,0.9388334681699648,0.14422465961993003,0.2545972348686243,0.6256947481222033,1.2033693687501898,3.116217327871564,2.24599998175129,1.398109532198801,1.768603755308038,0.7624337419859352,0.1503143675870133,-0.12949719431290405,0.8218239196309658,0.23461505327397114,0.15385256631329966,0.05326720205340169,-0.18466398238268464,-0.07558980699295167,0.014158862899403865,0.014802594395620955,8.585266376557303E-7,0.0,0.0,0.05331563579149148,0.27066736377284417,0.5683360234803146,0.7042145461470645,0.7563700567626471,0.6797017492317199,-0.6423657854801691,-0.9004642517898048,-0.833027637432287,-0.5975550277590039,1.0843932693930998,1.6493620543916137,0.9603729484721345,1.4306372476052793,0.3925068205152364,0.9431973101828461,0.7631375060793942,0.21428614543157085,-0.7646665334401631,-0.7610437199139318,-0.3071238640002881,-0.15678078587251384,0.18705144279948174,0.03580386711877207,-0.0039411505258792195,0.0,0.0,0.0,0.030251343318914464,0.08562465488392516,0.20008108230398014,0.346000882406885,0.5437962912563977,0.3318756498071075,-0.11918795523749237,-0.39653497161948187,-0.025437742075579566,-0.05350013378569085,0.038092877258975706,0.503838476136406,1.6800064074646393,1.1820460977106184,1.5451376392062188,1.098633908648139,-0.35418068702130273,-0.6434361357439471,-1.228992365091795,-1.1917937976682933,-0.4269454077498296,-0.07485481203229048,0.08624653850366282,-0.04386395312374893,-0.003803767171746819,0.0,0.0,0.0,-0.007613124090092782,0.02302190333044272,0.022993805805370374,-0.14481540054034356,-0.23798856858134745,-0.12749890416097057,0.22953013891724097,0.4604641860812995,0.07303478133433389,0.2989051063893311,-0.7004378781181121,-0.1611214229603707,-0.03204868089853726,-0.16065734407164373,0.5470896818706247,0.3087350356475702,0.19075915128515364,0.16440181746819524,-0.9669561590746127,-0.9533381399945889,-0.2969563976438422,-0.05512757008369109,0.05644474339749423,7.643228944102691E-5,1.044923922967555E-4,0.0,0.0,0.0,0.0,-0.004386012187953776,-0.08542260069944217,-0.12652329267509926,-0.32856801494720217,-0.39628829188831016,-0.17052409432662216,-0.24339862877067966,-0.41078990673672405,-0.6345655312512619,-1.5604725124577408,-0.33533725498855366,-0.06675055236617133,0.5513993608159682,0.7707710056906295,0.41155391206713676,0.6602237320444017,0.5731236577532757,-0.1801725784255849,-0.07174801323287405,-0.01069619149907995,-0.0631341755076151,6.05724544648054E-7,-2.4523778244324262E-5,0.0,0.0,0.0,0.0,0.0,0.0,-4.270578571806533E-5,0.0010503530514304547,-0.0020253158837191328,-0.005732382740022148,0.059795738035031555,0.11288260834614011,0.21580635895594077,0.09247982352640431,0.1627857385546591,0.4312067177822501,0.33263977289813657,0.0424902421139867,0.258793674766255,0.34742780976932003,0.20897252583721326,0.21153305035647132,-0.03280236775485921,0.011121735676070964,0.03607455410846277,0.007810458443773223,0.0,0.0,0.0,0.0,
0.0,0.0,0.0,0.0,0.0,0.0,0.0,0.0,0.0,0.0,0.0,0.0,0.010134639925803634,0.022193238423806105,2.082832545530459E-6,8.678468939710238E-8,0.0,0.0,0.0,0.0,0.0,0.0,0.0,0.0,0.0,0.0,0.0,0.0,0.0,0.0,0.0,0.0,5.953689394932641E-10,1.8787467190882214E-5,0.001632286912657298,0.0028766070373449863,0.014634986218741876,0.01386215693775262,0.04970425999446169,0.07760110042484672,0.10225171912979088,0.0661219154222575,-0.01380932167623622,-0.04560418409768254,0.003391039777649135,0.023873140419279588,0.006954480455215488,0.0017162980806848828,0.011752175182918267,0.005625058769096897,0.0023441398040554627,1.8927044084172666E-4,0.0,0.0,0.0,0.0,0.0,0.0,1.6673683556992025E-7,1.2372923471202395E-7,1.571432777549528E-4,5.525019571585222E-4,0.0050773018205576975,0.11084050143974677,0.12098852137304607,0.06580015436219215,0.1541687149178297,0.1629132584522776,0.16724543648114276,0.14843632282570146,0.04950529874781065,-0.21621690309344274,-0.1464638254373357,-0.20083524887385004,-0.24374446405637187,-0.12197582646629683,-0.06555523165965861,-0.013057626574206943,0.01383676298942,0.0026616200466991805,-0.004490570649202781,-0.003126745400819297,0.0,0.0,0.0,0.0,0.0016337952247268955,0.0016092410591483745,0.003867120014319832,0.052334602499594575,0.04743484353511888,0.12129509601128714,0.14952365581299654,0.20367363666577445,0.26050332237678814,0.4341852164090289,0.9189676268658596,0.7612706343766013,0.30671726990311793,0.047645643144804795,-0.3045061286627071,-0.2862090928491458,-0.6412999404582073,-0.3316869351210781,0.03240360157648439,0.09903372607234841,-0.039048088801247764,-0.16034656675145073,-0.16277541237186358,-0.024867320861240935,0.0019120403907826316,0.0,0.0,-1.1542641600792214E-10,0.00807082572294985,-0.0033612167562648457,0.10022379685183773,0.573693189475032,0.8145237727214377,0.9896935339469115,0.9198377662659438,1.0773760752701116,1.0333544110272614,1.023583036556238,1.2770996530536978,1.1000317743897774,0.7349905207004434,-0.08370905687762342,-0.7518545436538707,-0.8991691011956157,-0.7775294067277277,-0.21133533269831403,-0.5486812866096289,-0.7957169635329634,-0.7390611492799191,-0.526311490326621,-0.2362522758166594,-0.06541498700855042,-6.890292364273867E-4,-0.004094122280694652,0.0,0.0,-0.001827925275134672,0.031150987284837447,0.3513435377411412,0.7650120458431452,1.1560349505732002,1.5661384767133342,1.311252809709503,0.38093679301940814,-0.21753102495774704,0.03287233011823828,0.7486631393738566,0.18356328618450402,0.375034806560202,0.8873015695687512,0.1110452834077554,-0.32234715785908297,0.1680520387884704,0.27571705133722213,-0.39629551683681646,-1.2265499311408712,-1.4695041912157654,-1.183153692441389,-0.21908565958711942,0.07097522278519137,0.0628790049648045,-0.0018965890772648763,0.0,7.131228542672235E-4,0.015988003743396276,0.18673923176961119,0.36660254864758895,0.6818455567812863,1.0027848161716935,1.1241584466869252,0.45487092887019687,-0.41301339367471596,0.31639383991287123,0.0016743051638313429,-0.7383806170790406,-1.156693287310755,-0.7187353814242936,0.7200519066364967,0.26770627041201844,-0.26555420688924664,0.7916675416163756,0.16064186240545397,0.8699422900061854,-0.4943651020446429,-1.2109711842652118,-1.0739390028426854,0.1399463447144941,0.6775918969350179,0.15475300142425757,4.736533434706128E-5,-2.9471495280948234E-6,0.033153441006040826,0.11341165813433297,0.335321628353014,1.0264993375195821,1.4610633312328387,0.951849970990711,1.126835211494529,0.04639021685797484,-0.2036607838819432,-0.8374974051629153,-1.5654847229522604,-1.5470473386092543,0.14827812124029366,0.4836022316379854,-0.24178577087607325,-1.0297460843521775,-0.6750115747185544,-0.09498559307989081,0.07364409286190807,1.0152167835568948,-0.6018983163646404,-1.724138602307171,-1.9378301483614677,-0.4468719778503671,0.6196801772958223,0.18881235992083215,0.016944082250120642,4.459453536370451E-4,0.037548225132637,0.027929641956176587,0.5310853626842711,1.8376131796111503,2.071088645886124,1.2094218497175389,1.0666491633628827,0.15594404237620346,-1.2596643935113536,-1.6541184129275441,-1.0301863095326478,0.2841259903809812,1.2401115557713065,1.1926102850094262,0.5462538545774858,-1.0747668782824034,-1.6025178905250599,-0.037304769675251294,0.8895666071769317,0.3021397410152766,-0.9253878056118987,-2.20331970778899,-3.3039280346146693,-0.9073141492442659,0.1366428369840715,0.29804764545891693,0.04299035617128671,-0.008077191060260657,0.01109586023984549,0.10611644236227673,0.623235569070806,1.727861687336764,1.4147872001624568,1.0240693871179671,0.29722767909762937,-0.5416025430428256,-1.8204403895948922,-2.565986929018272,-2.65737201606912,-1.4947421920068704,-0.7185037216076019,1.8647655007952781,1.5313939203333575,1.3315583981721109,0.4899041215450575,0.8615853227869077,0.5410130312600224,0.40133519933095746,-0.6665342754482382,-1.4815246147930161,-2.9282535615219842,-0.9521434364970086,0.18882726210355935,0.21134256191351505,0.016536856216690005,-0.01603331379885485,-0.025066682073438453,0.18274172791742385,0.8633792460715375,1.2980093648003095,0.7816815143715158,-0.4258184031280347,-0.8200512836722508,-1.9722112647443968,-2.1973778202222967,-3.2501064186111583,-3.3218068814548225,-3.5432256056802376,-0.8642574650442612,1.7027812406354548,2.325457041222217,2.541745129198172,1.0479875229101845,1.619220038619672,2.1472275626665436,0.8823894921605221,0.38223466510288473,-0.6262733352715381,-1.676685811056749,-1.1292844382909226,0.256211731260104,0.06182793877446722,0.01469229852159661,-0.003133827002883459,-0.05824116816062034,0.14676487319040446,0.9084297314504504,1.1995982488890566,0.2538479084441831,-1.2940899825424255,-1.9841682978632835,-2.0947563095403434,-1.3106943010417444,-1.7851948010559926,-2.461473438720221,-1.728355262103742,-0.04940384868562,1.8890201367067103,3.4859115792301254,2.964771303973001,2.253530509078638,2.565427800065854,2.263168666708757,0.8245291309059914,1.18806814170542,-0.0063160639297707806,-0.845477496481814,-0.618560909765515,0.21574774654793147,0.06494056967954481,0.003849132702765361,-1.325388621574767E-4,0.04745757642525892,0.1091521351581461,0.542791026981692,0.5506024059983339,0.2625990487834172,-1.0206230395069784,-1.98062456321268,-1.0724162305795557,-0.7241086850059512,-1.8050982882162456,-3.1442460834244454,-1.8444382996555309,0.21799508867878148,3.3259206615538854,4.4186740682764025,3.9280776062164886,1.0440653064560326,-0.8002442618489217,-0.6596995383080646,-0.22504356429562175,0.6353291973292331,0.3455284149135402,-0.8293490303405117,-0.7140312609928149,0.13690598749757052,0.049048473827873286,-0.006881560014572831,-1.0805054193200553E-5,0.11939624651929466,0.24656478293917736,0.20902751821191856,-0.11836275488773902,-0.4127637179117986,-1.009176039474586,-1.6587940575799707,-0.6299770396135252,-0.9158044212043266,-2.9211241926244114,-2.8075241463761693,-0.1275218798175988,1.90195897339437,3.4040002125996254,3.934812753381845,3.3256245984224457,-0.25713441353743166,-2.080155294825213,-1.2993419995784508,-0.48019203075153305,0.38014481964505514,0.014867677695597584,-0.41807089850705,-0.15945785470295332,0.17504952390456133,0.022127307541986347,-0.010172512105221989,-3.902326831537795E-5,0.09023934185892292,0.19771382550667135,0.12410891229529347,-0.320656873516468,-0.2861598734476521,-0.742772955895625,-1.0064070188378944,-0.8144338931389465,-1.7536971744081369,-2.985388150304766,-1.6231669528362882,0.8602074919570852,2.464221144956641,3.994440701568745,2.817114501500992,0.30193614241377953,-0.9547799429007983,-0.6903384731264346,1.3152170387261939,0.608882056601413,0.7903517492353694,-0.07217587955440247,0.0374993414638436,0.029337906557431893,-0.02955773900916182,0.07685500050223228,-0.009135964842731313,-3.9066452877279353E-5,0.01587011637033826,0.1307017677924384,0.054357559509874386,0.07190610302431785,0.06107120402033634,-0.475930814026903,-1.2479944407573011,-0.9815497110351189,-0.9956249284194744,-1.751777965045817,0.1723511993698016,2.146095039786974,3.6756341109891095,4.599101952350049,2.271561147207568,-1.425352537978463,-0.7165099744803172,-1.0581475203370228,0.513231723293803,1.2081679846591276,1.2943789303441346,0.5690658418990775,0.2831802182075025,0.09015157254994137,-0.061767676889488594,-0.030756432433379954,-0.014647487321819827,-1.502224145367171E-4,0.015565709631852295,0.23276051896379826,0.2681581323068965,0.24012504655060585,0.13241211003311307,-0.853918176556482,-1.197008754375912,-0.7379721096193658,-0.48248349779915034,-0.7882701916133739,1.1369181823833134,2.103757716701924,2.317817071793767,2.7356616222762273,-0.013832136088219786,-1.9578265380039166,0.05340315938502429,0.04745087938699257,0.7072157769281281,0.13381203004254322,1.1026878918189098,0.49060801477930643,-0.4399036158805149,-0.47954396557108475,-0.608296653300256,-0.2021444374181768,-0.045137886938711264,0.0,0.011726034756417834,0.26468541563996995,0.8794264093728635,0.513856016437149,-0.2722973915723424,-1.3797073393036683,-1.1720845691823565,-0.01638278152578274,-0.21321946132982986,-0.15511179652247015,1.3348494595220355,2.408838274125955,1.779199765008684,2.009019761079968,-0.01796784392096325,-1.525077330053051,0.5835197501412716,0.3851408199624203,1.0234301713649265,-0.27238489615114836,0.1740377277157538,0.4760205491687464,-0.5568357757753235,-1.30063576442818,-0.8517589863533909,-0.21404483254105364,4.667822821328648E-4,-0.001367163435017271,0.0026783914507547395,0.3080086129930039,1.4532590958554643,0.9201140811277586,-0.3377325952177112,-1.2250521556622502,-1.4656324965255692,0.20856440350661107,0.5620814268240644,0.21742889785612995,0.4686746290656048,0.1202993779132963,-0.46500341938260736,-0.6212700773473419,-0.5763242630478401,-1.568192790211502,0.27238223345227874,1.183708531451887,0.8823512441872842,-0.032882795980915716,0.054811233317477975,0.3107826812680099,-0.48188038767425984,-1.3844614877521906,-0.5672770106803976,-0.07423339059063808,-0.013450113846158638,-3.624882476104279E-6,0.04422462021221577,0.3541121465921566,1.488936973951757,1.3393187357650527,-0.5076768691239458,-1.2399792006804187,-1.0748748506729422,0.3738453590345314,0.6988187580615445,-0.13234535996328023,-0.8962826632451254,-0.22015437357143916,-0.7307065067581041,-1.3092462060138548,0.004962219475201324,0.0737756758991628,1.2018775721861368,0.43377065118887276,0.9115395258716722,-0.009414513916345402,-0.3002013848909248,0.08978721555750162,-0.5549603811455224,-1.0997033952276405,-0.4603361145908327,-0.07763418458537076,-0.006522816036738318,0.0,-0.003126840603888873,0.27508519736983195,1.3949756760755172,1.7473630132025646,-0.08858089048007493,-1.465363889730079,-1.500948880211783,0.32605498467257865,0.046844107719690886,-0.29828917359261903,-0.9490359621235407,0.4756074548221861,-0.7767955887975978,-0.02189737880775826,1.2423121538814146,0.728895883795902,0.5448853635481622,-0.04793238838670183,0.20355412409115903,-0.4490037060228202,-1.1992696765666115,-1.0463841858882785,-1.1761085292769216,-0.9920639719013754,-0.33164389795439564,-0.044647746677363875,-8.683280333301306E-6,1.4778497961394397E-6,-1.6696283031084449E-4,0.21773489175529348,0.9830723196997934,1.206939239197561,0.8232114665267364,-0.3057582191385921,-1.0298657331032257,-0.9395735820960357,-1.781837334196622,-1.4346927478363927,-0.5431956038572207,1.001337207293697,-0.09555514224164165,1.0607584351760289,1.3994490758101275,0.8348375125626428,0.09420614041372215,-0.5027981905588672,0.4819757849555562,-0.39420894424798053,-1.413542239112643,-1.3106960871069124,-1.4044170061053884,-0.6240702046089498,-0.24129773548148278,0.0017645399959301089,-2.2996286348969366E-6,1.4316669900100825E-6,-4.397010877179033E-5,0.26536753130820695,0.8481329752630663,1.0758416152145067,1.5191740835065257,0.5209698123153881,-0.11952573823034796,-1.6910090494326415,-0.4335706043287417,-0.14943967296330807,0.566303123912315,0.34819483380667954,-0.12289282214161402,1.3927717640253363,1.413759188715629,0.4098154880699721,0.9103464232415671,0.8209652810369571,1.2811657253531112,-0.46698991718386224,-1.357567523708316,-1.3770164523988984,-1.0547430046529316,-0.3890839372061163,-0.11580112604204444,-0.007523401973661466,-4.245468249040498E-6,0.0,0.0,0.17134295916401873,0.5019453099543876,0.9896320992279685,1.6510606673300352,1.3801780790294451,0.5810606377469114,-0.8270728556457648,0.5694852466823137,0.7169954173285097,0.46752355857839106,-0.02761948785244342,0.0034461068196428098,0.6289417019790632,1.6343920904140887,-0.015003478387595396,1.4079594454292506,1.4717411567521246,0.6026800130609372,-0.7486449800259534,-1.3752495631849273,-1.0260383654349772,-0.4908955228971706,-0.18619165097947943,-0.05852812038643348,-1.8539152050854122E-4,0.0,0.0,0.0,0.10430993263537908,0.11824224206918932,0.5304982691921765,0.6487734959175513,1.1813946785159404,1.2036572919685908,0.4455833979747894,0.7257660112593823,0.6940993812042199,-0.10337451451842776,-0.5566905799730457,-0.4032729014535294,0.6434559818670753,1.1977661209982209,0.03853296396352366,-0.7094662978242109,-0.7750629254115958,-0.6357255950892264,-1.430614016904311,-1.0999176892307763,-0.4761709647146897,-0.027292600715334566,-0.014861573598456702,0.011187453050924742,0.0018718947537432445,0.0,0.0,0.0,0.010041709010011873,0.03117176043024072,0.1646088568840693,0.19269244557105383,0.020678043647077614,-0.5973642686133824,-0.5602437320686489,-0.15363387739277243,-0.35008938797330097,-0.22755174747008575,-0.7548500334381013,-0.5839602850815306,-0.5222690310940279,-0.600968238200172,-1.8784128063739522,-1.364828793590559,-1.0427589462066447,-1.0884486828435704,-1.1028600398369481,-0.7524988513838325,-0.39784726020912076,-0.08741834632592978,-0.023503267336907926,-0.0010416061871355439,2.7865589080542963E-4,0.0,0.0,0.0,0.0,-0.0011365820688999833,-0.038718122672859005,-0.08509278513057643,-0.01888406714227166,-0.020572108386023205,-0.3569201411154788,-0.9815833480269208,-1.0954988373094525,-1.1455018001286128,-1.0679890524315696,-0.45759065182157505,-0.6183486455738209,-0.759416558134625,-0.7809768203946796,-0.6038291714956093,-0.2714475205299241,-0.30100564078326575,-0.04275842951510814,-0.044920534656892074,0.012845964512774817,0.005523058009769911,2.249329401132743E-5,-1.1033399874789024E-10,0.0,0.0,0.0,0.0,0.0,0.0,-0.0016328848494276038,-0.004042659561458209,0.0010971852374317033,0.06782182769331187,0.025933926724282696,0.007369378518978897,0.053898473071180814,0.05813817472510746,0.10791122242997271,0.10917119084446432,-0.11704902538173388,-0.2413834392890292,0.006325417927130777,0.1433480766821368,0.08961811170679825,0.03191257304633609,0.049774550088830395,0.009399013869380721,0.013827410839264974,9.039795459318166E-4,0.0,0.0,0.0,0.0,
0.0,0.0,0.0,0.0,0.0,0.0,0.0,0.0,0.0,0.0,0.0,0.0,0.02068214734181345,0.04718573095869308,0.0021131792121051817,8.804913383771592E-5,0.0,0.0,0.0,0.0,0.0,0.0,0.0,0.0,0.0,0.0,0.0,0.0,0.0,0.0,0.0,0.0,4.5157591814732586E-6,7.860946745684642E-4,0.015809634181834783,0.025151671138321435,0.030478439188300132,-0.001779002449152082,0.022164190953754142,0.07390734426973883,0.063218313495348,0.02154358086292608,-0.08642869088368245,-0.03478445029482054,0.05156173624411217,0.04237781808588634,-0.005879821753152829,0.009772176128120081,0.02588072372643214,0.0072685228430949276,0.0039013386273129987,-9.273839546955143E-4,0.0,0.0,0.0,0.0,0.0,0.0,6.760984316768866E-8,0.009957131661684972,0.0027000910914837515,4.065434574800942E-5,0.00850063742235317,0.022894523865206576,-0.027336034056836683,-0.11553970624317911,-0.11832716473053184,-0.04585801803362791,0.003207446467616216,-0.02609999042480901,0.019652583452689196,0.04311235381256706,-0.051983138466352156,0.016470394285218067,0.08920112350508387,0.03167548101062238,-0.04091112827486129,-0.07291009598701846,0.002794731176685649,0.016838206043715487,-0.0016493975432719332,-0.0044841160441573555,0.0,0.0,0.0,0.0,0.001563228943599557,0.030339099489765625,0.008393874033972347,0.018952314896604906,0.03064402043147774,0.029696336931097623,-0.07475914451415237,-0.12449753455344843,0.06380620578034657,0.07226819758319833,-0.17887756100940047,-0.30028610951466034,-0.7901948302298658,-0.4530121246100058,-0.4796597053944824,-0.43671165120631156,-0.3520330798190379,-0.2072321719731162,0.02350167828065046,-0.1683000421497001,-0.13500864433577514,0.08950515566379626,0.1014079600035505,6.041584366338074E-5,-0.003527617030550908,0.0,0.0,1.3398309198404595E-9,0.005131236045158021,-0.004654426943863832,-0.034626588036505805,-0.09566510003973427,-0.08904036982817705,-0.18450469756432122,-0.36960085444962126,-0.30737679515313276,-0.47319123586194517,-1.020875754034022,-1.1573620112889706,-0.77218881775216,-0.6780826300510571,-0.705671552554039,-1.581490801651107,-2.1642306680086225,-0.9840861702974414,-1.208461584113339,-1.1206125615484175,-0.9255974002770749,-0.5584650548745324,-0.543744735509742,-0.19177192475194815,-0.021618938700716534,0.004101151397783346,0.007560435651514481,0.0,0.0,-0.004723937926158697,-0.05287185310066885,-0.04110437131586701,-0.1360210095685017,-0.7404389732540965,-1.0630488318483453,-0.7738318864416738,-1.3570599485819368,-1.0870108675446977,-0.07351730208025684,0.35875674183690204,-0.08253216229218224,-0.07768496497314807,1.0493371346440064,1.1330712955741407,0.4547911785443821,-0.08682590594717894,-0.14707038938558253,-0.6125813324645932,-1.1382617824853638,-1.6022792114880702,-1.670275286929132,-1.4401723462628737,-0.35269635620297984,-0.014387880759974025,-0.003975673129295627,0.0,3.338658834360925E-4,0.04774661847405067,0.17832733709630563,0.13914925330988018,-0.28959278348989603,-0.5121868338773865,-0.9867916094040897,-0.574126523296532,-0.679560971496997,-0.5497657889137268,-1.0575463337579596,-0.6306097435147692,-0.6562091257644844,0.34052792084053757,0.952378402897544,0.5953186688066269,-1.264518129531935,0.3622540711378129,0.5230028274967446,0.05637498974262115,-1.0304676509799082,-2.00091937056985,-2.543665138623459,-2.0216123638705414,-0.7296246097991418,-0.16852126725402725,-0.0216934502082682,-3.4645971799654546E-5,0.010224845152136211,0.08040929785082382,-0.027727761279748325,0.3171253722005442,0.502617307337978,0.6905305924815363,-0.20666935056280042,-0.6595317656784154,0.08288821500699996,-0.9454069998285414,-1.7226191925109753,-2.1018295024090925,-1.209777957654215,-1.311477345258488,-0.10193489096917695,-0.4261179547892158,-0.7345713083390844,-0.893784407470109,-0.27264425026608824,-1.4870238256411843,-1.9985688007814588,-1.825069343827385,-1.8051837731342004,-1.2147497541217547,-0.5342519331027271,-0.061298233522424646,-0.020597265592446342,-6.126123986383036E-5,0.051959821617960276,-0.047211366530610595,0.06641383627235002,0.7676498853100678,0.6245156072776766,0.9349646838636637,0.7067472572578671,-0.12969943585510466,1.4993905268695953,-0.07467999334264407,-0.7837851839197757,0.6136414159385366,-0.4023735374319209,-1.190546569643466,-0.651873248123181,-0.753002065598738,-2.032463289945045,-2.5652441720738905,-1.541438872486937,-0.9162441312099768,-0.5342970249612667,-0.652056830248762,0.25772801798372014,1.1563589843583495,0.4251636717981612,0.06666488675562555,-0.03478126159417443,-0.0013697755927903257,0.014435850782187953,-0.13827919234980943,0.3566939346661023,1.1795487057037244,1.1217542264840652,1.3609829426834466,0.9021926949891396,1.1651554189073539,1.3868380868376977,0.7991423862573797,-0.38075358145491417,0.3140837566978414,0.9166891114282588,1.964773332705996,0.8984015201499803,0.8648605124464632,-0.47249157752069815,-0.2969433591019583,0.005755912128468638,1.0453595641952504,2.5157822721287024,2.330211631731768,3.172874430971804,3.401174016131391,1.1194072367352694,0.26664605174155365,0.03912331389781514,-0.0030467057413208595,-0.021071300195747104,-0.02004078720101672,0.8238379804841548,1.4352745753042455,1.6013381636109765,1.2825805560624104,1.1604184741662331,0.6076935514569212,1.1035404975475276,0.6249030841829933,-0.2634589451756423,0.6579404281252558,4.205457457317398,5.378324467893106,3.6049577067000165,3.643171227996295,1.8879972455940977,2.5824046267449834,2.3377853314144525,2.242650679820453,2.333185242280089,3.0089556573251452,3.9958937301680266,3.0680160633172466,0.990777202250159,0.2885899136108007,0.044318578684913686,-0.003788236197671138,0.02793709045595864,0.335204378592765,0.7323096560749572,0.5789368024874169,0.8179473545182482,0.5244654955156649,0.4567609436856664,-0.003337956600821208,0.8645444378344805,-0.42576900507705445,-1.5184638987651395,1.5601066111429367,5.8123377143507495,5.917237509944044,4.110201162670966,1.9123508545751833,1.1678953590571424,2.051713917258269,2.9838682207617695,1.9876429919208174,1.2307387332185713,1.783579549081498,2.2088871012443945,1.9313369147827342,0.8073101238289495,0.03921951757501649,-0.006616289013722798,-0.0031211844915146557,0.20808504752137288,0.5184112402115281,0.91152417383451,0.23068131045294382,0.6158516776735612,-0.5151457860078592,-1.3701054899894691,-0.7277403192712425,-0.38051226961253987,-1.7817812346634812,-2.2147654760557587,0.4877523297549617,1.098049505972528,1.2477396500887026,0.913465028712547,-2.0920071816488437,-1.1323725994774532,0.5443248471686392,0.933388003251579,0.2774926760959363,1.330820510528817,1.4109429989313254,1.0661150602238145,1.0578579649708402,0.6970085794243778,0.14666818666278209,-0.021024548139197016,-3.164537507308023E-5,0.10937728762918393,0.28257116387876474,0.7267885823932273,-0.47693920257679584,-0.7763192346514542,-1.483726725915127,-2.8628263458043057,-3.0716307708082984,-1.278181524748418,-1.2164649826191618,-1.3170047159144993,-0.5275160144150082,0.8530959393844363,2.0113280040185386,-0.20536499959058283,-2.944358030459382,-3.242705149865497,-0.5296519205161212,-0.33261063112750144,-0.2076212207170284,0.2711769758286391,0.6791876759649157,0.9077261818788457,1.2062438618097229,0.7062862588612274,0.24432090310832247,0.04302438829888831,2.0467839547870279E-4,0.01264971383453583,0.11518926594715677,0.37411238795016294,-1.0548270457500124,-1.4865979568445595,-2.073721000528538,-2.7318154341464953,-2.313672331686733,-0.59165359721053,-0.41095110617987185,-0.9883820198293746,-0.18295315516552316,1.871995560318002,3.3293531294578007,-0.6896489367019051,-3.117004218939455,-2.0464641867759172,-0.6025542235895183,-0.04475921500733456,-0.07232572039670555,0.5716574109975792,0.7328575239971181,0.8467201138739081,0.761046040311975,0.8608852900772256,0.43927456880758964,0.00550903305655896,6.678076933711796E-5,-0.012642665686268572,0.07892994833597332,0.10710169573269619,-0.9355036534799864,-1.578165479543147,-1.3708335705265904,-1.5422508180234018,-1.4131777131493368,0.24834562930854145,-0.17426376813515096,-1.1756837668183002,0.9534186067392166,3.164614811255593,1.9785374187694564,-1.1095411289928316,-2.4538967483121117,-2.772141860850836,-1.1742021557381028,0.12832290491769383,0.26703783212111526,0.7691469025399801,0.5381073157115654,1.1703698836040528,1.8164557191250978,1.513964864525281,0.7805036947325353,0.03142762521364902,-1.3589733308557894E-6,-0.005281534874330353,0.06512988450341549,0.2748898617015816,-0.1873704564270812,-1.3084536540611973,-1.2658280431963707,-1.168096387217945,-1.0367552340076052,0.023032788487625286,-0.620897278311531,-0.7390767962964646,1.0002649246264426,1.4658205444534105,0.3728349909644269,-2.0498115736131433,-1.7885740609826353,-2.3536053654956737,-1.5846918589011405,0.3619246959509513,0.611220290898139,1.4748187373862203,1.3882976780534928,1.7267406514868877,1.7828794353753965,1.2021756460239112,0.7977763955570331,0.022071982847371625,0.0,0.011184939695665074,0.0022266598575871187,0.5487373110663536,0.45756337815661513,-0.42049351423525533,-0.7047403396378559,-1.4468764545996053,-1.0381811177101863,-0.06064677222401787,0.04486126467244903,0.9002606038716277,1.2330077698256696,-0.3284588934853503,-0.5977872928250295,-1.4315435087673896,-0.14387843474959913,-0.2808479442105198,-0.897257462160877,0.4996024138095736,0.9725300889911587,2.059499559796312,1.357222882905268,0.9578305171338192,0.6398748402696367,0.6056063359388663,0.4090477864810233,0.02866029777530318,0.00999654585027847,0.0032942011756535577,0.12924741908628581,0.6018315410452068,1.2368204137435028,0.6046143615789837,0.0650962062816672,-0.3174688215641281,-0.6581534297629617,1.233240769137415,2.3573205377317348,1.884870817342448,0.566006164809175,-0.30841823590986334,-0.25187194518693967,-0.015427422215922354,0.5102787112469835,0.35999445851927997,1.0261617341039637,0.2551334191148521,0.06628300237950856,1.55863035013933,1.3585959508981091,0.29742450253696534,-0.4180394854903488,-0.17718916084730696,-0.005573864198476416,0.006407056974214735,-3.6566006011550346E-8,0.009023676103335532,0.2979026530585643,0.6573105062168103,1.5192200960775522,1.8700161734967509,1.7896399844599342,1.5661992980341,0.6865972938434927,2.4323588671942438,2.401712126683126,0.8242401705939543,0.6573437949120818,-1.2926424263892686,-0.6962463726993756,0.04768360691389892,-0.06280508420124217,-0.12046466736404797,1.2758535803322817,-0.4132626072052008,-0.0956997142308677,1.1573568386183175,1.2830521630159233,0.5544673404136065,-0.2746409189431893,-0.16716883748599495,0.009050960990699013,0.0018894689494404662,0.0,-0.0016197781658964818,0.16548932532434008,0.8274569279959568,1.6032389027385696,2.8489190374342,3.0272110886191683,2.739422777784734,1.3732528530095098,1.6458702744806277,1.8057515435843554,1.0421730222177146,0.356843675319613,-2.448917702591563,0.4847084458587962,0.550095990575514,-1.0114211028296782,-0.7983211538584672,-0.5551730882962149,-1.172938043707457,-0.36466687182195373,0.5919171387166204,0.4860306646481782,0.35853066490374036,0.04522347621895607,-0.014112519151822467,-0.003845637171428757,-8.951422517915313E-5,-2.146810916790001E-5,-0.0014390101379177737,0.07402774228328467,0.6177752733293078,1.091716177904378,1.9393926720977985,2.6762525715498904,2.795061453505776,0.13010073865201513,-0.5803629648254194,0.29391782987995746,0.9352057317276348,0.7948971002754384,-0.011065804649754098,1.6317434038891576,1.1701421763386368,-0.054372333423953846,-1.6837022911916275,-1.6073308274112703,-0.8851408840862364,-0.29629127554522355,-0.30189775714251965,-0.15720233094543237,-0.06384106952705129,0.013042436411649781,-0.03686539789653492,0.017249324571799306,-3.4287119649892505E-5,-2.079723075640313E-5,1.778879124351544E-6,0.09224658342654773,0.4924721470061541,0.935315430087832,1.430013293885039,1.2994063420656032,2.120756705685191,-0.38192382892599513,-1.0423419222742607,0.09233459370076795,1.0217018653188914,1.1591834343073406,0.8374998821397367,2.179362782886452,1.6629546914569318,-0.20013317926158236,-1.0964019384324788,-0.9660027882921901,-0.10708546243350943,-0.9460219113433693,-0.9715339916759312,-0.8243564498185604,-0.41143232145541414,-0.07941839271820872,-0.04930554133922426,-0.0012980858551220622,-6.329929781518617E-5,0.0,0.0,0.07372544413357139,0.3918172259772632,0.7502669713361358,0.7813483059169745,0.40021317065278844,0.7580506755819713,1.8063138114737722E-4,-0.127811752951913,0.6235977431649333,0.9237953813999021,1.1163999263535072,1.3232393925292427,1.121050788588394,1.3396464234046939,0.8076033721282933,0.8099285302005269,0.04422608558836547,-0.3756207210253433,-0.8952468515467314,-1.3482292249254992,-1.3966776340613236,-0.5350022220859612,-0.03808490883691121,-0.05057549968108858,-0.010204875982817972,0.0,0.0,0.0,0.019363569093626142,0.07109682592758705,0.2364674128523929,-0.15015855060395697,-0.1522207664403391,-0.445262099754781,-0.6883638140023457,0.1142456864300112,-0.13684172960702515,0.3601822815248091,-0.6436839081006962,-1.0453026784983004,1.188241681300026,1.2230294784585347,0.6414698894563351,0.10585873934969807,-0.39967370492972076,-0.26296668355696906,-0.2121438312382624,-0.7839203913549954,-0.6242143666786611,-0.2525164754007187,0.1620021973011683,0.059424753039121,0.02640658803570739,0.0,0.0,0.0,0.0017923709949328286,-0.040858807338158304,-0.05734351726610984,-0.6906789564854233,-0.6249544310707642,-1.304286361865273,-1.483158919245288,-1.3606055762183784,-1.4272859658487593,-1.0440301150036995,-1.152799900284191,-1.4471362797259422,-0.6271546239801626,-1.4645584777726617,-1.5868581016612426,-0.5383548293708291,-0.2459272984284876,0.10594478697684473,0.21258409945052917,-0.2040435228298165,-0.15280765616844802,-0.07508735744090755,0.05701612286971694,0.02355083322459807,0.0281527035780109,0.0,0.0,0.0,0.0,-0.004053941136754975,-0.06642368969073165,-0.23731051698461295,-0.2536933113646775,-0.42514740413608526,-0.39358314312741105,-0.9001356165954354,-0.7604818327127661,-0.4276103933572261,-0.8532500764934411,-0.6232158442624729,-0.4215005828935145,-0.5562240625057039,-0.36977878849357254,-0.14230349174103799,-0.1346881211524165,0.016175753624111083,0.1383406745522354,-0.0377926059962351,0.012831995749240384,-0.005190123591237867,0.00764819297097287,-6.003633652625572E-5,0.0,0.0,0.0,0.0,0.0,0.0,1.1906902759161505E-5,2.703168575594699E-4,0.017201845489002433,0.09434480633758828,0.0821446463618721,0.04969282218042124,0.15340229330009333,0.1640368195115749,0.08477746250868985,-0.03296606150923735,-0.11910966529651067,-0.09863840453159634,-0.09955324944754969,-0.042016162725128904,-0.08106600910893479,0.10346065401898902,0.12673383420651668,0.05243784476601523,0.06842094980736535,-2.5594465913180944E-4,0.0,0.0,0.0,0.0,
0.0,0.0,0.0,0.0,0.0,0.0,0.0,0.0,0.0,0.0,0.0,0.0,0.009841267721995506,0.023201175581805067,0.0018385744838402354,7.660727016000977E-5,0.0,0.0,0.0,0.0,0.0,0.0,0.0,0.0,0.0,0.0,0.0,0.0,0.0,0.0,0.0,0.0,1.578288501040502E-4,5.672952365977999E-4,0.002097254619871201,0.003980799411410509,0.019784297923429214,0.04068718059714896,0.0824307735959679,0.08032971673883166,0.16948491395158924,0.14891045588359697,-0.0108655439734736,-0.019740235472382774,0.12263539197600042,0.1573826201359419,0.03430840544068862,0.0025398558530698614,-0.021403573372893763,-0.08605711510931807,4.274991785736357E-4,0.0028678515330835155,0.0,0.0,0.0,0.0,0.0,0.0,1.0823586663419775E-11,5.326053741726147E-6,0.0015999894524386434,0.002506260186315882,0.0046016297327569535,0.0661265274238125,0.007810533450596222,-0.0030013313110696673,0.23893268600358766,0.3063756321271257,0.15474674664786564,-0.037222438592203574,-0.16544587352030915,-0.0809355565362958,0.16692049009888446,0.1797916267798928,-0.4154308968542865,-0.6511848618216479,-0.2831641876436164,-0.30917301095286237,-0.23028984186181534,-0.029862969637715148,1.977970874517117E-4,0.0026180209054423114,0.0,0.0,0.0,0.0,0.002171743927566165,0.003946048096089561,-0.003949806039692302,0.027343578580728934,-0.013681885507462105,0.1887651221732994,0.1879402944217372,0.15778743893485764,0.5282807095876052,0.6534152915253384,0.5701490650744148,0.34044928378304345,0.07185950324151877,0.28109420891195414,-0.268765712113148,-1.0978501662089253,-1.2937758858166721,-1.435569271429736,-1.5263460774196307,-1.3242294121636624,-0.7936692599119096,-0.24740871301760517,-0.029841380157648496,0.0012345047686554435,0.001792399056903503,0.0,0.0,-5.410218995242986E-6,0.014598375322387148,0.024735162808220353,0.04763085487325943,0.18049329855105148,0.05132738967630757,0.1572045172219528,0.4322266968186986,0.502660204016249,0.7564779463786181,0.8653343991531024,1.3585109904008228,1.6814276587541819,1.7023275205832882,1.4245493386850818,0.7040232038897773,-0.3642684243091315,-0.4925279427438354,-1.045323040477967,-1.7452542168296397,-1.9057907972981527,-1.1859888538261538,-1.2831155645562065,-0.7928269151442225,-0.15201785821488054,-0.007916476506269518,0.010394509886212112,0.0,0.0,0.013797175247203626,0.022108703263792773,0.01324893049606849,0.1062111051098998,-0.12791705140085968,-0.16113873933826026,0.2542070978953602,0.5907137412901511,0.8146443376639224,1.536806664820043,2.4980681941729435,2.2001381768819637,1.9864056646703563,2.738734175797571,2.335684595001394,0.8755968650813205,0.602659370685436,-0.8628850815864767,-1.082895080981828,-1.1360623807818442,-1.0599616329288104,-1.7095950537580504,-1.0779140978749058,-0.28285667295325606,-0.08867446241516218,0.011183640590315536,0.0,5.753707349702231E-4,-0.009574779074965895,0.036530412794374356,-0.02204765057150426,-0.09439114745888218,0.09082488779642624,0.8724618342022706,1.427815048621467,1.4516145754581726,1.4966488501891806,1.2518132004708835,1.4780423548890873,1.0133304978336029,0.5653531841195568,0.9960754425001922,0.9378650771134676,-0.05443119490940118,0.5214387444029334,0.5901529981512282,0.5086202243360046,0.8896701496948142,0.3076189789599794,-1.1205668105776108,-1.1148468736417758,-0.7818847651432144,-0.44401058191992515,-0.006981600360165545,-1.0041759458175494E-5,0.023561017438754644,-9.25628448389749E-4,0.062380496595078154,0.2891496402884758,0.6758021476096912,0.995562762975518,1.2613912140707675,1.4229957412195813,1.6575536366232961,1.6404577831250042,1.261717492862367,2.071607355501107,1.4815542006033213,0.7390992473119796,0.8736081524718969,0.38321485873045197,0.8687416942496528,1.714070519935671,1.3776836132963295,2.155575125129576,2.4439242506631578,2.0119760430137967,0.8119908511318795,-0.3051804945058787,-0.469556822611968,-0.21489647826628575,-0.00530660246198567,1.6461415472407184E-5,0.0028578862971364596,-0.048553251442124835,0.14898737120521668,0.6105457388451941,1.2845192438959334,0.9385989733044379,0.7744206999510007,1.5686472427362543,1.7973477780910698,1.4541983612928682,2.2529022291713146,3.2862226277267688,3.1654837978406696,3.0518008084479784,2.4538305529523687,2.241917248918724,3.039276028711502,1.8188711863740359,2.1650750578190276,2.6568727239680925,2.5844271113784196,2.2831776182926493,0.2976409905737765,-1.2679325839275326,-0.9850120054974587,-0.3562471082245669,-0.01056393966627362,-2.435753367922692E-5,0.0038427625847847896,-0.0728656586542373,0.031305519233232285,0.6030178114259749,0.7696959558641844,0.4455612428563463,0.5220808206717884,0.738815532917874,-0.47896154940615715,-0.46117191552792275,-0.7436245601140471,-0.17080423200948977,0.6184419146255473,0.9174490868469235,1.3841274597344089,1.387809246499291,1.2639290143620971,-0.05191930176814318,0.34022660141105526,0.6656032369245728,0.4300951866039062,1.3947700790535393,0.6104527867432136,-0.12551273540957317,-0.2798563683284943,-0.02830755255768813,0.014331811562402026,-3.044581199969578E-5,-0.004569606493572245,-0.02683380602134246,0.06993579440592275,0.2416136323267679,0.022765476114288034,-1.074569167414843,-1.2187949311207227,-1.9961792761192096,-3.291553084638702,-3.5449384208052925,-4.096473669678262,-4.251092296361368,-3.4086187926094325,-1.7236347639009153,-0.21643916599764892,0.6145406247003914,1.2577075324330071,0.929459083861991,-0.4066468493572306,0.0325134014028557,0.02795618492773691,1.059836533355051,1.0569812145647282,0.5694776275747696,0.07405725619954671,0.00191202637350958,0.015735009987793633,8.479337502229923E-4,0.026679565193135652,-0.001490597202672887,-0.010548805219839018,-0.6421173841593626,-1.2856093602201357,-2.640475144620267,-3.4985093867558668,-3.4383012075679535,-3.44218642164102,-3.6560586409878706,-4.04067249626057,-5.290584910411587,-2.857418511263783,-0.6850557178213158,0.10574292488107155,-0.5820910982592298,0.16560535988090586,0.6558943745609521,0.7487725583281014,0.7141562833517551,0.26287940815491845,1.2020032379747625,0.8086039863164872,0.5326608794988441,0.24084292006657504,0.008902210936986484,0.02853728675778368,0.00228650656073324,-0.008412637141378652,-0.04716645020849248,-0.2608293529649707,-1.549147901921822,-2.1147041849467225,-3.327540001072841,-4.1318114752076625,-3.300261354233674,-2.596650732892485,-2.5581725335544157,-3.7054134468227446,-3.093207106742651,-1.5461888730324074,0.36864704887886407,-0.005862370796575602,-0.8651113621857442,-0.9902112117867524,-0.193751473328129,0.164022395768847,0.1653390517629977,0.5179073574293273,0.5471982621868573,0.2629286838141249,0.3061918239334137,0.18966496526794333,0.0541439489505828,0.028369274988289454,-5.2739027735678206E-5,-0.00619046985435787,-0.030858160558093598,-0.4392559584743581,-2.0630161383078485,-2.9732896938952766,-3.4468462305666967,-2.5046076149437835,-2.6778811014348665,-1.3642943333187363,-2.764756921919014,-3.1631183064343973,-0.16975814240905898,0.861513786316062,1.4357334893325806,0.1195108949011751,0.21735156518727305,-0.7853131825092099,-0.3994695225077851,-0.6401418855619667,-0.3028724927496787,-0.0010907849627403623,0.14722924384478842,0.04563822419834462,0.20879085654780952,0.42382334753732936,0.1799177654654697,0.020860405277554287,6.7419337220752E-4,-0.001282403550764175,-0.01870750999379619,-0.41068064195938003,-1.5939200144351444,-2.0427042349762847,-1.9240662787284724,-1.2337171591777525,-0.796279134836673,-1.3264157031963502,-1.6001182803213896,-0.9837218998325804,-0.0323685509218373,0.6157214665286616,1.1217228056369508,-0.6821308532350034,-0.5112069099147163,-0.7690028646775683,-1.095277651817736,-0.8889850704790335,-0.5818247369547787,-0.15623734484112423,0.0014678820663352402,-0.6087269608039261,-0.46176664242492005,0.36048111030866253,0.3795931974093332,0.0022083335382944726,2.1596422753937926E-4,-4.781525174537801E-4,0.05351840100094147,-0.21405668409140474,-0.44922362595960347,-0.33224648064903645,-0.013438332261452334,-0.5522529285060667,-0.6497592223545333,-1.0045323461090578,-0.9923636960936074,-0.7524643542253583,-0.3052839265671239,1.7652133464627966,1.9592117757355048,-0.2845737366960733,-0.7768986417863261,-0.6298528668219203,-0.5167298031355786,-0.8385803290364992,-0.4029343884239445,-0.48897680320149606,-1.0398978791122868,-1.1187098724437876,-0.3438930918944612,0.7254991796289146,0.3237762188533209,0.02715386359772526,-2.7367740062118E-5,0.012750349574699713,0.19474366477365157,0.30270442437168044,0.33575613438039514,0.0406818335080095,0.5424024619923524,0.025617799489255716,-0.7016068578757079,0.20903857908268988,0.09426335373983304,-0.36276898784470984,0.8375740001595271,2.319804243326273,2.0724221471071194,-0.19513599602964038,-0.4558667062516632,-0.9755496290289991,0.2700086829377259,-0.8048071587226108,-0.8112420830879729,0.02712044728231981,-0.1379745657103072,-0.3660580593613943,0.05644282700813405,1.0641297125472553,0.38754845599318305,0.047990402886092604,0.0,2.9769149312704147E-4,0.2235447980130311,0.6559445846957639,1.3017531507635232,0.31763894825831257,0.19858056352714745,-0.32665075216856954,0.15356920017179768,0.5820264126299171,-0.06106640062785971,-0.6827726064166222,-0.36907133963796696,0.7484101764609313,0.6967904771509689,-0.4864631169679335,0.16385879379723772,-0.9115966016303556,-0.2351730913635873,-0.22841662591988957,0.4330963410664899,0.26050494871725177,-0.0018370352323713954,0.1066092062465646,1.266972714204791,1.2074941035652298,0.3047949654477445,0.04225353270968998,-5.117192773303853E-4,-0.0034492966155671412,0.06252964426646644,0.7148737960334017,1.6302636994061308,0.859110034751855,0.8509429433163526,0.521909387780246,0.3483909930310987,1.4173768157433946,1.6518337372901495,1.2355398513220681,0.4278206348087232,1.530753949013854,-0.33088244662953065,0.6940288403311797,0.2673650614989438,-0.5951996386894287,0.10739726976467075,0.4734411413071127,0.528554249122242,0.25635486406018376,0.8413539634287477,1.3886865246207758,1.8620660563697669,1.0170294118216294,0.12292472082576833,0.015036060496069094,-1.970244268489036E-6,-0.012314253982964868,0.03799855027295298,0.6046300935527525,1.901120753465113,2.159586565794849,1.517828671430679,1.2644190129248687,1.1092410699122908,2.206440923503766,2.083575007222151,1.0911551846257668,0.23509328208933858,0.5434146259260436,-0.7305844319859572,0.019764112997266423,0.6607354419043496,-0.1889960653808983,0.8872443272703491,-0.8118889207140092,-0.09863046376844624,0.331033332430104,0.9314914097744061,1.6291075492231848,1.2673166201041342,0.6082204131952872,0.029641917455027558,1.790256056442795E-4,0.0,-0.0073061658539636835,0.11948543738428358,0.665403168008769,1.5469827761171475,2.2073780102269986,2.082996852163065,1.507888477056902,1.4635380865437166,2.145704135357795,1.4271724533324723,-0.47707168428993746,-1.6485292618007763,-1.603464954109442,-0.7585877417562449,-1.0053183787024227,0.013635778132878598,-0.07876303235914138,0.06534108622676918,-1.1389274006816354,-0.6084451103105585,0.49621033809399356,0.9750077829393651,1.1384675137208002,0.7306003476080086,0.38003817598838424,-0.02914460741443832,4.403290688548068E-4,-1.4879089018203887E-6,-0.004584330188907602,0.14090125927337455,0.7524849332325182,1.1101317175873666,1.5506799334130734,2.2697483842687696,2.571459110581217,2.0897655302816194,1.3064398262135546,-0.16477033344573946,-0.518558658219821,-0.8346727363252282,0.24432207752312604,0.42773013670325905,-0.2273004228107821,0.42648311626562,-1.1507401255822365,-0.8977848404933096,-0.9420419317544878,-0.2834047345525067,0.8505658049687085,0.9744306368024537,0.5357368876065092,0.22707025106771064,0.17183075908441311,-0.00466086744500161,-5.5171649951161225E-8,-1.4414117486385018E-6,-5.204239779729E-4,0.19549861122514045,0.6708232419979625,0.845455184019427,1.4255065895347532,2.1991563665860925,2.8424414928399635,1.9763812452871548,1.2641749668054256,1.3247831646485857,0.7502666882491932,1.2752345521923025,2.017219136339197,1.8541686139089417,1.327190319093472,0.36626155695337576,-0.5093003587670548,-0.2680429302746641,0.06355465009913662,1.1146077867745021,1.1015535034189035,0.4132776834690511,0.39616409217391513,0.2781923196537141,0.16608106806317396,0.004063976988530649,-1.0185535375598995E-7,0.0,0.0,0.13571667300768672,0.4718791175191199,0.6851039200938885,0.8538555301265874,1.3414670470278744,1.6864494884797774,0.1996943319993982,0.03610712467605784,0.1319529145128367,0.7763916051280337,1.4448621368209966,1.9246984890928236,0.40360468433437585,0.5413617107348179,0.733388081071246,0.9684796104501321,1.209780695822439,0.7939900704640065,0.6175991024842978,-0.4764745864170083,-0.6405669088946686,0.06819239693568731,0.18291524239878534,0.1462827593206483,-0.008200763567616993,0.0,0.0,0.0,0.07968080290738198,0.13538965471682496,0.16915830486339636,-0.30913899224888686,-0.06623362871916444,-0.11043548463758386,-0.693660277898402,-0.8235017512337425,-0.951168919762304,-0.8677058869284959,-0.6170254015412158,0.8586727306427656,0.45234505397528246,-0.2309145557791873,0.3758870927833786,-0.048515426568781155,0.10987753750260526,-1.0289293750338802,-1.4377229099298037,-1.8249560579026223,-1.2126077578175105,-0.4705061467953813,0.0798676914610521,0.16348140690437254,0.03919485286806687,0.0,0.0,0.0,0.0063734830431447535,0.01806349749049582,-0.0725950862047517,-0.5623432763537016,-0.6657592430619198,-0.9624044675151252,-1.125660971302594,-1.2637715882508835,-0.9222463509851687,-0.8556120936448255,-0.9239863264101343,-0.5543611106488507,-0.9407952710547982,-0.6852703195137057,-0.6820772302707286,-0.5808233849869975,-0.9164488875675554,-1.5222475580336026,-1.5802470137563696,-1.3436202735905913,-0.7965689879469814,-0.34806356992415494,-0.13429553781855894,0.03237446168987257,0.038683852500347726,0.0,0.0,0.0,0.0,-0.0021486754357371014,-0.11399727847331305,-0.21103337171736605,-0.23963780842415358,-0.32266202679848605,-0.4999733802577857,-0.8643419234632049,-0.7967123894230963,-0.7013805918836115,-0.6799655163538567,-0.7231197667198495,-0.7228981997864731,-0.23407612491766636,-0.02362224416730585,-0.024485414093565524,-0.3481536935792491,-0.8014522580626228,-0.5084965748678981,4.2648803929323467E-4,-0.01981285548627766,0.0015591323746784536,1.9843696909236375E-4,1.353763574055531E-5,0.0,0.0,0.0,0.0,0.0,0.0,-0.0024216326044327907,-0.007352219494753755,-0.006118891329018313,-0.00882714565098731,-0.017794534480859384,-0.004995060232018057,-0.04360246000670503,-0.040012911876649085,-0.043655520072869734,-0.047534435483091726,-0.04453638482362223,-0.04067672098611459,-0.03799252129104408,-0.021006265094850502,-0.1420426739308319,-0.05362427479274159,0.02100794041948605,0.05196782097186547,-0.009709089625142952,-0.008359630477841485,0.0,0.0,0.0,0.0,
0.0,0.0,0.0,0.0,0.0,0.0,0.0,0.0,0.0,0.0,0.0,0.0,1.1292078542468074E-6,1.9004707582692874E-5,1.8397099550388868E-5,7.665458145995365E-7,0.0,0.0,0.0,0.0,0.0,0.0,0.0,0.0,0.0,0.0,0.0,0.0,0.0,0.0,0.0,0.0,5.5116552964860476E-6,4.6797826757229085E-4,0.032492109023469024,0.09460136017029624,0.03330820852736979,0.03701857183123218,0.1521949450914487,0.05197747559556051,0.1744804245685256,0.1572686431673632,0.04339973993767832,0.0721206536922567,0.18031356641525087,0.10128243812980382,0.01980539297088131,0.16230467497249004,0.11907328888355946,0.030527150122014002,0.030275247575871075,0.0208405507555469,0.0,0.0,0.0,0.0,0.0,0.0,1.1332402992584233E-10,4.54904927825592E-4,0.004821313634225283,0.0031727419403945072,0.03991534173138497,0.041138915821113294,0.022243693262490583,-0.1140970692545523,0.1057486997671549,0.22095085764959657,0.5036268475996805,0.5780630044307069,0.5967932797230922,0.4408654143342538,0.8270845907789995,0.6647442556502844,0.3387942080014023,0.27414129511943736,0.2258826199466796,0.1495365965434206,0.04746146568195636,0.03246804474921971,0.03523857585297312,0.01480286057917849,0.0,0.0,0.0,0.0,0.0010103918663412815,-0.0028323726758635918,0.002432623775870124,-0.0011501107830218659,0.026560365905311172,-0.10951834413826282,-0.09897454860357276,-0.41391152649760904,-0.36121767378037895,-0.3959951373617286,0.20618737232347076,1.1300459212607712,1.2921523868589735,1.3098865951102863,1.691120983299335,1.7967016057505145,1.4873886906997573,1.2477406435378169,1.0063871766965875,0.6998148734098141,0.02129344187618745,-0.07401696938273383,0.020927588580891793,-0.02543353614720027,-0.001143832050514276,0.0,0.0,3.317699683329859E-4,0.003048218720833794,-0.005937913712179717,-0.061280972525268235,-0.2665316964378035,-0.413301811910283,-0.10677053127282404,-0.28223794942320185,-0.9517798122623576,-0.40901331660601237,-0.25933783711789204,0.3654310370416762,0.9401066054844228,2.1411389158554526,2.1323451808126332,2.0934458728987906,2.628904740426078,2.027654029402878,2.3674852297342928,1.7954158730777954,1.0936975931597674,0.44642284346939537,0.06509985294092897,0.1920332929134161,-0.038588304228898855,-0.0023615005461904252,5.351403005125395E-4,0.0,0.0,0.0014192348399055183,-0.04379238619324341,-0.14052385998016667,-0.17245415467345374,-0.28537539978790716,-0.1495295727060225,0.032826480345058535,-0.5607926784103602,0.14369871446703045,0.9225000774736095,1.027692710091673,1.937472552411262,2.956661253438504,3.249019136916948,4.046431117559009,2.74282259383023,2.029518077962288,3.1022129318236473,2.899409290690523,0.8793204733728858,-0.11616058549308123,-0.4273471712374388,-0.18988213850862898,-0.16908295586265512,-0.049296922840344766,-0.005548119714097885,0.0,0.0012292454765140376,0.021859908196141156,0.002664609783412741,-0.15389638403598094,-0.32857888292265297,0.3604596926139962,-0.02024985628727954,0.4974089904148395,-0.9368185672984307,-0.11212004067796777,0.8628279431869665,0.62858943900739,1.4085651016645002,3.410920700374369,2.2535018023825653,1.9710780878185716,1.1110215998133073,1.9562357612039725,1.9735076566730638,1.8239834758566298,0.6800251461955685,-0.381430273773834,-0.927432571130219,-0.30635285598930073,-0.22747648341986734,-0.10677305052558823,-0.009880556463005032,-3.229743561154734E-5,0.03291944308975734,-0.03963771196161125,-0.07209250386682453,0.002303388340794791,-0.10029674398939707,0.07678368701820144,-0.07186451011873092,0.6202181419489095,1.0743676425807982,0.8646819490772805,0.2746066511698239,-0.4684426094621211,0.8931715662907664,2.1802247533405676,3.575694659343231,0.6993808345284264,0.4112802936839673,-0.4979876545127266,-1.129515962078114,-1.4953315367104787,-1.022352242755867,-1.375838008086891,-1.770237002970769,-0.9480603557895608,0.018015575209519522,-0.09360237400503153,-0.006521624585111724,-3.987429288450055E-5,0.02169364839964782,0.07602192928372285,0.19483871168499226,0.33685620156265833,-0.6951920761725888,-0.7498544110138795,-0.10708302714037561,0.9415453360004338,1.915970428917665,1.2494872004795483,1.5146834445807729,0.8137654897015582,1.282969789291539,1.3222866849926773,0.8567824226294364,-1.1020559786428428,-2.48271087263995,-3.4750043325261655,-3.5552914279111616,-3.1438654597718187,-2.3909011969713774,-2.225242266714897,-2.2513665127658973,-1.099216763114999,0.08051219723445988,0.007225222434050888,0.08305380711191727,-2.3386519436136908E-5,-0.013335155378335095,0.012584242989296869,0.2723078659536239,0.5062677458220907,-0.6343280202451613,-0.7656133483642081,-0.12006438153393532,0.697238392472869,1.34582409360754,0.1042049597257017,-0.4465338178393796,-0.6999939696410008,-1.6246826319553438,-1.651582874432888,-2.969845051396566,-4.815649849755755,-4.8334041668584735,-3.0270711208766428,-3.13496189798764,-2.4606725692938496,-2.170710831359856,-1.6413024729378227,-0.9506293394989279,-0.12872028441482422,0.33241391844409834,0.07714323427660952,0.006276388339018443,-3.6518236054610793E-6,-0.04045195226161761,0.031082990021107593,0.40137540733901567,0.5008573476192042,-0.09791547782927129,0.39122688063792405,0.3908022844886821,0.8348931597632342,0.496081879424415,-0.3902162308498806,-1.719828441517774,-3.1687342562827134,-2.7416394701073563,-1.2880536901177806,-2.442637692502471,-3.694000546554046,-3.799343069721141,-3.1415696567899354,-3.26559816395586,-2.5463742344687943,-1.4694514670786536,-0.8297434490142938,-0.5436401298761292,-0.32782268282867655,0.09755509560209057,0.1271003028020803,0.011968908929465179,-1.5739908199114363E-4,0.0877972980725323,0.28638533217410944,0.5400207205766179,0.5066285883731868,-0.38859612310708797,-0.36725754050908116,-0.37804047033462124,-1.3753754526795259,-1.4779670590471314,-0.17014646089525207,0.0599078495100081,-0.87727967840115,0.05129285839878284,1.4636722756393923,0.3193842972842048,-1.465258044547146,-0.861054470187141,-1.5755984570180923,-1.498224335816216,-1.8318286965180972,-0.9804732292348497,-0.2807942262488942,0.07440352319704173,0.1982515301782557,0.4751477781957581,0.01406675179131317,-0.011741898204539773,-1.4173274000248626E-6,0.0956172558967997,0.32762716088596733,0.8827416677312958,0.5591039677531523,-0.2556962295289537,-1.001122538952632,-1.6351387073564119,-2.634584365940996,-2.512421260434791,-0.6114875625212953,-0.37069155792743164,0.33093574244027685,2.0505400304466828,2.7363412673725356,-0.22983040925606582,-0.2055378508137907,0.14998077564919668,0.7036500140250919,-0.05595538125993633,-0.3749195842878046,-0.9862517847571447,0.25788809967434123,0.44204782311170493,0.34855225325438416,0.5951867571645164,-0.016531806327442063,-0.02698227351463434,1.1133448965889676E-4,0.08244610801223363,0.2656709828981479,0.6997738956537769,0.19535496122398532,-0.5375305420580255,-1.4533586281068516,-2.1884934022844007,-2.904064634501244,-2.457107635830784,-1.24184720541386,-0.7447288871686267,0.4576896052032631,1.5060205704107348,1.4819652319306449,0.034809436168348896,-0.6065582558362695,-0.7985810385873476,0.7558754195774506,0.5203561526616033,-0.3910971129460045,-0.9861168124552252,-0.5019257311391281,1.1920900216290742,1.660396665469156,0.8102601124653886,0.3445045895986989,0.06664223838148074,8.027495822836276E-5,0.04187133324452171,0.09588627605093897,0.1673391472731605,-0.6641242526669033,-0.9497503484208204,-1.766079511577896,-2.0646519397841305,-1.4182914099172155,-1.4629740464002348,0.03786728520975568,0.6166941125581173,1.8142461902415594,1.421274442814197,1.6884598780278324,0.7031646535002088,-0.6038032563334301,-2.042445632674681,-0.6003454377294526,1.111457558557846,0.0540668571592142,0.077685240631455,0.19877946147553108,1.7599361409414493,1.5305957776791133,1.0317341878259374,0.33680840403408646,-0.015021650686856193,2.6280186610044626E-5,-0.0012477049030496922,0.021341662210716636,-0.06097224749143334,-0.8175936253948463,-0.535337924872322,-0.9255924049027969,-0.8456525678416117,-1.9436601549535155,-1.328497367127787,-1.4867149557512969,-0.23172322913503562,1.320468160428308,1.327845512018637,1.3352362666934312,1.3274221941445916,-0.1447005556119948,-2.8948877054156354,-0.3981002728961975,1.1768145975566697,0.969208919277695,0.1300133513317195,0.3825828984352116,1.0414871630242852,1.4001946940861842,0.9580191442304256,0.159880058456122,-0.037884234684418226,-2.5909861662646726E-8,0.01218872750059505,0.07727042492260056,0.3392653449728964,0.17489468730583838,-0.42833166909061554,-0.5123880438327082,-0.515075622104565,-2.305023586968714,-1.6436186892359679,-1.8562083021434095,-0.42940888287475815,0.9493705253703896,0.9069537854678695,1.7544724930078346,1.7556024292055323,-0.3176028466416023,-1.2489060219966137,1.0359163656192454,2.2023090101550453,1.3630433740324446,1.0977409528165791,1.6120400165233006,1.7246562529884855,1.8048175072062385,1.2973029478527003,0.43684267288120754,-0.06985345114755899,0.0,0.013709979197195776,0.10723787432939204,0.6906607958996237,0.7988895818670659,-0.37542373857226413,-0.4043279195730292,0.394382945178162,-0.7257713886034577,-1.7033179419491755,-1.7783425426368658,0.25070578744984523,1.4628452618294794,1.3185334529990924,1.2300761093774475,-0.12064792624412239,-0.6628815815880614,0.15514805111198107,0.7034147140202452,2.2946338161631408,2.6661688612945347,2.1652566958448802,2.2525529192492915,1.9414341588925195,1.8357691749764864,0.8460579768349518,0.30866994726812674,0.015703940804678927,-0.0025560367589362583,0.007923108292990762,0.207330017299005,0.9716214405951181,1.2351942710446688,0.6883053964911016,0.480802940293597,1.124096304975851,0.7084118010913366,-0.42503809252077085,-0.5699563106541221,1.2237192913886756,2.2733004789572444,1.7802278818525819,0.06473478222943681,-1.5972621389102857,-0.5629140887859546,0.49544279913674,1.6809574066412436,1.5548116892620254,1.795185055091655,2.1316184848464834,2.7098338906074697,1.8415364372305312,1.1320503720014023,0.39225597424049535,0.061269352158925795,0.02763924185685403,6.256201961698087E-8,0.014909632899671102,0.2682249415590288,1.0223286200790556,1.3388526377999759,0.9642176322944617,1.0673095660790195,1.0032485071803543,0.3002321149321714,0.8696408454465571,0.8176104894773811,2.5317454760220266,2.0226715069782726,0.4973117837552697,-2.909092072559838,-2.2737252758998676,-0.9754154947271892,-0.21905589793723043,1.2150855480358234,1.9951782601212837,1.280526839901385,1.6177374102460502,1.6825897276131698,1.389486547913595,0.8883017121623608,0.15675442086810767,0.0023109344793235485,0.01393204661326053,0.0,-0.00277598344555321,0.24197499251832802,0.9132688056715192,1.5287364944327528,1.4154874362924084,1.4562852218735634,0.9875152840472775,0.12817923988758434,0.35880962360392715,1.199431863556909,1.3820330569822328,0.8177936229943118,0.28806226783946737,-0.600014406791839,-0.8174488064154777,-0.1367958164115078,1.047530784982114,0.7764235770269133,1.3478169851168296,0.9143091331874099,0.8221766947139303,1.05319098322994,0.8002674318191109,0.4788785796456216,0.14133630189510454,-0.02956227985552086,-1.1664411959882505E-5,1.5841762320654273E-9,-0.00825512203608406,0.08220757784879855,0.7721949812847747,1.297760514255034,1.922661671329663,2.1822638865275787,1.226381826481883,0.963601567599789,0.4284106034184913,1.177463626425062,1.1393577668136987,1.1384865130440374,1.00995452246654,1.401353129845666,1.0029293708491471,2.0696633952638024,1.7454815808607067,-0.02725590235276731,1.2902459061750955,1.1302579731239677,0.49701423218175145,1.206179437871843,0.5346728632433794,0.08484152638778653,0.013806362199900944,0.018668284188716543,2.122290331780433E-5,1.5346707248133877E-9,-6.603647100980823E-4,0.1282091826028541,0.5303166100107235,0.9765512274518885,1.7119410931642893,2.213216996603173,1.6564083480541996,0.8533221321445895,1.2768445723256003,1.2182406201078901,1.5580584882938975,2.3733306282255433,1.9183725402001235,2.459549465060353,2.5163235728541817,3.1573142836159374,1.8036142334780088,0.18228965664158317,1.311925764546453,0.6970245675371415,0.10157749204032233,0.4083106950583761,0.3098340642009882,0.13722662515503856,0.07075252132110203,0.002603514576151173,3.918074458671569E-5,0.0,0.0,0.14153679311459616,0.32795203620546215,0.8240020890946637,1.6158959657577725,1.8497442131112711,0.9713446555572037,0.15212129377462436,0.4485301814453739,1.041470533586509,0.9091908722326859,0.942344003917936,0.2306125795352788,0.7730908080505934,1.3114968710143526,1.4100671203824886,0.7891108074962666,0.013699283241363594,-0.13760269557814295,-0.791667164174433,-1.2477686839789697,-0.2842072975038828,0.21078324745854926,0.3089210757026182,0.09792078173873202,0.015521806624992094,0.0,0.0,0.0,0.08115719725435915,0.16815833699322372,0.4897113802246762,0.8853431416351013,1.1893322026662148,1.0582570068735708,0.08683228922697563,0.019010945516585318,-0.3655081703271906,-0.09155174527543025,0.5740247290812048,0.04361362787626951,-0.24158759907249502,-0.7279651287294491,0.4687441837082153,-0.2543128694018811,-0.8734156535523141,-1.066986610280194,-2.1534102927773144,-1.2307331684990572,-0.20503607016545988,-0.06452655255772453,0.10203562622753048,0.07672623410466656,0.03382291046022981,0.0,0.0,0.0,0.008536113455946043,0.04960021104590009,0.18239515081516153,0.09963608718371315,0.07080183904601464,0.28662237533642904,0.47562920454639285,0.26966241589154805,0.4989827405181084,0.6409575518108402,0.8223733602364499,0.47526292582819774,-0.40825976642467054,-0.9587120411754815,-1.115194604534533,-1.7636688146540578,-1.7294609148125926,-1.3337005444858245,-1.337893478134945,-0.6134739301582259,0.006589021300165009,0.0252887930116367,0.004477247611052984,0.02986406449488285,0.03570237239125442,0.0,0.0,0.0,0.0,-5.065096540750379E-5,-0.027014251484472413,0.009854304229716997,0.021093018089075818,-0.12097086002362582,-0.36903131281053975,-0.5232925022945915,-0.22069710246266638,-0.15918486592949188,-0.016725476065090047,-0.023367287100801364,-0.2653747168549344,-0.23650070997595096,-0.23819599423290383,-0.54764099042762,-0.7290324310182426,-0.8290796226651688,-0.39667980985526774,0.06013822789273112,0.09328709990446964,0.013702573231009518,0.0016030669259470877,-3.439661291429491E-11,0.0,0.0,0.0,0.0,0.0,0.0,-1.5738710242796123E-4,-3.8074865139446477E-4,-6.713487609293044E-4,-0.01952947880876155,-0.06320716180238212,-0.03846096918697453,0.0380128893335423,0.07535120259062295,0.013899269083462415,-0.09551452521368577,-0.027385466748429666,6.942519591090061E-4,0.0030740578608348256,-0.03705757539897915,-0.012685585619163617,-0.0030419813849238927,0.010148283477946189,0.06755812354751611,0.04392901405893532,-4.607965810283912E-8,0.0,0.0,0.0,0.0,
