0.0,0.0,0.0,0.0,0.0,0.0,0.0,0.0,0.0,0.0,0.0,0.0,-8.588387477168144E-7,-2.043501024197356E-6,-1.8132139845237407E-7,-7.555058268848918E-9,0.0,0.0,0.0,0.0,0.0,0.0,0.0,0.0,0.0,0.0,0.0,0.0,0.0,0.0,0.0,0.0,1.5236053978288356E-17,6.228008904586815E-12,3.457561058996678E-10,-1.1992323819639425E-9,-1.5383767679936066E-6,1.2083749898211422E-4,-2.83779439429173E-4,-0.02103698945574666,-0.06881276084239304,-0.032593132361195994,-0.007976499725756852,-0.005443300668023872,-0.002872234967843413,-0.0015044844658282821,-2.5620006312119862E-5,-7.62846966813678E-5,-2.5805138318243606E-5,1.2971295912588837E-5,5.3062773246271735E-6,2.714326221473467E-7,0.0,0.0,0.0,0.0,0.0,0.0,4.176915634943755E-29,3.490032394596839E-4,1.2034730678031094E-4,6.107227515235674E-10,-4.2785986283077926E-4,-5.00958113105374E-4,-2.1417366712822705E-4,-0.008976454259859145,-0.07884913399655168,-0.04231899653122696,-0.06383169938847859,-0.024825616488696866,0.011355503154822165,0.08575341898464223,0.10591443531700391,0.1656268978015622,0.002536148027757756,-0.0012194597748302093,0.014791510252928387,0.011564168935123872,8.012199793063794E-4,-6.677416233947927E-5,-4.435087078481284E-5,1.6836365392452686E-10,0.0,0.0,0.0,0.0,-1.0052616021194172E-15,0.0010109059275606347,3.294261414862533E-4,-1.3246659944340486E-4,-0.0014170603783163537,-0.0020511989209211173,0.011237177002985363,0.11004231353646733,0.09158137957521713,0.09407685132478388,0.1124081584652742,0.05435460063712783,0.1577555742933097,0.2576174869610413,0.38873859337163574,0.42477333878348145,0.30585535679364906,0.17633871693254752,0.11462730594042014,0.09979575801811887,0.052386736754761104,0.008255275994509632,5.6315817363725536E-5,1.0747088631534883E-5,7.81826590397916E-18,0.0,0.0,4.7277402062995253E-14,-3.4466112639430325E-15,1.378795602512101E-4,-0.005964456940155183,0.019127134837978937,0.048501274619744454,0.0881219221285473,0.2074571683611488,0.3884509526774794,0.22233505023245012,8.243066269282355E-4,0.04829303575909163,0.3657309031812225,0.7059252540906434,0.7007180739622144,0.5469042866295264,0.5219199183624806,0.6457000787642364,0.6007484152687825,0.35253627201784793,0.03536098856350234,0.06529161758960188,0.07486006316882889,-0.003243790314496582,8.856920632562478E-4,1.8065998381478645E-6,-6.7763199956748115E-12,0.0,0.0,4.004428186568905E-4,-9.053182487143574E-4,-0.06608249204705129,-0.029533769147543267,0.36249438134231043,0.44774541446025484,0.5671606521278766,0.9991598646372065,1.4538640776831318,1.8029327957354615,2.1043573088101737,2.059717964294121,2.4405264101072306,2.988631127616629,2.9278177035047075,2.3819096399672572,2.0593271828728894,1.6974362241035599,1.694388086446394,0.413790156950036,0.1708957188642681,0.151385099239277,0.07310706055379719,0.03244950467558834,0.04831993538358493,0.008823796715490861,0.0,1.0282236493648312E-6,-0.030943804184982607,-0.2103411153905331,-0.43219522679447303,-0.37992911969364884,-0.22378217076281942,0.25137129577785106,-0.2330395202965335,0.5913831607950004,0.6583533654267405,0.6307615103717198,0.3346443199908928,1.151762555035814,2.3148330988685935,1.9740342882691,0.606525588428084,-0.1541825702180999,0.3854209671976541,1.085912515522854,1.1048708312281863,0.3712395167618816,0.8445224309595476,0.8161133829735707,0.3362875548778643,0.025975238836853157,0.01242657401213311,0.004696968814953839,-1.9271933008743407E-5,-0.005805174383077996,-0.3473828236031374,-0.7404166341495922,-0.47534160782051776,-0.024114662333709704,-0.4532187217089519,-0.21196268972097693,-1.2636194562495968,-1.7179616966365556,-1.3539109841032935,-1.6133137532822017,-1.452225906662817,0.4295391108124513,1.381823870575953,2.2991516208356946,0.8459495107994551,-0.17525838281909298,-0.07237634073900678,-1.1621766646403453,-0.8206280626028524,-0.7282214063753571,0.40004120811034044,0.8345358838787329,0.4717962083107782,0.3848369343968099,0.08808905479357593,0.0017204358014142368,0.037117045101820165,-0.006838438871464858,-0.49296810846813865,-1.002202851640064,-0.9316794364774083,-1.0826967726763017,-1.217020522133899,-2.3560968940466656,-2.6597233081020697,-1.9096614347436667,-1.5587073276108556,-1.7240046596239789,-0.4810927381995408,-0.009861302987435462,-0.29226103708600126,0.3887389387514097,-0.21423831747622446,-0.04640505358837313,-1.0561557054397401,-0.3171955057090365,-0.9038508310779878,-0.09771150280612195,0.21892289043919472,0.452906505960099,0.7641702287453566,0.9880188914296347,0.4503059666021787,0.12815460847447338,-1.2711290577919705E-5,-0.01356048833731867,-0.523189390570173,-1.206827335635907,-1.357368736670967,-1.8876437107142934,-1.479944118403216,-1.6348854595846738,-0.9916627466906103,-0.49197861343492977,0.5661723065505453,0.10173712058120755,-0.7488646158531067,-1.381861326223764,-2.695167253617383,-2.7928555094181076,-2.2292748302729217,-2.595494786995984,-1.2636803634373819,-0.5569976682014302,-1.1493860029497465,-0.8296677580840158,-0.8744282972046913,-0.250573684467066,0.23833514772753644,0.3707828624405389,0.23529172239824248,0.13790139024097578,-3.441306781009004E-8,-0.005020708254304387,-0.17210844945844772,-0.6290876226198573,-0.952674982002328,-1.4902843908046641,-1.4709121842957797,-0.37002190242731337,0.6966181567178504,0.8232661839751099,0.7113044699967396,-0.2003576010708456,-1.1109586411487096,-1.8451290191072809,-1.7795688447880915,-2.1521127834593052,-2.6523498125050637,-3.980050309060961,-2.2710449865614226,-2.324883176773432,-1.9246794030134997,-1.8513220158037327,-0.9075090521829504,-0.2697189198684805,0.02605659596759216,-0.08468330939811355,-0.08275463174349836,0.020377502406425507,-4.400377282025178E-6,-0.03406016834235275,-0.06167552101293725,-0.1221027551513766,-0.29344025099337223,-0.639990342802229,-1.1592688126545891,0.28628914137736794,2.7403940797826274,-0.2969186526692852,-0.4166045252142079,-0.0985757166205106,0.30858550034903925,-0.014186951943297907,1.1023473933304737,-0.2504171153388808,-2.6737449800475614,-3.304623422241321,-2.3811778773829673,-2.541322914105099,-1.3980078211241564,-0.15640784936765514,0.08295934584015639,0.6215347608898686,0.23381318604598592,0.14248354132615537,-0.04345455577274296,0.007873078110201775,-7.704980632436491E-6,-0.03373372869783361,-0.10056307452828252,-0.19005341359038747,0.19483283848737584,0.25614243401704695,0.28667449778064624,1.6202787404422758,1.8544495446191807,0.9919064771428296,0.2593655989826168,1.6805067201790898,3.019276398881581,4.8840049981839275,5.085856344377582,1.7630907080031513,-1.6995873890656088,-1.3771067260780294,-1.666896180827639,-0.44168736469902026,-0.28030736534992584,0.544857775946949,1.0898196575582026,1.6214600713229452,0.8896374338892111,0.21303038832243767,-0.01960843512542237,-4.742388008482133E-6,-1.5084435450306447E-5,-0.003994346446746626,-0.018487100721401844,0.0298506671201116,0.5145864994694607,0.7576763385634057,1.085901991354184,1.882128590816232,1.6019196506636781,1.600721630842098,1.336576778229378,2.3640316287128718,6.042404176217502,7.726892245293176,5.714891791428293,1.2911888364627035,-0.47542864736915924,0.23340041840636325,0.9708413203708943,1.11196389154281,0.18651709376024445,0.07285714025175367,1.146026894369792,1.6625395089436654,1.2739889512739067,0.2852354918608915,0.004973803046356807,-4.095120258983167E-5,-8.890688484620615E-9,2.83508428145022E-6,-0.004302401759125644,0.1638611319482863,0.19724640348291353,0.35693748553001825,1.0940754679105216,1.8719024389693735,1.399179331587296,1.7054641991309278,2.311250134868175,3.6458064122064386,6.852310355491891,6.533841172841646,3.1501965293674297,-0.29635056096545853,0.3466313427761704,0.838592458249967,1.0602307896225862,-1.043838116370488,-1.3825846662655938,-0.2586063329362099,0.12144306929445718,1.1454515109796612,1.2606682001199807,0.18947484339922413,0.002328682213174482,-4.970611801970313E-7,-3.1450487653058707E-7,1.9997950602762773E-7,4.7429087993711074E-4,-0.1474616443232248,-0.017131313894823745,0.9610775663834603,1.475980525416371,2.3009711942272495,2.4066980915722294,2.52422454770834,3.0591199828506244,4.618749591517617,5.022812687245143,4.180832716975798,0.05406690782719782,-0.02675948952613473,0.6395404556898696,-0.39927822564983173,-1.2365700658357592,-3.6625668903681716,-3.0565005210131195,-1.828743344056559,-0.672762374335756,0.8518628034527204,1.0707718046225747,0.24544368018831952,0.02902401961053651,4.171294828685555E-5,-1.780535806524671E-6,-1.6470485729867186E-5,0.002230701956412278,-0.308082945111094,-0.15171797860739075,0.626497916506681,1.0160070986246736,1.4383095909975219,2.041053144772439,2.8830791630203625,3.8984555884010867,4.639799326393711,2.3797883373819464,0.5030189323567266,-0.20105693236229066,-0.4776957952537416,-0.385765203876286,-0.7056527867615406,-2.394852944013614,-2.454781196521179,-1.9785742027722897,-0.9836854750661642,0.14384576070808056,0.6864350894511706,1.1714787920524579,0.3185299597736299,0.0498756392771077,0.0023230791639207776,0.0,-9.677232715410323E-6,0.0023081808785025268,-0.17429551773546612,0.38075636917327127,1.0746509383823029,1.0353104937653834,0.8067465484143279,0.09755364488735419,1.7739897424899274,4.046655514512256,3.4035156978675456,0.8204413801922559,-0.873683577155376,-0.24133096338217994,-0.5229625312864378,-0.1081386525256914,-1.0805136562474582,-0.5736288013681581,-0.2780079877624326,-0.253488693264186,-0.14183836363988472,0.47603025660106724,0.14090839439074848,0.4457679199817832,0.18666820079239366,0.053866906920790346,0.012875803480253748,-6.959311408582618E-5,-3.7681640535800964E-7,-0.01390095332623189,-0.06953509483619848,0.9168634811425387,2.1066168372971075,2.4984219947390116,1.647409574017757,0.21761944241999295,0.602105698073375,2.2339398597442037,0.3628648081699413,-1.9473167216378264,-2.4951462934651065,-1.283700492013163,1.0920503768282095,-0.06209511744276668,-0.00422099573162521,0.29811171196855296,0.25826090039393673,0.7272574810720206,0.996630590173876,1.541386980572227,1.1228514253563608,0.8575925302354512,0.07407881973960605,0.005614006521086868,-0.0075936581900399045,-6.944817589282922E-10,-0.01835942196892262,-0.01653649297166432,0.2553367709748896,1.2857405792850647,2.412329105147653,3.0901121689947053,2.9862269789498614,2.3260320910021126,2.4240075857331767,1.3003268230882055,0.023586014273424227,-1.8476044729085992,-1.7783759726844868,-1.848924304626609,0.5872755496711298,0.9326655834929249,1.5009653890892065,2.919304677744676,1.9557386173178184,2.048799554327413,2.5235845647523676,2.7088644776485165,1.4997322271461255,0.5846901909939833,0.11219134081050021,-0.005135303049526999,-0.004633662601722241,0.0,3.243383456112005E-5,0.00928707656247732,0.3844909107243591,1.0197137368516467,2.25766035533741,2.4165582880484466,2.901749471603835,3.390350947254295,2.6350540671948828,0.7286945934470452,-0.2891502851429732,-0.5268186283629763,-0.1568777882946856,-1.005498368882637,0.445215240172781,1.8943860012047655,2.3477527901331365,3.841203919412742,3.037606034715681,2.8481595135636097,2.0368597797143777,2.124236271251759,0.8628214567500826,0.3421391167173654,0.09441489794897408,-0.0048506190279782885,-1.1387621246329585E-6,-5.436472269119952E-5,-2.5343486324715727E-6,0.09575479519664004,0.3939319488747065,0.7849616756960965,1.528220823287052,2.162636405890808,2.652058902342612,2.488090791435219,1.1923050191712856,-0.4503708801681835,0.6480360335274444,2.205598586748296,-6.477784181772003E-4,1.0412185399063376,0.624804664102514,1.1200081126269357,1.941050775660416,2.75327230747311,2.107813398678417,2.2209809447665876,1.652469270042866,1.616689783623782,0.8612136335697888,0.06636283020938231,0.004904419998422539,-2.2169948187022797E-4,-5.3096846227239523E-17,-5.266582510709953E-5,-9.122258771849868E-6,0.23359548057065213,0.314826111423159,0.39046280781237863,0.6339461884495418,1.1483487218740682,1.481155662085397,0.06719129814803057,0.046732108871943456,0.6046089485768158,1.654787690382214,3.0263025072875336,1.066549522219746,0.5696492469964645,-0.5319357777401781,0.575178595280727,1.9580136192068953,1.482435488854004,1.3877703024156363,1.733895200355164,1.3816318456245675,1.1464676291237887,0.8161237147230817,0.17359218512741661,0.12740121934057336,-0.0019032691749936157,-9.802494688105757E-17,0.0,0.0,0.20831660124340776,0.2814341565756583,0.04537934985646686,-0.20217030696159288,1.5182156524075712E-4,-0.6468818198973693,-0.6014071872416537,-0.5019280854536636,1.0299512702871125,1.1284158843524097,1.274881464110148,1.1718091226260967,0.8542012207592837,-0.397614486641826,0.1813345851149627,0.6208730085925779,0.06605927342778639,0.5798287842186941,1.3926193441000396,1.213413892608697,0.8048030194067467,0.5340068156946809,0.13960192944696642,0.1548617631944783,-0.007544342756849543,0.0,0.0,0.0,0.09756017171214314,0.015231520769257484,-0.3050184586516571,-0.43389252174847476,-0.5082409814930323,-0.8721284953527373,-1.2649569237016092,-1.046567204104692,-0.778010388504761,-0.38958753430527443,0.4290505553272602,0.07952316487241351,-0.5227747569789664,-0.3462881771903984,0.29796554136786196,0.15113698937822545,0.24329654754513305,0.2017352386172624,1.1551405870845104,1.0591054129886357,0.6954920832377942,0.3726257945716254,0.14548921471688284,0.0386152214932453,2.956808104690718E-7,0.0,0.0,0.0,0.028761956668538643,-0.0183154864260261,-0.09984538491447907,-0.15954418726182037,-0.5895436237541236,-1.096905594673483,-1.017053120757003,-1.6163573492284369,-2.023824588583783,-2.1664043992788544,-1.1162499316342025,-0.6415219082789553,-1.3253509706432203,-1.9570556908701975,-1.4238234929341789,-0.9515322150780616,-0.896645280505824,-0.12231137663768901,0.7340225197775201,0.5063571969847076,0.2902507485168577,0.3050686817436227,0.059260972004407844,7.914823798053959E-7,6.032223690049793E-7,0.0,0.0,0.0,0.0,-1.6677663963346783E-5,0.023469653753970525,0.09530040029910619,0.10477989826014734,-0.3046114616243234,0.056077566129933525,0.03764722128876577,-0.6402884750146768,-0.07673105305228628,0.24676027931822658,-0.39210809325896956,-1.3718687763563944,-2.8404739399478176,-1.5914399200604346,-1.0975103797513028,-0.9853346028912041,-0.46388505088247595,0.3024157972126987,0.1245734533162973,-0.04914918820963734,0.01997503554285393,2.3543116923486614E-5,-2.2448014833727633E-18,0.0,0.0,0.0,0.0,0.0,0.0,-1.0416213788489102E-5,-4.855672454070982E-5,-0.012987247201786706,-0.074238142517363,-0.06757471038812807,0.07362516470485703,-0.20281886958552278,-0.09482833611856906,-0.0809729275218227,-0.2632248124518931,-0.6961290346915939,-0.7390621167595888,-0.6249085834703008,-0.21633959397294497,-0.15299783101816336,-0.30162376637055416,0.0020645672013722615,-0.02688607731809754,-0.12315044620072528,-0.02691065288925463,0.0,0.0,0.0,0.0,
0.0,0.0,0.0,0.0,0.0,0.0,0.0,0.0,0.0,0.0,0.0,0.0,1.7086442357633315E-8,3.8730950551595164E-7,3.8936740081268835E-7,1.6223641700528684E-8,0.0,0.0,0.0,0.0,0.0,0.0,0.0,0.0,0.0,0.0,0.0,0.0,0.0,0.0,0.0,0.0,6.747861295432728E-13,1.9859951971654797E-12,-1.1587906178562268E-6,3.1163966697610895E-4,-7.848804698252125E-4,-0.006890088948870304,-0.0014212016844449078,0.01605104556327631,0.015013813890255417,0.1844735077664684,0.3486236306976326,0.05341209193021253,0.01599086678261277,0.002506688239787579,-0.0023832052980970833,-3.4162487818429395E-4,4.037230158077987E-4,-1.2306929246700814E-4,-2.507474837575765E-5,1.3839329235005775E-9,0.0,0.0,0.0,0.0,0.0,0.0,2.480400945240958E-13,0.001386527852710164,-8.901159175728241E-4,-5.621669334831267E-4,0.004477050237122239,0.05873826041710961,0.10622963978315088,0.004727236116134525,0.013886848631195423,0.13391447656071265,0.4022776797158041,0.956834793452866,1.5589368215351875,1.7607547278646671,1.9384342551956752,1.8766024454264125,1.5783892194603626,1.2380934490975446,1.1828355830855244,0.5007459326304553,0.056156834428486284,0.023123636082157808,0.01711075710657585,-5.161221598046471E-5,0.0,0.0,0.0,0.0,-9.190176725244962E-7,0.025299203431349598,0.09019831368202437,0.004354131639671113,-0.04290417087894422,0.07667586169104892,0.1926086035477938,0.011907641406888228,0.08256778844488442,0.2504093914825013,-0.11625943500602845,0.24540805090954282,0.9691101987398515,2.3026947595390896,2.0427822936184277,2.3202844168213934,2.8858941065849546,2.7849021372465876,2.850247100079075,2.4561283738928488,1.2732288303330124,0.45008148450881924,0.11212099226434097,0.007638402531993313,-9.238710366690505E-5,0.0,0.0,2.980833078108504E-9,7.567382214795285E-4,-0.004372789268765676,0.08850745831924764,0.04039950571858661,-0.08645806068555964,0.09743643681623486,-0.5842991563622624,-0.5678593356520397,-0.6603652224721054,-1.6966193426936256,-1.299699277357844,-1.4061561493763648,-1.857413859689472,-1.2292721930656862,-0.8970994279530373,-1.0095854893908895,0.6048801780391869,0.9600499951105526,1.4481658543417792,1.339567257542553,0.7147534970357076,0.23232257049309146,0.27386649508655225,0.06585025581793258,0.021844096507549437,-5.199245877606418E-6,0.0,0.0,1.2607193672166717E-4,-0.00736806271482609,-0.04385261859474009,-0.2627322602485762,-0.5301269752903921,-0.6854082891120012,-1.5721616207073628,-1.749484915475098,-2.502065432447426,-3.904123072566068,-2.358686723436996,-0.7921542293556245,-1.1190717205392844,-1.892571473767022,-0.2045020664699161,-0.5085609162004328,0.3543966350010758,0.6556869570052285,0.03772611512798554,0.3908701467579248,-0.756591858914094,-0.25774034355220166,-0.44588803529859,-0.31702429879419913,-0.2034736074992527,8.174348330942313E-4,0.0,2.03066881819152E-11,-0.052953925536874065,-0.09651526007267909,-0.03305578571922088,-0.24658559832931481,-1.6796067430285462,-2.1723364165934407,-1.9760367612271144,-1.2637723199326631,-2.318264189908979,-3.1185279947644613,-3.2424234943534547,-2.369107922105873,-2.5702513277737316,-2.0855081004987537,-0.030878528218282922,-0.5319635607082802,-1.5764259411042951,-2.0783612254470296,-2.517834275046152,-1.1494766261002078,-1.4567949761657855,-1.51488479646408,-1.349218380655532,-1.1477372610512446,-0.3547996360748515,-0.06714803012372485,-1.4138150727618982E-4,-9.74024432284223E-4,-0.10463926520093521,-0.2182271178933053,-0.2023814123783965,-0.1256345513269812,-2.165723209126927,-2.3560797625205465,-2.6230560521782795,-2.5144442790905903,-2.5608992641497594,-2.735378390469709,-2.340608477164226,-1.7527099101386359,-2.665637357031423,0.07865404824176668,0.026392025176198857,-2.103935325061362,-2.8151221293660678,-3.859925300118428,-3.1253583764395536,-2.3544267829304224,-1.5077904488403329,-1.780941450754019,-1.6031578422621164,-1.1761539751009458,-0.19462610835153948,-0.03940759080315093,-1.4938581995552387E-4,-0.002311375027253957,-0.16220922714163868,-0.39367019684405924,-1.2548559423003425,-1.1169223135487827,-1.823649300936604,-2.8845172164705466,-3.9809478892484065,-3.577549351415985,-4.01516416507238,-3.2758898538687147,-2.8091388764581895,-2.444132659193119,-3.2212491723931143,-1.8874205672911832,-0.46395463211406685,-2.576302908469737,-3.68993678272266,-3.987997096449701,-3.2250350997313135,-2.328087684636499,-1.8077329040809595,-2.3259494723449463,-1.6293943830721422,-0.8377929595578955,-0.1806456439494922,-0.010615414721538746,-2.0107669105669644E-4,-0.010875771273393429,-0.4795886441868815,-0.7664555939927739,-1.332668274829482,-1.4221637450393545,-1.5185488679420895,-1.2631849736386918,-1.4600382487693742,-3.2275747282596265,-3.14381358153559,-3.3659776614653167,-3.7277017344347967,-4.0316876249180105,-4.490916588287824,-5.152117622617413,-4.682978601538868,-4.804060085855677,-3.636232247640488,-3.2650662722425063,-2.128986781818419,-1.4018842156014792,-1.0044572994258643,-0.9313885224803102,-0.9820797424262414,-0.7577921794767751,-0.22521584217345783,-0.0024511430406150103,-3.522422438664987E-4,-0.01546371411533245,-0.4970528263219737,-0.6949330466723314,-0.6181435767978021,-0.7255364204253809,-0.35565930786146843,0.9311259826518252,0.9292356342469057,-0.13094659624125568,-0.0878000738185567,-0.9249718149553342,-1.2023010078074237,-1.7887474337310392,-2.914002909444944,-4.095353934869268,-3.6049199734975237,-2.5436097013854706,-1.450146286141667,-1.1121043409771019,0.23482620729823758,0.18059213953726733,0.6213271563432299,1.589855683540642,0.38313267088763636,-0.14162945371361688,-0.13310243552096554,-0.004658610395250054,-0.014806760653843619,-0.026544472777371063,-0.13509562516533294,-0.17677362736429864,0.13924180148687712,0.8866518392049645,1.7795943435492592,3.1248127067208573,2.3947302805439485,1.5703678560820378,1.3208687266110222,0.8423243324102997,2.048062786896239,3.1101288340105415,2.6285421225232564,-0.6383872104212706,1.1988197436410033,3.0312999246681938,2.2612505791195447,2.228074487994503,1.7134206757125734,-0.047157961883905766,-0.7069091303242647,0.6035268769512623,0.5742614252309918,-0.24660894276936823,-0.06647601562181552,0.019504113201163863,-9.665203447101243E-5,-0.00792775437221341,0.07726008733030518,0.2047156327600981,0.8177846693959927,1.7848687004117838,2.4265298098120187,2.555809389312286,3.2992826200927348,2.8579653893821404,1.558204355363852,0.9880153525029356,1.8832354847321258,5.205716621511968,5.246295468866087,3.5840681479705694,3.1748843311884047,2.9259968420255427,4.147531430800958,3.975745578026832,1.0581296866543848,-0.46958786486794835,-0.3287138845122664,0.16708785330338743,0.7378614843971413,-0.09004244341693507,0.06106502576888801,0.026355947865927456,4.888764075066136E-6,-9.525795972737108E-4,0.20183256163468125,0.3400862320760163,1.1312917209294822,1.4814771191939666,1.5630172400012474,1.3565773431717805,2.6218447314786646,3.042261865906684,0.3809215386149345,-0.2183949599503951,1.9595351136174175,4.2333349587648,4.257005147827105,4.442233422467157,1.2342671387389421,1.8928040522597818,4.4259539788796145,4.137958389027665,1.1934186582228734,1.4900232229728394,0.8402076944980937,1.0625328039029065,1.0685510834331644,0.04932639729714542,-0.04514546964713817,-8.953460405845849E-4,-7.25186914277579E-4,6.376946728764175E-4,0.1551543645716392,0.1466620892209485,0.3019386848218194,0.8282998039776933,1.4966916748491574,1.0080530773422234,1.229103818080724,0.47511693934979715,-0.046117859777982544,1.2358859219677512,3.160360172846119,5.037260352398746,5.810303830809502,2.5310682947645518,1.2492227612252669,2.3966015463229913,2.670288505452544,0.7848441935286046,-1.1107128829441553,0.11545009734437718,1.664282037823068,0.6925368301088188,1.0422100487984205,0.038722110491564,-0.2239036150626356,-0.005967848418859584,-0.0011382145139770927,3.22244116013388E-5,0.07226108317834412,-0.14760323368651693,-0.9759522273046768,0.03436785377142752,0.5985128361936461,0.7759457992758574,1.274061352863172,0.3650114844923444,0.4086454664569276,2.669347444935492,3.750432797694051,4.682639955935603,4.724575471384812,2.772859099264451,3.2925621437215815,3.4940069648995333,1.639967669851657,-3.0651868019335544,-3.0980126583161143,-0.9764371744919502,0.5628767963026939,0.20595041768768058,-0.15779808308034368,0.03943055852428881,-0.3032985293886466,-5.055584024427909E-4,-0.005147222465291583,-1.0630702096548423E-6,0.021402126421041993,-0.3607719722503846,-1.2598156828099025,-1.4051527260523864,-0.8669839549270434,-0.2543979418427202,1.0293125612755525,1.1800331437617284,2.252677931014567,3.5556132315437785,4.171410645868787,3.816002948945916,1.6430154089611135,2.2033047346384085,3.3070108233183415,1.7823714214786162,-1.9317046338935169,-3.6795114901956447,-2.6323965194129877,-0.46901672331760014,0.26661566619742955,-0.6795079507085887,-0.4388683809315243,-0.2365149056616327,-0.3345785645488492,-0.0021064413134379303,0.0,-1.8624539104364696E-5,-0.01943216848436136,-0.4838113465927238,-1.2817051756101907,-2.608194012612753,-1.7462371675056712,0.5241826754098786,2.0508725664664804,3.027721668434507,3.425941500243169,6.2201801849212535,5.684182674356138,2.1570461042137286,1.8513203638381655,2.1890000287411238,1.7956376244749501,-1.2085854442517967,-4.2662294599319655,-2.2679144507246787,0.29179669454959684,0.572861490573753,-0.07916889998042437,-0.9154617075586291,-0.2051587730083428,-0.6520649782462412,-0.19305352616134777,0.0070890954718141365,-0.0016227210837639137,-1.772060745120675E-5,-0.0039686910541901375,-0.2277529641104572,-1.424090438588453,-3.1467674112815525,-2.793662366323398,0.35529722573923506,1.9819979549398847,3.1787153538395163,3.5383762227685813,4.853546394064331,5.2310667024705895,2.6907791718260134,1.3627723066015438,0.8620494434219296,-0.625463023023834,-0.6538970529371876,-1.7607124552801272,-1.2031514293087586,-0.7388960016596892,-1.7643202566731353,-1.7608223964979108,-1.5474407230264524,-1.0699288522337682,-0.6755050895155708,-0.04848525311574012,-0.01667509244807972,-5.745865138620856E-7,-1.3430653198435945E-4,0.03676233676247586,-0.5596419543427035,-1.879706093678686,-3.089703473025246,-3.179154183717924,-0.665738282827154,0.5711153767449927,1.3649179733332466,2.6666337850735924,3.6397586205602597,2.463528906143905,0.2384592924556431,0.3359061165391212,0.20592669239068748,0.7629082119826626,0.6510047571832163,0.4394596335877735,0.2720383112812692,-1.6228940675875898,-1.4284574825281535,-1.3320829737526363,-1.3749441932536117,-0.6918393880221101,-0.4874210969551972,-0.06446553332689499,-0.009118888118398064,0.0,-3.390190925248273E-4,0.045271364901297295,-0.804791661174198,-1.9757181510364221,-2.5216248118497377,-2.7477638233803794,-1.7597601625790822,-0.7008157492548464,-0.7403590523929628,-0.4290484770786486,-0.551405271025409,-0.2036492874634472,-0.3712086686650758,0.16506785660570342,1.3251804013063884,0.12140681205826198,-0.4169283254938108,1.1959974478487496,-0.02907875240927024,-1.9210409527530268,-1.4981732332010707,-2.1129081428104506,-1.1782948589499662,-0.8114568378366505,-0.438747236340871,-0.19677952349593253,-0.008782607766591474,-4.4909402833792656E-5,2.2318848465643744E-4,-0.02070421838728222,-0.3829627722454026,-1.6617751201713504,-1.8876363888893404,-2.0515015339906046,-1.866706514753589,-2.4276405463416877,-2.494954265882816,-2.092766701862443,-0.38140811666834074,1.261918849623285,1.892651480688085,0.1694101357565957,-0.6346129244587031,-0.7403334894092298,-1.2982215101852284,0.1727653427023342,-2.0589813530288525,-1.644077094816874,-1.6741689648887241,-1.1049408814040305,-0.6665152345226352,-0.6587582615984552,-0.22814054656937788,-0.06322720157766176,-1.8771091777657462E-7,-4.350598399523663E-5,4.921774617312829E-5,-0.05384919952410312,-0.39938824891536784,-0.8212619031968592,-1.3977034498829928,-1.3513131281336017,-0.8876386049424088,-2.780853000238668,-3.695554011859356,-1.8725263396765521,-1.5006391504726788,-0.5266265584945988,-2.158870007382517,-2.277060794042446,-2.719070913512174,-1.6343326727786005,-1.3862620541653052,-1.1251538292512355,-1.7396429672812377,-0.24886787187772613,-0.023704260249881013,-0.1793511899971279,-0.39879826628032367,-0.21185755428152805,-0.040417791427381305,-0.013488098883291583,-3.465432328182916E-7,0.0,0.0,-0.025427952897432365,-0.3262509012732274,-0.6056474635252339,-1.2535367835242717,-1.6041325712391,-0.9122981630630392,-1.2349863302020336,-2.1147313656151123,-1.4563188382100487,-0.043167793127490126,-1.458947929326162,-1.7990202808300726,-0.7183142402335915,0.22769076352870646,0.3521625013755554,-0.3634296837493936,-0.1803285060699446,0.595647171111011,1.903035637506074,1.2899784876823743,0.1654443341619084,-0.10756149448002099,0.005724283295093284,6.633582966307859E-4,-0.0033838806368447316,0.0,0.0,0.0,-3.5067034423614E-5,-0.18581551779109692,-0.30338652302351765,-0.8837473615025545,-1.535098648542737,-1.9532249242779234,-1.4794461022987389,-0.7249853135041596,-0.04092865726869324,0.38380360594215135,0.34605062869226155,0.8581631144652918,1.166007474461568,2.1038589040222315,1.0991315229306071,0.8046882639862131,1.8051316532169388,2.2121873644693055,2.799886928310269,1.3892002954497311,0.28839124880697486,-0.10892451415540472,-0.09601254648733087,0.005675527326156766,-1.9181819990169688E-10,0.0,0.0,0.0,7.616987970731918E-6,-0.09522033354117122,-0.20971246956424933,-0.42334716694933333,-0.7476903229505945,-1.1818123774208638,-1.4109019135052556,-1.7258036624872162,-1.6943266060085318,-2.6946974568026834,-1.3601725760903358,-0.22103328062411212,-0.10196458532889374,-0.25386514193198884,-0.20165320490787622,0.4793762141706461,1.047944279818057,1.345104914230207,2.015294368354479,1.0232977320485765,0.4200797957608456,-0.0062926024985762875,-0.12365605968835383,2.7252216591372154E-4,-4.651033802732911E-11,0.0,0.0,0.0,0.0,-1.4894704457171909E-5,-0.03141131849626675,-0.05612091076121228,-0.05963838027592129,-0.39821610296581444,-0.5894172742725499,-0.06910749510693183,-0.013926228936717647,-0.13426743277676875,0.24230973371259043,0.18104957044264736,-0.43774829051596137,-1.421437810936112,-0.6991908877938768,-0.07587838176309006,-0.47013885361394864,-0.03390112947790764,0.5852673456739211,0.6256738494272245,0.1676738425571476,0.05355291614712198,1.4274690989266793E-14,-3.591998665412293E-10,0.0,0.0,0.0,0.0,0.0,0.0,-2.014194451950659E-5,-6.500101951564253E-4,-0.005976747560114609,-0.059560409117232226,-0.1260003629298484,-0.0923465965603558,-0.1245217519266106,0.07478132359486563,-0.1050174133317477,-0.268770604995683,-0.2856523901278744,-0.21942209302108612,-0.1271083689909169,-0.13027638213847592,-0.13480260604065286,-0.20470574803290728,0.1802312000967217,0.20186714711256765,0.033308635210706906,-9.907990860545414E-4,0.0,0.0,0.0,0.0,
0.0,0.0,0.0,0.0,0.0,0.0,0.0,0.0,0.0,0.0,0.0,0.0,0.011128614278351243,0.02436782776391446,-5.839500742245834E-11,-2.4331253092690974E-12,0.0,0.0,0.0,0.0,0.0,0.0,0.0,0.0,0.0,0.0,0.0,0.0,0.0,0.0,0.0,0.0,1.536849704270826E-15,-4.201056153669832E-12,-0.0010143149555319779,0.002551855427351425,0.07768709517921658,0.07408438292441072,5.810616971271746E-4,-0.21919033969323318,0.05411754644414338,0.08742505084909405,-0.009184106360503937,-0.029078251886955814,-0.12358570408271219,-0.18447883971360013,-0.030545858670264207,0.004959439712874903,0.020923750940492692,0.009813497523552444,1.2386874809781502E-4,-5.4512131265088235E-11,0.0,0.0,0.0,0.0,0.0,0.0,1.985175656260931E-20,7.082833149845791E-19,1.9814631277605316E-6,4.6997236937271063E-7,-0.007158019723198779,0.011584989638777823,0.005165265953554751,0.03875816635187178,0.1970928978354118,0.21951365853050026,0.3309183021563062,0.5995794582149331,0.8445053593489622,0.4652252284292416,0.18411506254714738,0.6831509862660222,0.5569540074388885,0.9542039773373024,0.35712235860950636,0.3217146012232021,0.13839460519191688,-0.00934650033429321,-0.012827494453423956,-0.002715951338930791,0.0,0.0,0.0,0.0,-0.007305047674019047,-0.004282318180403653,-1.122540684842927E-5,-0.03480570591637973,-0.06119885894932913,-0.11763346938578408,0.06586607817635441,-0.10204372699027676,-0.15968863737130493,-0.24604514519805973,-1.0204682974961492,-0.7027026724401316,-0.3606504159840657,-0.7352809767450204,-0.46650845537717767,0.2772669996145331,-0.13713881818253718,0.2424010767501706,0.4744245820804096,0.7366304957609656,0.44629768781863255,0.22174484515260548,0.04692386619152447,0.0022973823281204806,0.0033199115318929577,0.0,0.0,3.0628554631261563E-10,-0.024191178901593,-0.0222313564592513,-0.08965182457175469,-0.6578463585389477,-0.9074101542112613,-0.6693885237342211,-0.9244200513469533,-1.3030304282606826,-1.9111511140087047,-3.3107824431315622,-2.5956404128399235,-2.642427258316781,-2.4163070692847795,-2.268495157840637,-1.9691179192726302,-0.7732458656205669,-1.0643620238292901,-0.09751186751769861,-0.2369148899371541,0.6920934095169883,0.9250200377439776,0.883404205997101,0.5373119016940329,0.19193645222534414,-0.012702303348236584,3.7946215618177596E-4,0.0,0.0,-0.007159461959175391,-0.010459091663238254,-0.24530154539144244,-1.4504146223231416,-1.631084525864237,-1.2664533583603756,-2.3813826293973013,-3.3078925132021495,-3.6339498375934425,-3.3364092404003625,-2.5654886904752487,-2.867056771997458,-2.0031284476582627,-2.2037980455151946,0.4616825884611841,1.8296004826355328,0.26956610824605937,-0.5834297408077932,-0.6167700288213416,0.2529842692430471,0.40981192884315776,1.026558973802798,0.775185988935226,0.2494169866680637,0.037109928437322186,5.684521574476103E-4,0.0,-0.0046386918215045965,-0.016141393572427044,-0.061711128600866305,-0.49554380678322696,-1.8786429950478594,-2.7575021799851793,-2.233683564868964,-3.3128193094022858,-2.7417982956600024,-1.5254171443186824,-0.561423799430087,-0.6978554258776044,-1.0660310980911263,-0.3935809611089422,0.6097566897330526,0.5384200756899028,0.21234450535144397,0.46105068814488687,-0.38323474693939774,-0.6828384158358054,0.5914849804694141,2.1341288300248262,2.8415704341176307,1.8749047819074707,0.7508249205020376,0.12262709048993875,8.988562845044385E-4,-2.3821521098976145E-4,-0.07628035926445509,0.005827425304601689,-0.3986040011597311,-1.263440436931099,-2.4685459477638827,-2.896598521263465,-2.442179061440258,-2.412893549348514,-0.9584795894856695,0.5286261096279213,-0.8214945699734229,-1.3183538736651588,-1.4823355419584283,0.3129024768169067,-0.03463037358982725,-0.39312377078642363,-2.392645993064224,-1.8235678914549966,-1.148558385124438,-0.8871385186385131,0.01313616516938697,2.3387422666396236,3.8861942157310367,2.7003753924774516,0.7695179626711538,0.033473249945728756,0.0017499933169781792,-9.6806606684119E-4,0.002294392709946596,-0.23252227818590582,-1.0769569416000841,-2.0175488277312645,-2.8363987981628314,-2.2014384161728335,-1.4006526429696433,-1.1181977890879762,-2.2611049757791895,-1.3672502021663215,-3.60322557627246,-4.140846923572776,-2.59701115379986,-2.4293771622396525,-1.7850549990414069,-2.0640924031125465,-2.2259511970732517,-0.7135290798068552,-0.46804155468003344,-0.49500123602613527,0.17132295039315734,1.127025570678003,3.8307432404326303,2.638829632973407,0.5478572140344514,0.03440121140173635,6.396854335710928E-4,-1.5712067114462356E-4,-9.501276852446756E-4,-0.4517065300729049,-1.0455610051953665,-1.3426809631248133,-1.0701796190446327,-0.09908155873637532,1.846582341522133,1.223633155733412,-0.7139689209987473,0.9853311018174413,-0.19241081378447256,0.7961096422353284,1.5363159390279972,0.1182638039158489,-3.2351313590340274,-2.7021992405914474,-0.6020073431888195,0.6516883989167265,0.010995500554229973,0.3651497416079244,0.278440798997003,0.867565593181002,2.527059726928289,1.0897961763835602,-0.05102254140958277,-0.10571685884357647,0.004726424660604299,1.0023161359586547E-11,-0.023316403903107543,-0.271128090974177,-0.7156017392443254,-0.05773997984114858,0.724606732662348,2.9484305497991166,5.11766452617392,4.28246530476573,5.181598200791171,7.111882579456681,7.87949429383425,8.487128031964918,6.54136838605571,2.0754242266942122,-2.7898763100467447,-2.731199864208584,-1.6925950072859794,-1.549617844146084,-1.9153662365066193,-1.8688644616610022,-1.8288077196608108,0.29234419479584833,0.7149821869498976,-0.40965294686030296,-0.7063399196696718,-0.03758585793104978,0.0019188081663268392,-7.431148473792806E-11,-0.008279059663981595,-0.09175843085135017,-0.17217164648552036,0.7980289534502707,2.830862646542366,5.446061333423158,7.423173310256168,8.842316649456054,9.55880298254593,9.775232827443896,7.131779791303048,6.756470243254981,3.4411772305101334,-1.2638015976443546,-4.324457535139256,-1.1508272772285086,-2.1151602745928875,-0.3654179314499541,-1.2287868930337784,-2.433926241054586,-1.0820116559938002,1.0725504055830866,1.1346549312552858,-0.22357106166598215,-0.4809105837021149,-0.00418967568267356,-2.2356837553624012E-4,-1.6148236831594888E-9,2.035163974457963E-4,0.00748128812900749,0.40845585973961746,1.1249958626944745,4.187633409813925,6.368026174348862,7.574704416833881,7.5465007096245005,5.0747392769177315,3.626963006499746,1.7882928399613003,2.649265327038105,1.1727106204210438,-1.1977130652807568,-2.7120726274031344,0.20268362328415024,0.969057189828699,1.503736485188461,-1.022095293999288,-1.2627462061917565,1.3825998809927162,2.6638460796640877,2.7111819948050506,0.6151981471075728,-0.19846073894393135,0.00917417954815218,-3.565552994601101E-4,-3.6382129992523755E-13,4.904779124657427E-4,3.1497984734197264E-4,0.5063854988133438,1.7959003858746116,4.422477556525308,6.251894649050866,4.920540155907773,3.3022344027021697,2.0058882687800215,1.3676287953598356,-0.19016703546268643,2.2736678586353425,2.224212359816135,0.7389451919753656,1.2309466489834402,1.5443814005936398,0.3102341147744337,-0.00862881288018315,-1.3568044152769367,-1.0608644470813857,1.1118963887811264,3.1992201915315337,3.1282791734516278,1.2663509939097428,-0.13824882641644193,-0.025154726141808536,-3.505297206619333E-5,-1.8414300562674482E-10,2.3445100958415234E-4,0.0017664363691702978,0.6108112856857744,1.5591929130955966,3.764274496637464,5.132768985480298,2.4779371183630987,1.5530827450811573,0.2728693217353377,0.6577719471137021,0.48129865150772716,2.1790394194543397,1.4269268385385219,-0.03753107837803129,1.0512967752151043,1.03313673727291,-0.7258480539149744,-1.8804081443601923,-0.16320479102354282,-0.21497121746384218,0.9617554542973028,2.4872374164840716,3.1343965276359413,0.9555882042350017,-0.4559777442876493,-0.22599324229602752,-3.636101066063992E-5,-1.3740349742223123E-9,1.181021090814279E-5,0.008024627209725443,-0.004083446762629705,0.7747170603026567,1.8854217491510603,2.84880942038523,1.3891872165691648,-0.5488371088136255,-0.8255093482179942,0.20696649270529438,-0.06270279828290909,0.4645799147351511,0.3204527758073676,0.24497037913234596,1.125079499556319,0.8815370295230527,-1.648054207402959,-0.5861130237252942,-0.03603142817955032,0.278500422383738,0.5676200484940064,1.5971437277608762,1.854752941882184,-0.16172581991953328,-0.9207549209456446,-0.47437040421933635,-0.10018728938831002,-7.507087781488329E-9,6.09300622352063E-6,-0.019536431366213393,-0.8754424448097502,-0.6062074429432556,0.04969124717334602,0.5393482121554446,0.8783062312785351,0.6170849304930145,0.4125185899315889,1.6156185874447373,2.03552980291738,-0.5389385662211738,-1.3413628305185277,-1.6062997371523833,0.8746113222135974,-1.9184825714396117,-2.4423633274692644,-0.9855854451771529,-0.8611758135142071,-1.0161718446655432,-1.3806094929796455,-0.7102791535529482,0.2767804041653705,-0.763793825367576,-0.8604257087485981,-0.6332357863322422,-0.36182767769270985,0.0,8.429293248125424E-5,-0.09227468884793397,-1.1479473197448344,-2.007055997542485,-1.1610705289408758,-1.4920558341772838,-0.1916388311172302,0.5343720717670999,1.9963816295288472,3.5196459446966974,2.130568083668585,0.5258193155914289,-0.24704468651303296,-0.3537025370223466,-0.8331886981417781,-1.7136475145281522,-0.9460123547064083,-1.6405380751982184,-1.9118502070679824,-1.782108223754719,-3.1953153086118125,-1.8437768122126659,-1.7170491765602547,-1.4495491653415677,-0.8825191726932563,-0.37607091110273977,-0.07528780448164746,2.7304169640920787E-6,2.305004099516058E-7,-0.1026953379077544,-1.2674008679948205,-2.501146287156261,-2.0269652409531203,-3.2680950647938842,-1.482665324331731,0.2465045485928412,2.030503218902646,0.9438764549625884,-0.13159321712545763,1.5678519177675958,-0.024416470121223124,-1.8697777398433415,-0.5979107518006158,-0.3442383520877087,-1.3189806527257,-1.8376889531218774,-1.0909247284796375,-0.2812893218801294,-2.9178446818575847,-3.117372669066506,-2.7270431618252524,-2.0507653384615683,-0.7546116247469069,-0.1382192190601647,-0.020726292124395956,6.434956978520486E-15,0.0020847639329922723,-0.24433555572157545,-1.3683041958868079,-2.603542441677355,-3.2592196674774394,-3.525669290522106,-1.3169206035398082,0.5085148908080117,-0.023595131574373086,-0.6119874209126306,1.735211399065922,2.661566894043568,0.5064895622047408,0.025633384057309402,1.0479875753440884,0.5768985678158796,-1.086464855895324,-1.7348319195808313,-0.8796262177770225,-0.2560148447655714,-1.7239301701713128,-3.2121502713093726,-3.2356927806694977,-1.486793396083235,-0.3899650415922878,-0.07727945872880362,-0.012427554919652754,0.0,0.00349825804083508,-0.2128476031571925,-1.2588112526822057,-3.2337075384877423,-2.9029082452198063,-2.9605241386958707,-0.5327815993054383,-0.20545042726741328,-2.911898753322173,-1.349009012686196,0.8686845041161622,2.434375592487651,2.0101087802963287,0.8591604418961784,0.7695442338226053,0.2948902194645535,-1.6373033663037089,-2.2050513166485874,-0.03486912956099986,0.22291255422429326,-1.4475992366053798,-2.9143171249474817,-2.220602060960145,-0.608555103527355,-0.054282547042087514,-0.011479629411983716,2.2112839857531154E-7,-8.615646342490911E-7,0.0054008834067057815,-0.08032391759151176,-0.965354727151365,-2.4425085951342913,-3.1461122726897304,-3.369515040771917,-1.2422608984018542,-0.6240912849419494,-1.0040432008200246,0.2997905813051097,1.1228867937598621,1.9100407897922553,1.1119196987399385,0.7651431225309202,-0.04207199106917931,-0.9756939898573629,-1.741149678044535,-0.09825322501406916,0.9497216917543305,-0.5250022771146136,-1.0306793912483345,-1.8041773071477556,-0.7528960399257923,-0.024481377665041777,-0.03425925871050391,-0.0019089841137769667,-1.7056229578305586E-12,-8.346407394288069E-7,0.001432424939433664,-0.10949261594524387,-0.5534919892097959,-1.4430763444934624,-2.6450771369739714,-3.052038834931589,-3.1809329250429093,-1.5279458157610204,0.3924056190831369,1.4205966489435502,2.792868506096899,3.773547746299673,1.8942457814182414,0.238154415432545,0.7791669387139634,0.5345150154531585,-0.30184297641994384,0.8714091334001999,0.4846420442784857,0.15706872547987477,0.7840832947382416,0.10403142449251969,-0.07272371366705613,-0.005635139083579541,0.023700797874452135,-0.01368333598800767,-3.1488423836871848E-12,0.0,0.0,-0.1312157462982999,-0.3083581600866699,-1.0029815489098637,-2.011546121558969,-2.5732224546094717,-2.2194286642229293,-0.014294806692150575,0.3499188645424809,1.9825313406942535,2.213520223734605,1.8527423766486621,2.226623141767021,2.718280126871905,1.696355529300576,2.0269617996399143,1.7958436238114417,1.546271502201418,1.7455360690444006,2.214680811139933,1.96114656216473,1.0197507230587008,0.11123695118356952,0.008687671170672385,0.036350522415771594,-0.07502593033247769,0.0,0.0,0.0,-0.04150317803898618,-0.26981671369406507,-0.8748710309816079,-1.2757234159579103,-1.6745901369250629,-1.7377319187764035,-1.795772710260834,0.4329547611821638,0.11875114241736535,-1.4675603194186204,-1.4632885041689798,0.5904335528767529,0.7211237866000245,0.771691234124948,1.6762753271127209,1.500102638599379,2.1423235300755974,2.244391455322811,2.042607787198237,1.8462928765458884,1.0055424852988164,0.4421912406786437,0.018656217595314807,-0.005147719623601366,-0.0032370932918461266,0.0,0.0,0.0,2.007296009171305E-8,-0.06541655905820272,-0.5537773171474991,-0.8664805074285589,-1.2585572536482517,-0.7546018783992571,-0.365949221238417,-0.4330010317076209,-0.45925955333967117,-1.0247190083496183,-1.482638722396609,-1.3594002688416704,-1.5549805661830747,-0.5547978287427643,1.0336630105403728,1.5147818902985601,1.1026351578650113,0.880669912318569,1.034720072122983,1.0483842310033806,0.4314542262544804,0.2598120699562447,0.03100716090910531,-0.0028291734966869294,-0.00343525965931723,0.0,0.0,0.0,0.0,-0.0015999532373264125,0.005066714513098739,0.0028593617257265933,-0.14546991573078383,-0.33899153779099067,-0.17939932834636504,-0.0600973121123035,-0.037378321179732804,-0.44400539377935216,-0.6297545727045707,-0.6264093578318369,-0.3792194879558029,-0.20215866663434484,0.2445523651678909,-0.09386610201468559,-0.03220943284292532,0.212869564064642,0.16628538659336867,0.2151784602830033,0.1168588760550275,0.05548769712790354,-1.594973609815415E-12,-4.2304965481730715E-10,0.0,0.0,0.0,0.0,0.0,0.0,-1.6125837247764457E-5,-4.724086675988789E-5,6.995701186073172E-4,-0.00229443405886233,-0.010884133973739338,-0.007645558156832979,-0.13797651430641525,-0.005915001286983481,-0.17289496000298438,-0.1720045435068257,0.016328341609698992,0.09602709938758212,0.05091317640881781,-0.02492601931129834,-0.007758092677179904,-0.0029245338189358883,-0.0010801458127338052,9.094857515228617E-5,0.004125502076864796,-2.708374127518815E-10,0.0,0.0,0.0,0.0,
0.0,0.0,0.0,0.0,0.0,0.0,0.0,0.0,0.0,0.0,0.0,0.0,-2.3568766387567956E-6,-2.0792026196875095E-4,-2.2563254592202305E-4,-9.401356080084294E-6,0.0,0.0,0.0,0.0,0.0,0.0,0.0,0.0,0.0,0.0,0.0,0.0,0.0,0.0,0.0,0.0,1.5568549301518467E-10,4.5732614792828544E-10,1.200309966830387E-4,3.7213449830081504E-4,0.0033716560966421576,0.008286891438270941,0.02728153667178031,0.0059327052157814655,0.022854010417009345,0.018199429091507877,0.045294734883841434,0.06257288872410895,0.0359029391589096,0.053433629867117444,0.04285527295519663,0.14675094846653652,0.19492922430979792,0.005067427766520599,-2.1881557436898897E-4,-1.6595813107716536E-5,0.0,0.0,0.0,0.0,0.0,0.0,2.0116609702145075E-8,0.002718450763191949,6.011460399563521E-4,7.674401528505177E-5,-0.015786513233219928,-0.07676649116025783,-0.008141139669784692,-0.04957993570290687,-0.14333373796086996,0.29984037289276777,0.4543042854363556,0.035696323051554416,0.15015253544679188,0.2055858643920101,0.5804829806470388,1.5515604076906817,1.265970871233819,0.7831508378663677,0.6207341151840545,0.42734668221269334,0.238726179455487,0.025991765930583884,0.0025200466947307566,4.488833771305454E-5,0.0,0.0,0.0,0.0,-4.971674818313682E-5,0.02106689507469787,0.017907414704100295,-4.452813808326019E-4,-0.0069091422553627675,-0.1896185220991506,-0.15368761732550654,-0.4581431927019488,-1.1364554291830096,-0.4472624934325701,-0.5346575502599594,-0.028559263824820318,-0.5677800050455745,-0.7552372500836114,-0.043855184944997794,1.505023058248689,2.8248433416719334,2.108863191000663,1.2136846326485529,1.3209622579742253,0.8781256922053146,0.46266025741413397,0.1628551279309625,0.01239925641290385,3.705072031849085E-4,0.0,0.0,2.0461328356840894E-18,0.004134648443994677,-0.008011824467493314,-0.0021058957540830005,-0.011667158501797807,0.11036710528890677,-0.11646169947013653,-0.9225278038897231,-2.8002906318977527,-2.91816828590134,-1.5208341902619724,-1.0474988105337286,-0.22373178504446492,-0.8158051699415579,-1.137335499245689,-1.1341130590244608,-0.9465751792021859,-0.23732369845461457,1.0368699211618126,0.2805320415515273,0.2909674007506506,1.050201936672321,0.7720089437331442,0.4807757520848085,0.032260331063583884,-0.0188801674510442,-0.019001582887104476,0.0,0.0,-1.7151234926544672E-4,-0.06125964510976479,-0.1218633138102658,0.06957813432053309,-0.015673347598957225,-0.3385961726822627,-1.9482528584182037,-2.332639853221136,-1.5313580619028748,-1.7034426710179242,-0.05175302047534896,-0.08249967200543597,-1.0447275659505522,-1.238194959097359,-0.2502963419677147,-0.15372254853516018,0.6207703829072342,1.2524581851195367,0.3719385402839596,0.6242723318210203,1.1089088077892981,1.7443022883382282,0.8585657287761759,-0.0607496750627318,-0.09988884863966205,-0.028051014056608457,0.0,-8.191166978977094E-11,-0.009825690100930682,-0.2686396261721256,-0.21380714929783295,-0.3789814388042785,-0.8015846150042912,-0.8382536800366848,-0.7754762105271316,0.17053209839681774,0.8392085047084409,1.3428144976658403,1.4842808054648875,0.9083349663441564,-0.3101785214351302,-1.825821133208542,-0.8964531132164778,0.55633435867699,0.8630315014145243,1.2498524841076004,1.0861367302437934,2.481858974997723,2.8890645267425086,3.934919892688108,2.2814529684038876,0.36664727966460603,-0.11359936452255742,-0.010940155063017992,-1.302310244501864E-6,0.00130649186218677,-0.040060965872261364,-0.38151320655556054,0.21934067825069423,-0.6524828360508943,-1.3391316149269095,0.32384526257275487,1.1972189947718583,1.0574119847096624,1.1339733171523536,0.03352467378929783,1.123064296281842,0.059284133931215025,-0.2058327396579039,0.302221493082987,-1.6679293812939562,0.05727607241621234,-0.6048154215326732,0.6982977364984634,0.9885388326773906,3.538886394754209,4.640849788005198,4.7106428292435,3.3240991090432557,0.42642678113609783,-0.12871561804077947,-0.0030927884990742094,-0.04248396216825571,-0.019006940107501636,-0.024911492398878292,-0.28017088117928723,0.34927170018147874,-0.3399561559583383,-1.1584364047822864,-1.3931586508980434,-0.3702697781320396,-1.763533210363354,0.14495257554387742,-0.8330119102833289,-3.4462101048940794,-3.7575572959586716,-1.730248155627961,-3.385417617224209,-3.649190288215667,-2.6488647267837715,-1.510563586303353,0.8032811216215112,2.3684937809537967,2.868525768707381,4.476900268574343,4.820212613160078,3.921732738500591,1.4140962241980761,0.2691881474846682,0.02872730617064847,-9.89837974797723E-7,-0.03251680742678689,-0.28156133961638574,-0.41158275052790727,-0.14735490782924557,-0.5288470772077029,-2.4050053745214823,-2.6101464186013983,-0.03816924546616653,-1.0138781490898758,-0.8097764765192125,-2.9666587671679143,-4.418404655269626,-2.6795434290588336,-4.285550816288419,-5.849430915007207,-6.010506767511126,-3.9232479006845544,-2.644080559555723,-0.2366228610086241,1.013504464679997,1.180974513987769,0.6956198989848807,2.1215696896030956,2.2795859936715646,0.3861361779866522,-0.4244133894554195,-0.13226907457622333,-7.664027451516753E-5,-0.03627078398091823,-0.3563787043224478,-0.5649251719853744,-0.12454953115127518,-0.8727388676925216,-2.0191167898192837,-1.5689725898833184,0.8377412205230993,-0.4999363296841357,-0.9625211566209286,0.6593479937686167,1.5554328364999723,1.8332166857996397,-3.2888145222740377,-6.2623938862017745,-4.450475114751434,-2.976133752942573,-2.7923636929911466,-2.3913713988931624,-1.4762406987282708,-1.5341492179762675,-2.7586004710065772,-1.1571974729142123,-0.3813116385335919,-0.37740923265395204,-0.21818292467750466,0.03637842106276125,-0.009790508452784008,-0.03012396616400618,-0.43928753655324587,-0.7858339857181526,-0.5794637084048165,-1.1712431628546423,-1.470004061580151,-0.3606851708171188,1.4527652736024463,1.229720154938597,1.7231729460069867,2.9903678857870224,5.869864045470039,4.112370745531006,-1.8494191915534555,-2.9528089790650647,-1.9266807795662406,-1.6222976783573773,-0.6346465980641586,-1.8614035057283194,-3.266216933476198,-4.350329807475736,-5.458353874270497,-2.983136863737669,-0.01611247407526906,-0.0722637737462888,-0.18854527971239654,0.0015518355998522346,-2.0786405879576067E-8,-0.38861058779615804,-0.6282754465442917,-0.8027076071555053,-0.7241010276327656,-1.4452947381481218,-1.465596715087318,-1.3294196415833857,0.37431888335220226,3.196588111564618,2.782405633201544,5.885367802295005,8.075764503762608,7.934052742341456,2.13338633656077,1.2544304210267618,1.4194566726345994,2.0174131606472403,2.206693242086846,-1.1387695034073042,-3.7095042459783,-4.653575197008755,-5.831456304328218,-3.6914888341361,-0.6667307170940229,-0.18904637140559988,-0.21475046511907786,-0.0068349688065324566,-2.3112792386006112E-6,-0.17784032201162123,-0.3399484076793289,-0.3370601666911825,-0.3787687002538934,-1.3042366460117158,-1.4350543633780544,-1.1589749928859,-1.2494501440260013,1.341800564840456,3.2536840917577705,7.50866377098362,8.132436788552514,6.484231391470043,3.099341717448067,3.169927446299696,3.929903103515569,4.13723618202168,3.3208325381728403,0.22151932329125865,-1.7436007759095775,-2.504501686505235,-2.8406608594742724,-3.251325759287431,-1.9506874990722385,-0.4050615763900612,-0.15556073143514235,-0.07436757964254098,-1.0338715027001371E-10,1.4676472058574957E-5,0.0015577925288954148,-0.0683857389308647,-0.04391287317663995,-0.958286997402638,-1.1591332720852061,-2.4040714821979043,-3.601566262300574,-1.1291734209402102,2.595671949522884,7.081913637817816,5.402796749936737,3.338376574899951,1.028652009583022,2.3709839629136797,4.273581569247149,4.648652708791021,2.52542393054431,-0.4147805135963911,-1.638057511363184,-2.2643375730115665,-2.487965706266722,-2.779528393028566,-1.7507931638482372,-0.29652868690826734,-0.23091354200968692,-0.05650861244124758,-1.953810620432519E-7,3.357012490015203E-5,0.015141784708122694,0.0612410854444175,-0.022807228102980873,-1.2195323684506967,-2.25120167428225,-4.736048386460788,-5.905139563789353,-3.863677826434318,0.6504497710534365,4.5366063191232096,4.47016135561031,1.1301815289940291,-0.35168297089550327,2.292936707300681,2.7236488206065634,2.071264110362921,0.5207628556823091,-1.219475637559022,-1.8194239604437439,-1.6762758831520692,-2.964146910787885,-2.486511087168017,-1.6502482153632185,-0.6007016246382401,-0.20253808956373795,-0.03713946072274295,-1.1162697692200997E-6,1.6067371307688213E-5,0.04565330456277474,0.031309098437437635,-0.8974850852788774,-2.614578034377372,-3.9972619516957777,-6.549355565807657,-6.275946978123258,-3.6321016834698625,-1.02246983853889,3.6936581617958018,4.0792502221362525,0.47203684680782343,-3.638521455330854,-0.24313090894871808,1.9857910959410245,-0.6900727493179613,-2.1884591270186284,-1.0959148506369925,-1.1581669629908689,-2.222495204045343,-2.63672133684413,-2.3547867757924883,-1.765499491060159,-0.7363416679417967,-0.35941107657542476,-0.14101093445734858,0.0,4.0168487991759795E-6,0.0169955483870192,-0.20409439951233097,-1.86077870167676,-2.1818391947971207,-3.619468520814257,-4.698111740108015,-4.539010030182132,-4.595798880336503,-3.218549278942409,-0.6968544223571885,0.6004231872210132,-3.9743471758541054,-7.189019964196926,-1.6316429193812205,0.40119036504646644,-2.066935081072458,-1.671273992097541,-0.13577083808828663,-0.6741658291442267,-1.432075529591696,-2.72665206130188,-2.2923069949254047,-1.7550354032198756,-1.1729195203191105,-0.7835186640815026,-0.02150271721040546,1.4340526969415208E-7,-2.9956145481311727E-7,0.10035766739492279,-0.4679092680339657,-2.0715201930211777,-0.4817223037809502,0.10871688592229577,-0.8311814737038934,-4.092583107793717,-4.515237361184499,-4.905589019587263,-2.3327398725697015,-4.8660518206023875,-7.274270397700852,-7.26820071807197,-2.401418415916814,0.6463029647621091,0.24921726218840243,0.6370561904887857,0.5713233102370364,-0.614780747250396,-1.683811300159772,-1.8335749756649866,-1.303643691973902,-1.2040539609548893,-1.1866269629840047,-0.5650744836343156,-0.07120424660060402,-2.750304975539585E-10,-1.2590610880373885E-6,0.11430686280681081,-0.5372218249356226,-1.8583862494355305,-0.27573895073482374,1.0150008035297198,2.024199346434743,-1.0604223062079612,-3.923709113434589,-3.8486136021493116,-3.2114700671270837,-5.205693853966149,-6.884744396297901,-4.772299392381105,-2.1133257828195746,0.18824443859486473,0.6051088433714059,1.3468160066577004,-0.3404538548304397,-2.0667277895776013,-3.349914867368121,-2.8186797607251273,-1.6284713924030627,-1.5000705465118604,-1.2587606404502871,-0.2259281414195192,-0.03384473897731362,0.0,-2.1765376451215018E-5,-0.05807081138982959,-0.478653955273312,-0.9819693573832478,-0.9717437716087393,0.1688763999044203,1.1441088916246989,-0.796190687985037,-1.0877665785804924,-1.2116683076113892,-0.08637844514496774,-1.8805822188093297,-3.404760903165912,-3.693965261699747,-0.8111235943892091,0.2704190295835265,-0.09713628286884665,-0.2407104469561615,-0.9960824277198338,-2.6682953519998858,-2.7614723284375566,-1.971302262228389,-0.7163339313182351,-1.3127530795621565,-0.7484645289700005,-0.2873289703768811,1.5530339884104057E-7,-5.6701867631694725E-6,-4.162853901385395E-5,-0.34191258561424526,-0.2879319599304742,0.008987117992307015,-0.2313040319407299,1.2222513188345785,0.40625361451038133,-0.8403805122651775,-1.2646891390963544,-0.30038207942756645,0.3714388256170101,0.26393993790003734,0.06773440833505537,0.7010076692597302,0.7491067627764434,1.3346148378921505,-1.326306000176146,-0.10394041711420263,-0.4496262987490629,-1.233462457490647,-1.6638184209468165,-1.5771277715559002,-1.3377737402515726,-0.7557509778303424,-0.1610027884482324,-0.06900344340139439,-1.3831786309511492E-10,-5.492993426820427E-6,-1.7520780406516327E-6,-0.12984646605802558,-0.35937273017491234,0.23085816579420873,0.7470934299105612,0.5673260066586209,0.42583426613207614,0.01833449945127945,0.09967605091331179,-0.34023909945150127,1.1129622783705264,2.3059777477621024,2.467202391322552,3.1935737084160456,1.8412987556715592,0.5937477544478422,-0.16482286896475257,1.1111857641728657,-0.3039040103189435,-1.4693870440256227,-1.1321923241203682,-1.3105542237670205,-1.0257764042109436,-0.4540078582334938,-0.08249278536314925,-0.011135537734100616,-2.5535605494482756E-10,0.0,0.0,0.07817349091595106,-0.2080448757977523,0.19939914302866527,0.06438060024796047,-0.06613553791608051,1.1684000292688073,1.5010760222801698,1.2493261002921072,1.1194133770903305,1.515388606488375,2.813395208894922,4.7945989746183795,5.073136834536475,3.125298991130951,3.024981202158522,1.2924507773124327,0.4144687279554294,-0.24148243149640244,-0.20702604691372312,-0.17915627836841957,-0.5626186202416932,-0.27917745492707446,-0.2596322364530008,-0.16391314212236827,-0.0734813127734133,0.0,0.0,0.0,0.028866921382499012,0.032478094747476115,0.36005542695324977,0.5463223953368235,0.6459021915268341,1.021637782465572,1.8308114766122467,2.558016935808476,2.692251820871498,1.8347987373235624,1.4444198108019393,1.3281149917271442,1.330942738422029,1.5610541585526623,0.9175435649801311,-0.4194744998866138,-0.08401952199527679,0.10140701993608649,-0.09664215819238431,0.20689237733579408,0.4587465236430921,0.4527233868299016,0.011960428216278289,-0.011615423220491323,-3.313621603132568E-5,0.0,0.0,0.0,0.0017123024227932294,0.05085187495517166,0.2148171084621959,0.25487715328576815,0.2409670001572524,0.9123768789411628,1.0747230016562457,0.5793204756617418,0.8641367483159249,-0.3838279197040781,-1.215571810550709,-1.567534054124066,-1.1496363519602617,-1.2483714024233419,-0.4768256782411031,0.11705643853450858,0.775864733529258,0.734282143096595,0.1483158924457293,0.13550569637181611,0.09194626835500416,0.1332950077772524,0.0022779917984750136,-2.6989795289263735E-14,-3.2264704011632535E-14,0.0,0.0,0.0,0.0,6.934827419709206E-6,-0.0225087262135884,-0.07443940848643771,-0.05149426008890588,-0.06690986884457831,-0.41686133359044447,-0.3191851488345322,0.043748059199990544,-0.3366056651857086,-0.8895924713238855,-0.9032935449772075,-0.6562142237402318,-1.0109639832448194,-0.8330720706092009,-0.14129324360275072,0.27443418821079374,0.3990369834638864,0.23367517225693232,0.08716923484338793,-0.014236389986388672,-1.216515805027123E-5,1.8581088359759278E-7,-1.5943743637587393E-7,0.0,0.0,0.0,0.0,0.0,0.0,-2.951879607820614E-4,-0.005957369784784,-0.017537818189514026,-0.06120702973390781,-0.06654247559769146,-0.033595479157242175,-0.07435508294705229,-0.03517907370773945,0.054952938017101695,-0.06878976538976043,-0.03286011085238166,-0.05150645867652103,-0.22070802268046197,-0.2466315994921071,-0.19488736971081846,-0.20747437398192212,-0.034333157188176804,0.0031478436520747484,0.020588128154505118,-2.273695721948129E-7,0.0,0.0,0.0,0.0,
0.0,0.0,0.0,0.0,0.0,0.0,0.0,0.0,0.0,0.0,0.0,0.0,4.015130324418182E-6,8.788726964291994E-6,-3.3650427064723858E-9,-1.4021011276968273E-10,0.0,0.0,0.0,0.0,0.0,0.0,0.0,0.0,0.0,0.0,0.0,0.0,0.0,0.0,0.0,0.0,7.74757590993332E-18,8.864601486562571E-16,2.8399371775546376E-13,9.032763636066336E-4,0.0052575642718541956,0.005649898228808998,0.0033947700623482816,0.003333986433571711,0.0035107888951017045,0.003279848100476002,-0.02791196696544419,-0.11303474012855734,-0.07519889438422186,-0.030331887867325224,-0.012841220904764673,0.0378492685591692,0.03953622348418984,0.027439813508169965,0.0021949027601401772,-3.1824819290084565E-8,0.0,0.0,0.0,0.0,0.0,0.0,1.1182201691408598E-19,-1.0932544334975124E-19,1.1914907891714624E-9,3.4637065287648648E-6,1.1749563582129575E-5,-0.013822606614627007,-0.05827484461425872,0.0014670138244797788,-0.09154001125498847,-0.08911784353259451,0.10202698527128973,-0.02967146495569045,-0.4787999364450203,-0.6631156014597388,-0.26484574752254786,-0.13560270000822347,0.045915814383698975,0.3948332479501435,0.3223345123489087,0.13986118799998654,0.05641852143564458,0.010276505072982715,0.0031518520623575515,-1.3067785336351046E-7,0.0,0.0,0.0,0.0,-0.011413015865704356,-0.0027173847302734084,-2.1414553099205866E-5,-6.10888365422766E-5,-0.0033086140236505135,-0.036649472681995365,-0.05399716689499744,-0.3291902981398349,-0.2545588959938009,-0.2133540358370791,-0.27261129555587676,-0.6205244731864481,-1.056372847897394,-0.9667678694153383,-0.7184125989026642,-0.5118013061747604,0.5921784483014878,0.8668997998787542,1.0117169723453614,0.8915693590445108,0.5853740865606926,0.25650761232899966,-0.010464785007861677,0.008148575211278802,0.015359855728704649,0.0,0.0,-1.44665467638834E-17,-0.03913034013332453,-0.01162392547105057,-0.007590532069467558,-0.09755095808346122,-0.12452881044582367,-0.10212337477362227,-0.6090826435060696,-1.077778788753285,-1.3805316158320604,-1.8891734755772447,-2.1535154193075003,-2.503729997077462,-1.6247852003936474,-2.3509448698444926,-2.7927523964323693,-1.029443499877473,-0.151651253601207,1.7790181302937276,2.9061508221248546,2.7527913334811234,1.932209760405753,1.7691661514886963,0.8572179955398663,0.3852645405789782,0.009372086374049977,1.1652471780983851E-6,0.0,0.0,-0.005439747732156419,-0.018788113644827135,0.06487363628181173,-0.2516347123011528,-0.5252533011017062,-0.6783698228147765,-1.2411620132307652,-1.9826746938746327,-1.5440795303942583,-1.9419645605593974,-2.7968012877021415,-3.210437657920784,-2.781604439081356,-4.0786825337486565,-5.784557427636104,-4.226880037591571,-1.2396927621342473,1.520985208126033,3.137870508507567,2.6866721755036367,2.5679796520013123,2.81683652524304,1.4717784079600724,0.43154909076835124,0.02483829765080276,-8.023321517030483E-4,0.0,-9.000033732470339E-13,-0.008516992527689534,-0.0893954789906359,-7.246712281813478E-4,-0.18584634182618326,-0.30782206036458243,-0.9436518883031298,-1.2397503545592303,-0.9294993173556662,0.267510440523796,1.6806935377440213,1.1229938943042568,2.2560772361102526,2.987656400210575,1.9269765055591783,2.3269109745105454,1.4624872073189428,0.7958104426783568,1.3899269359648445,2.639708258388439,2.8271532795226455,3.2008674717750556,2.8477018640617535,2.643359836824234,1.5341651258938922,0.14904231005417853,0.14719796523681522,-3.7344069871015563E-7,-0.02199476042700096,0.01466630390409851,-0.11674538607323186,0.018200763432032575,-0.933917106497186,-2.1223219166656273,-1.7806114088502494,-1.941778296262563,-1.3207468267132527,2.649781995053966,4.711608957514967,4.759636412511293,6.3206120154596865,7.016790562453948,7.700340309529027,6.865130576153102,5.224041968495471,3.558902921891026,1.1600948123913246,0.6609836398297619,0.9108057143495799,1.7127164064069602,2.0681906040675906,3.2401156009571763,2.2464913293462647,0.5812327155640384,0.17771501947479187,-1.517599471812434E-6,-0.022490674467358245,0.02481160527888668,-0.11993110571170187,-0.04985807019394229,-2.080936699209975,-2.2986212440086535,-1.182834861097972,-1.1947668592970841,-0.5122470187637065,2.385115068007955,3.1552670398471903,5.318027671053446,6.583070986311315,7.0379069701434265,8.264432415380481,7.438538260456068,2.588305167801794,3.4325698751200857,2.8023653933913226,0.16674048176541767,0.5367016077594524,0.6087302533287022,2.9870221171339497,3.304241784299447,2.502369599048662,0.4736015043908208,0.0061073495397486795,-5.540424917686711E-6,-0.02745481036183389,0.08509936006947408,-0.24675243376419023,-0.35837441682374116,-1.5658943604770745,-1.324559524555592,0.808041154179825,0.8741386371172093,0.42889200749330186,0.17876932195939835,0.18855899729980008,0.34841121895440774,2.0299247189865315,2.4855435936540977,1.0244124923223177,0.20615459009040052,-1.283424875966064,-0.736541377042712,-1.4204790697634972,-2.0368966427095243,-2.8670644996358314,-2.811259368394481,0.22448209313759052,1.6053325004648369,0.5682503934972171,0.024828152586552358,-0.08320621261015915,-1.3124392521576854E-5,-0.014908322567372092,0.027437044102892817,-0.068058483990139,-0.04152467034575299,0.07860988911003593,1.1040857913852888,3.0722859446802326,2.8889984824815875,-0.37023163246468377,-0.5044642626774897,-1.2989970023883575,-2.856726699803423,-1.835232750490412,-4.608696736195129,-5.508001672642042,-4.84630096144318,-4.782946025756886,-3.5555947826090524,-1.1679836677097988,-3.523243596117745,-3.944727272530377,-4.850409885474102,-2.8768066787629625,-0.41165714063469266,-0.17464516966902988,-0.07223425898780379,-0.011440933899959625,-5.5596589307424014E-5,-0.010040015197590476,-0.09616531733300497,-0.0884719694594553,0.4976445593548527,1.622639924012014,3.616550207439677,3.946333830273634,2.971268287016088,1.0567069273234027,-1.2710552664729244,-0.517319884590874,-1.6016199810034182,-1.8938503416336006,-0.70348563107516,-0.5338632921075989,-3.2043045289614676,-2.678168606225511,0.04346234360874622,0.5942949783151992,-1.6729545856340218,-4.128523261655115,-5.080372316394263,-3.893716393017752,-1.1868370180134133,0.026549702802704446,0.05105388865856233,-7.81709567166123E-4,-5.331156935326967E-21,-0.11115845352563124,-0.12355116315249932,-0.015622862469858521,0.43505431024406044,1.9789072440310636,3.909535289671054,3.473969108927055,2.4787755411694845,0.7823049178491418,-0.904348058070043,-1.478997525639092,0.4775197457308354,2.7773571658304843,4.262778833563527,3.7487648165660974,0.9151930191288655,0.37508723342626454,1.92443315305035,1.7070046134772239,-1.5219144756344014,-2.5116251771235407,-4.005077213402659,-3.924766717038196,-1.842768452144854,-0.27942361595548365,-0.15711597510507794,-0.002924701475229722,-1.1856806907992535E-4,-0.050300840126909954,-0.08048506302906466,0.01655517569567808,0.0821813616854618,1.4523484241887483,3.3617647296788973,2.8932351836089443,0.8267181771183161,-0.7397880935979332,-3.801279525340195,-2.655281828155498,1.635991397457749,4.2159960937567185,6.468598765828441,5.045695184936623,1.5628569231335867,1.061145475582215,1.785645911521649,0.9456674266536602,-3.250584956942378,-2.673446397041789,-3.982283342829202,-4.138182754864789,-2.244426991548009,-0.2034064988819133,-0.03288993229653326,-3.593137152302434E-6,-1.3726508234689967E-18,-3.4049293187421036E-5,-4.2661804916917925E-5,0.13394076626443957,-0.3946936529775129,-0.43619523432229823,0.2564159943764751,0.3233113449556591,-0.05452080204087056,-3.1515752039280147,-5.564253990224979,-2.287835356099219,1.8772215859769785,3.0386246429412154,2.8970787368855433,1.513129872150961,-1.1203415218616055,-1.2720821923092986,0.3165659576189833,-2.0750495402009865,-3.208837154941201,-3.0463343874971938,-4.849820032938161,-3.9408574892443133,-1.3892886566344922,0.08925833584431644,-0.005117223904387035,-3.714862307404978E-8,-2.7693972943022146E-8,-5.606346471006227E-5,-0.002802354800271981,0.15127677581734664,-0.4574390781038274,-2.401066103769384,-3.1838522835108645,-2.1957049452330617,-2.5837649497245754,-7.3776008132057385,-6.547342155032554,-3.503085604332888,1.7876217463731374,2.7988708130009163,1.67585899092615,-1.0242062746088394,-2.946575187506402,-2.6778865029230774,1.6479174760930029,-2.4556420456129393,-3.56055591115739,-4.1677105599963165,-3.9084261657603743,-3.214429580144225,-0.9039716798345635,-0.2000772557134001,-0.15741504583990093,-8.095982174552188E-5,-1.5825127395755827E-7,0.0013990120393480292,0.10002835893952147,0.3725540733976971,-0.9131521133421767,-3.3294959244206983,-6.219935078046943,-4.599147541656052,-2.8622168136792543,-4.697647612098,-4.2542991590753285,-0.10396474846661616,2.096303838562313,1.2078072540877791,-0.5838728858013201,-2.9209866316132125,-3.1190730442434886,-2.532580101837948,-0.42215149388828593,-1.7556237855009444,-4.439209481628284,-3.1624428267974376,-2.0852956544450976,-1.825764828079218,-0.9781227879638219,-0.7793529198248568,-0.3291836525742593,-1.0881458016579138E-4,0.0,5.826618786639375E-5,0.250685970567824,0.2680991821848667,-1.0602642866056444,-4.069154049200402,-6.9521221346886115,-6.585169280164163,-4.398460480424051,-2.023074438224405,-0.4283978833325084,1.883786107361704,0.6241153398818524,-1.3372381035438987,0.24360168680402158,-1.7466945145765014,-3.0999678276966,-1.2335946383091305,-0.811473590601621,-2.3810751799197023,-3.5455996406935446,-2.0337557582195087,-1.4302042612037766,-2.2202778086087553,-1.7061808836227341,-0.901338034294181,-0.3048577069076793,0.010548987798766937,-6.277435643877301E-9,5.090041972632227E-4,0.22390495488032297,-0.12002375268295545,-0.5136400694386897,-3.525415709702412,-4.830329007298577,-6.655892160973571,-6.543513738581459,-2.1820550614192205,-1.2329163986243874,-0.7481622909235948,-3.835262442373809,-2.9636179841047507,-1.4249834030954112,-1.1385455939125444,-3.7455973552290325,-2.6722063361326853,-1.4309337533939215,-3.809977050418984,-3.386208920443362,-2.313555459415201,-2.5414900785026036,-2.4852935528246407,-1.9277969084046611,-0.9472371525112535,-0.08808323406393626,-0.022903495407773464,-1.6073205216383456E-10,0.001005570771529833,0.09384994565212895,-0.1935117399434301,-0.42557603845144887,-1.792247050735301,-1.8028456554832004,-3.833181660425418,-4.59325548540369,-3.1851066848593197,-2.6272593452527246,-4.950738500348157,-4.793899076140599,-3.893360051636873,-1.6764048657480857,-1.1383700028246397,-2.6351257609316354,-2.543291996156005,-3.0289884979351345,-3.6807438098859784,-2.4135533194495262,-3.760560825767626,-4.069447275042109,-2.5204607200637907,-1.3665612520157746,-0.5591937947539122,-0.01450918365860062,-0.013942499981985438,0.0,-1.0385488976741517E-6,0.014156339546063894,-0.3565147574255988,-1.2360774482440575,-0.27724333788215344,0.5737248350245003,0.8867502523049364,-0.4297216150309254,-0.7430293123276126,-1.7842672489874034,-3.5958751602228456,-1.7249404351304491,-0.19351873065985076,-0.8174322273218341,-2.1152970542749014,-2.7927019501752155,-3.835112281875706,-2.2278093411645647,-2.3487816371555743,-0.8126719986531449,-3.197907555025012,-3.173604132209106,-2.0407835098966625,-0.818670823764722,-0.2366808173970636,-0.0022717936744496587,-3.0474474394657194E-5,-9.222972748851577E-7,-3.3473804805168687E-6,0.023740159053323735,-0.4243177197983252,-0.7857698815484576,-0.6716853232854232,0.09281724014059507,2.0583622849986445,1.10652400633688,1.118549725812208,1.2423854291358107,1.5043750499462214,2.6471445854364046,0.330262012650362,-0.8175424338018019,-3.3656887908491293,-2.2430023246210613,-2.368952276241273,-0.7394299589403421,0.6942440683440381,-0.021012469985896648,-1.7237862956236736,-1.7805098566989666,-1.239560015096419,-0.5856842984808774,-0.1540186719366221,-0.014090573644822003,-4.006259338636432E-7,-8.934754850449965E-7,-2.831053964881687E-7,0.0279859390843788,-0.2858909226054194,-0.20205528958162744,-0.3698249089995038,-0.3263278870964333,0.20038520780615252,0.323912009006525,0.8526174717946949,0.8506166491139685,1.61924398413889,1.5404994548671886,-0.08460559840518234,-1.1985550657492978,-1.7446647573696523,0.7014570209487656,-0.7217409557873352,1.1318510637401757,3.1983640921881316,1.370316174540708,-0.662485508102776,-0.5419568485623507,-0.6477053420624893,-0.28593297955806474,-0.06725187240117349,1.0582732821548416E-4,-7.396171086713412E-7,0.0,0.0,0.005164373916212313,-0.01820814418287435,-0.1014564146194766,0.031116140427541347,0.35866668171784744,0.3572564407237083,0.43549767788319604,1.4859349984003338,2.9146951320415075,3.935494778619947,0.7850735920011103,0.2895703994346261,1.6243297576534637,0.9599844599011889,2.8808016111425623,1.8692644982818964,1.7446672713436067,2.9812938949640677,1.2531289766559153,-0.24128757486542107,-0.31868294354510823,-0.1490966886728721,-0.2672570335318488,-0.048598438275263375,-0.07354475835735469,0.0,0.0,0.0,0.0015087211566693502,0.10142722188703086,0.19828777342142867,0.28292169477045204,0.43426778859336096,0.8555602413033646,1.3617188898376928,1.4389004169859296,4.799174433928295,4.556660328604898,1.5063433836529456,0.6064571450158333,0.9536846195015336,2.472378365402926,3.3746836173970722,3.071277607574164,2.8515250379625674,2.762306132653363,2.535860154913665,1.10864992238943,0.1993259187637527,-0.05132600551989414,-0.1751908548248478,-0.11090172659309952,-6.318978516210585E-4,0.0,0.0,0.0,1.959165084851603E-5,0.04750634191418393,0.1312853039023523,0.27973037410656304,0.14183132759430328,0.7840647538420832,1.5720685055557257,3.1182274246813897,5.215940062974789,5.310519522456374,2.767200218994655,3.2375803305642408,3.4697941976739037,3.371907146142971,4.515638657578895,4.981117190074389,3.44286186897735,3.4729494780865195,2.5541467644828866,1.2413761577923763,0.24549185123688788,-0.24112899627820433,-0.1086024680955443,-9.041668816052564E-6,-5.3308613412338865E-6,0.0,0.0,0.0,0.0,-2.3309008455847137E-4,0.019155327021584477,0.04763742473313202,0.07364761614820105,-0.005229375461650343,0.18892949308943593,0.8888716067194985,1.211695190707168,1.3009335478807167,1.2452616602844466,1.568879083860547,1.3264040618185577,0.8141265968611884,1.8157376646287617,2.3152137702037465,0.8531219327098586,0.8483635169472223,0.9251016974071695,0.3476079977219941,-0.1260229055451229,-0.033379224737366354,2.873627618966786E-6,-4.8573649640857286E-8,0.0,0.0,0.0,0.0,0.0,0.0,-0.0016954748936520475,-0.005245642267365597,-0.005349566417877017,-0.0012965646286988424,0.0016809694385969823,0.0702257757293863,-0.033591969248259794,-0.05508421067390235,0.03636387341341345,0.06013650275825978,0.06643640108470826,-0.02908103432046195,-0.24527307853153105,-0.2795872789994355,-0.21794749907525912,-0.03528688104369231,0.018858238649379914,-0.028428557822304853,-0.16106697117534008,-0.04165380768826564,0.0,0.0,0.0,0.0,
0.0,0.0,0.0,0.0,0.0,0.0,0.0,0.0,0.0,0.0,0.0,0.0,-6.0516695531179595E-5,-0.004168561537239374,-0.004491352366914511,-1.8713968195477128E-4,0.0,0.0,0.0,0.0,0.0,0.0,0.0,0.0,0.0,0.0,0.0,0.0,0.0,0.0,0.0,0.0,-6.117652759762016E-16,-6.970337975766311E-14,-0.0015717937831949257,-0.015226147918789077,-0.05527907296994095,-0.0320350844897289,-0.0842841260283062,-0.14471497438303185,-0.12144177386689876,-0.19713467499563866,0.05002574275413636,-0.24576944850608398,-0.43743485081885225,0.06595705018632222,0.07117413949315486,0.023713982882015955,-0.0013365567966473375,0.016795690176041198,0.00878514035836844,0.003239244903531935,0.0,0.0,0.0,0.0,0.0,0.0,3.329684491825999E-6,-1.3447685972448127E-5,0.0011200008571213538,8.713314577963408E-4,-0.005077347940586728,-0.14452865757049055,-0.23585191821721654,-0.37555185943314096,-0.7030509761551825,-0.3654845937231076,-0.2098938391127461,-0.4093437888489586,-0.2669333402057949,-0.5273063395951851,-0.5336868828775493,-0.1281963033298113,0.31924387899081585,0.6598417775939124,0.20075106511976082,-0.1306585146788176,-0.07421144566746511,0.004197399633956767,-0.00190690603311027,-0.0011563426204525913,0.0,0.0,0.0,0.0,7.319704496250058E-6,-0.002163411457167916,4.863967610343786E-4,-0.005418794325184957,-0.034457270885987656,-0.26374156185689185,-0.5074713703656812,-0.757615555634274,-1.0051667705017306,-0.736333256350506,-1.279687836744236,-2.310082790875124,-1.7593788389048182,-1.349280222239924,-1.0785512740775158,-1.181478426746742,-0.5113992761383177,0.2942198728593851,0.3507974594042532,0.1692318417574108,0.04337953215247772,-0.024237086403067747,0.013149859089279438,0.025684006169576567,0.04709271686468641,0.0,0.0,-4.477451297662196E-10,2.2934584145921012E-8,-0.010544046143858479,-0.020176229476704617,-0.05409755138978184,-0.2166112127186794,-0.6093737385053668,-1.4213207252835585,-2.003528954920385,-2.480153716532078,-2.14121923122093,-3.312024118612102,-3.3721707455591976,-3.1702675083166048,-3.9183549559503006,-3.4987746549964123,-1.1220858666183178,-1.3300572400072015,-1.093041341792682,-0.06362858472032593,0.6014959972323469,-0.13136647896434006,-0.0512087453302363,-0.022430083240366,-0.04929201677321428,-0.1476060523012627,0.01656718024130044,0.0,0.0,-6.188889303605339E-5,-0.02142539796370251,-0.12392085957778358,-0.3372112133718334,-0.4780819333354462,-0.8115045121259581,-1.313216973606274,-1.7714823432910611,-2.6755377473770174,-3.537342176518915,-4.275163048530375,-4.865483924397937,-6.036543914661379,-7.353790040408832,-5.621319078221664,-3.4579440081769097,-3.1394526484557352,-3.229990942549899,-1.003465844318235,-0.15510833356137954,-1.5354590025788182,-0.18339075773273966,-0.23607294611511717,-0.5061359790594219,0.08147911976581027,0.024456084031907285,0.0,-5.385463703728613E-8,-0.05231125097190504,-0.14056254264949358,-0.3527780291460899,-0.3519079084921976,-0.5178087096983239,-0.5567287357835263,0.11298042641341247,-0.6688540848422952,-1.5014976602885461,-1.6349469723521508,-0.5168891216151137,-2.0429787787693217,-3.4454943170222454,-5.597787823044263,-3.5265614452819882,-2.9436868949334256,-3.461771167764354,-2.6820134210439037,-2.0391946954560702,-2.4143476559272417,-1.5292845812048124,-0.44317691781495344,-1.4041849875461412,-1.1326027835023018,-0.2536918101654328,-0.19536866280385753,1.1235780913491757E-10,5.160889738711546E-4,-0.18338825888951968,-0.3324024624820706,-0.49440148760042363,-0.6785795241780288,-0.3576411078279551,-0.3633662086725053,-0.7022220909572333,0.0290650743844945,0.3314618084011333,-0.689419022004808,-1.2074624022825653,-1.124824216441629,-2.099668867387331,-0.15454079820729,2.3824406163150518,1.8691857585471983,-0.9927561249700084,-0.07383742161159842,-0.9535879997475095,-1.9886790234071292,-1.9759964920804332,-1.7635153132327275,-1.9745996446091596,-1.8265294563074317,-0.8685677654649425,-0.16384808225615924,-3.716665952599816E-5,-0.026577362748130166,-0.2308471782372746,-0.3662253492896621,-0.39700933320398174,-0.9127885204964864,-0.725010955213226,-0.7241049686938533,0.1345259139295059,-0.470539526510206,-0.1465770698268455,-0.7373752713247449,-1.0091406466674089,-1.5386824882306132,-1.0987283660689744,1.1163725295700369,2.291359323904487,0.8750299293856415,1.1577375057821833,0.8760400191900672,0.9986411380360775,-0.2975253659264227,-1.3249688425921204,-2.776176693298163,-2.6032682904052886,-1.329234282980007,-0.1748870772467406,0.021697345478499292,-4.7407883417274527E-4,-0.04341380009321795,-0.19955982127190106,-0.5515390212296769,-0.3464750221839736,-0.47144183261579,-0.12924676286306339,-1.0468035680568786,0.1273335338580948,0.10932430925621531,0.9355479727133916,0.7480329317232449,2.6649734926519972,-0.13904793941220903,-2.118692711440774,-1.6530958721003524,-2.376493361390378,1.1507488717589447,2.4832945167687335,0.11425500725128837,0.07331255117472855,-0.44201526999191104,-2.354001481871446,-3.487098417918215,-2.7703898080929363,-2.142990068276172,-0.9990045352337386,-0.006319454207113017,-0.0010843619886783688,-0.05117328263040909,-0.36936472159276257,-0.7138438677282017,0.37688258201798697,0.8744219283592575,0.4492584375012291,-0.6174453465724538,-0.3341789423464138,1.6055281033832582,1.9956159402517633,0.3153345764369002,2.4042707193572337,-1.1714665176010517,-6.234296853460009,-3.345969456516751,-2.1289214007021684,1.54797685084899,2.226461049072411,1.6555621681042496,1.4117584791612834,0.6515713585197368,-0.746652013978305,-2.190412437257406,-2.7062900303921427,-1.5722639478838973,-0.5623415108527277,2.6725865412828705E-4,-3.1630225597640156E-4,-0.19700848774518165,-0.680240862552727,-0.5507049125226692,0.40122817079174256,1.7556730215922096,0.6852380415745472,0.42402886736032713,0.6840142271929023,2.743517931433385,2.2012921028297363,1.7453582892435517,-1.3303457914435284,-5.032222874752895,-5.139716367922085,-0.45992609206330837,2.388888405993589,4.8830453663303155,3.5630793486020376,2.961902650979847,1.208540453501462,0.9877267659828353,-0.004720022421066117,-1.4655801739188723,-1.3644909931034062,-0.9643521490102851,-0.4676536032446694,0.0014544425379114225,-1.6896604892982626E-11,-0.35000744294217745,-0.508909175920146,-0.16152470539912295,0.410062126047594,1.8662322973213932,2.394530481800392,3.5733927094473126,2.003436913005979,2.236592794519448,2.6332871701560427,1.6071638872798597,-3.5455438058594053,-3.8371481068906323,-3.388772529203721,1.6781394541902777,5.707056637720395,6.432436982987207,2.9546384894292634,0.23015026278662493,0.17808787355225508,1.7875563150042915,0.6686472720875922,0.6761184150387969,-0.3710049026109769,-0.6775124599829074,-0.18810040664046215,-5.29841057550783E-4,-2.318240249759836E-17,-0.062385192373248216,-0.11765805188661244,0.16352681980877862,0.8418332946068843,2.4398704694026794,3.9437542070556852,4.27199081088728,2.179629058242287,2.808677223162255,3.701093670889441,0.7121099951119456,-1.4823388555279722,-2.535580705186082,-2.734867361244095,3.199675658744724,6.333765123635243,5.4040818645074,0.06056046132842903,-1.196378853672314,0.8761971084677617,1.9847671446793786,0.9065295398166048,0.39585444357682686,-0.053881443787321764,-0.6584500715772406,0.05385710982997283,-0.0025556457007779904,-7.048343761505213E-4,-0.0028965853102026697,-0.007282991943775874,0.25959236962735877,1.361645193138622,3.506937489252866,3.601160028667281,4.33361137356409,2.5785413176766125,2.5182592535800166,2.57934625791556,0.568385875456678,-1.4444735111518072,-4.015905527207678,-3.8013558937814143,0.9998102087303481,4.672751826007001,3.9798829472527766,1.1846649488845598,0.6998587264086682,0.09690990255639331,1.5908081594325796,1.8272164909752897,1.0391439688288775,-1.0389826654262917,-0.990167674235753,-0.18600345818280467,-2.2472027552589922E-4,-2.312183041890836E-4,1.351032693974971E-8,-0.08652439805595312,-0.05254513945565625,0.772399732769669,2.6100744738270585,2.945790633433473,5.280777791840859,3.099889707390109,1.6976064385333605,2.0174026789197264,-1.0143692924187668,-2.933139953517024,-3.0336206786687607,-4.165968499917739,1.049703981959209,5.353052969387332,5.963119063768424,4.158821028728988,3.829894846676781,2.1547761117670516,1.5078229616278311,1.3761957180910638,0.3575041883079,-1.054739649152985,-0.7223762220655333,-0.14914158750890186,-0.002592313812623174,-2.4675830997296783E-6,-0.0041926035714811944,-0.3694645390691119,-0.510115644306299,-0.7121995903609275,0.5019396819063376,2.062913902519011,3.3263949630899132,3.047717363488164,0.7194300816209004,2.196618713629587,0.21207030082928333,-3.3741471550798483,-4.41116521733684,-4.254662858258349,2.1780771191563257,5.770310856054863,5.052980358902129,4.576646505025407,3.2761928876785,1.8647979918316524,1.2523779090902778,0.4794038120731006,-0.588183066360622,-1.2900754582377842,-0.2546481721344331,0.05337945246805932,-0.01897011621786822,0.0,-0.0027513985289192465,-0.5306708041215097,-0.8311227374899273,-2.5204420517776027,-0.3811377237962378,2.1205618971063447,2.749218558791706,2.043633969822601,0.9638364494400535,0.9075821483316402,-0.6010606278694556,-1.818898204210046,-1.9673043886826207,1.87620185612981,3.7542721576093396,3.3678064196250816,3.3840879986596746,1.9364538804262932,-0.26216287140339894,-2.6181672453999103,-2.727730066866113,-3.1408089093902403,-4.86020275245687,-2.7091921416424953,-0.9102196544970296,-0.011961763566068543,-0.029648864042582365,0.013441718333182525,-1.6601947289807926E-10,-0.18158649710319846,-1.0778776733110822,-2.7532757245718527,-0.8887297200660134,-0.9180301471272497,-0.6282212179308467,-2.1453122433639473,-4.303025046207909,-6.639083213726089,-6.211830175715827,-5.011521660046653,-1.6179175967798283,1.854800383737057,1.274236302465039,0.611236030544422,-1.4453756734992307,-3.082545637224574,-3.5651677385403886,-4.1156087348966155,-4.2373711798663205,-4.78261633377343,-5.145051061978856,-2.510329930969886,-0.8492513389407862,2.5712740209141085E-4,-0.0028104790764314743,-4.3322267414328335E-41,-0.001148439856648592,-0.06174156748885985,-0.6826154544072063,-1.9405758289756478,-1.9140989998951197,-2.733424184647381,-3.071649014082919,-5.313247915384676,-8.841439428147371,-9.287512380834004,-6.5929859175790035,-6.480057102971733,-3.2548781346713453,-0.41792300086364803,-1.1468578310539703,-2.1799782058010035,-2.411647459124383,-4.5280203238339745,-2.8460182916378898,-2.695590219039201,-4.417156891735272,-4.796427327359706,-4.536746767479037,-2.1758709599060633,-0.7131855391112305,0.008727535509906787,-0.001950040706157158,0.0,-7.589188344860773E-7,-0.10600815531527862,-0.43754722817237846,-1.0331191855663293,-2.863147414838504,-3.6896125860941305,-4.93379311443334,-7.210154225500213,-9.448363855122992,-8.474798396346966,-6.04174969953196,-5.934827336945209,-2.286399130794452,-3.341808317118703,-3.034359223761753,-1.6957925987029145,-2.289497614008284,-3.450197199927427,-1.576893342867538,-2.200050921846396,-2.869389161753967,-3.50710586226082,-3.355998406237526,-1.672885223804617,-0.8604137936109992,-0.2752049903265151,-6.776812903004429E-4,-1.1681668421331635E-8,1.6133829327902941E-9,-0.01562297280596121,-0.24520964175303356,-0.34435605255686275,-2.479711357403302,-3.3732097075114917,-5.424590194888065,-6.706128705871454,-5.2044525397049375,-4.0665859909356685,-4.764256759608089,-3.9906118051022936,-3.4747832617680814,-2.409977855596891,-2.9401341645447614,-0.25608884577135305,-1.83409119136966,-4.105752264457377,-2.546046134815434,-1.2094202499166324,-2.015896886279793,-1.9801732730001667,-1.9475498021591273,-1.1167744767332772,-0.523095980490802,-0.13344771687510776,-3.105432721540678E-4,-1.1316616283165021E-8,-2.011758335532422E-9,0.028894021506573855,-0.02471272723945166,-0.2390254935579689,-1.039758785212673,-2.8547591779818013,-3.6243365276585404,-3.5463382123094607,-1.4430961866376981,-1.5282476983552298,-2.0007318887784726,-2.8107108500868634,-2.4384204599251804,-2.669929451644443,-3.2745917576090657,-1.4070469618382702,-1.3212687456423449,-2.604229795654467,-1.7081377594454505,-0.5320110461588696,0.007766790800472364,-0.13309688756168236,-0.31521674093588736,-0.17888985414862144,-0.14145543721527323,-3.416458143851036E-4,-5.733106562844329E-4,0.0,0.0,0.004241311530706844,0.051633828197564915,-0.3763000129022675,-0.4965936461628549,-2.0005865023498264,-2.011007896742158,-0.2010956895091451,-0.034457590040927084,1.595206642379243,-0.5578143904888203,-2.954709221167729,-4.105622508483219,-4.003418727893494,-3.199720043080665,-0.7745554061402078,1.2543088784621519,-0.5589495837246236,-0.07730846580576589,0.7584225882000465,1.5724490428946636,1.3673221191449063,0.5523493435277416,0.2424330128778602,-0.012031349875468809,-2.4770320293396883E-4,0.0,0.0,0.0,0.0027678518920530313,0.05966119293224297,-0.10421735005633649,-0.37188172680333653,-0.6141371904788077,-0.4839120491695344,2.1040470772327833,2.937133508183633,2.0627964681793576,-0.7282551140516277,-1.8376509556898888,-2.975259191660835,-3.4991591094140606,-1.7735115447622256,0.10966428417073455,1.7506257728552812,0.5506613935595083,0.050365055534196373,0.6455835071972759,1.9522645676609562,1.0781414205722102,0.2393333939076981,0.15146930584727872,-0.013488546240182376,-0.007261477332645903,0.0,0.0,0.0,-1.930693543968025E-6,0.042558751439466164,0.04645455074024743,0.07747009843565048,0.31551031588742245,0.7661877025250377,1.2993392069362861,1.0131775091540876,2.032374848789259,1.8363098880947322,1.9170625957885945,0.8159481800361655,1.1136687699845067,1.0587022310126517,2.5675953866679455,1.8188195668165974,0.9557908146588399,0.542647693032673,-0.2218778667025662,0.2323276372441971,0.4313380059582911,-0.12962753817509057,-0.03269651492737625,-0.006446413556553857,-0.007706057575930221,0.0,0.0,0.0,0.0,9.071904492660511E-6,0.05338199408550946,-0.08546020053712254,0.29056078365488625,0.5037798889759395,-0.062169938899822,-0.11026972462772565,-0.024614351078536472,0.15276410914732208,0.8562980198024445,0.49872389133145595,0.13858582984544374,0.23543300136913298,-0.20770889702320805,-0.055051488126703796,-0.05461655537348152,-0.32025778846992975,-0.3224512709341742,-0.04927342994999051,0.02606569462842859,2.4366416728491844E-4,-1.3576597490284392E-11,-6.798493915214074E-11,0.0,0.0,0.0,0.0,0.0,0.0,-8.142404971694214E-5,-0.0016739407400535615,-0.003146645455811502,-0.00723917299114743,-0.024096509069059798,-0.034209528618268405,-0.06361357023965888,-0.007607810130006542,-0.10297944667981376,-0.09122744439498241,-0.04996216754139573,-0.05331151869496827,-0.10192507539019646,-0.09628933562286666,-0.14042021049886902,-0.05802631673111344,-0.014365336252943992,-0.001048395853524806,-2.095388390737689E-4,-1.3675573492574134E-8,0.0,0.0,0.0,0.0,
