0.0,0.0,0.0,0.0,0.0,0.0,0.0,0.0,0.0,0.0,0.0,0.0,5.179597294842369E-53,1.02625611971581E-52,-1.200688071959425E-53,-5.002866966497604E-55,0.0,0.0,0.0,0.0,0.0,0.0,0.0,0.0,0.0,0.0,0.0,0.0,0.0,0.0,0.0,0.0,2.6473407997435836E-80,1.981564507765108E-63,2.2630808604155297E-53,-1.1219197342676139E-38,-5.460009373435739E-37,-4.225897665163778E-37,-2.0568528414062355E-37,1.0992756900988006E-46,3.485533512684071E-48,8.939475603706748E-47,1.0694244966942116E-38,2.630610429923873E-38,3.4043167735015647E-39,-6.871671631015179E-46,2.3752592589166885E-53,2.291030266529102E-48,1.480026332635036E-48,5.2740505702729165E-61,5.620141159658433E-61,7.852213388038444E-61,0.0,0.0,0.0,0.0,0.0,0.0,7.851442882007384E-89,3.909614211082242E-80,1.725485333825506E-50,3.090421494528781E-51,-8.174988616145371E-45,-2.1688672191886854E-37,-8.077242461283152E-37,-7.254542851510577E-37,-9.23967595326071E-37,-2.95973818470772E-37,-2.090611127094989E-40,-3.436251467116654E-37,-3.295302973306922E-37,-6.000107119918906E-38,-1.56408555319949E-37,-4.69007920046823E-39,-2.9823242910871367E-41,5.881981127130206E-42,8.824307080576905E-44,2.294401261794309E-48,1.7644683784035562E-48,4.642556153233183E-49,-6.21108331591309E-63,-9.611930442597346E-65,0.0,0.0,0.0,0.0,-2.171973126814525E-77,1.1324399835457375E-79,-8.705146814451571E-37,-1.8716065651892348E-35,-1.8933763313599352E-35,9.056561992013379E-37,-9.505644197212683E-36,-8.109984061667361E-36,-2.2686040504066903E-35,-3.505234108320343E-35,-2.9003612363129914E-35,-1.1442343654796593E-35,4.9535804631819354E-33,1.5783184030450124E-32,-1.6768094348486037E-37,3.3891425082209756E-38,2.6459054824374987E-38,6.155877168698874E-40,6.101095594415961E-40,5.892283864364994E-42,2.3098107139731483E-43,9.796267114116954E-45,2.9558656768355926E-46,4.919175991076133E-63,1.3091715504098877E-73,0.0,0.0,-4.874888285311483E-83,9.028606934826437E-70,-1.1999283904986816E-36,-4.757610814167506E-36,-4.889156441313971E-36,1.7213767546713715E-36,-2.8328225862334307E-35,-1.8552970845502352E-34,-3.410704195392671E-34,-4.930654843438437E-34,2.953487547966843E-32,7.010459415211935E-31,2.930498739298618E-30,3.6753099985035115E-29,0.16995276804022758,0.5298527474195329,0.8430990257681877,0.5298527474195329,0.16662036082375248,2.2068476123026864E-38,3.711369781308353E-39,2.0940772947586244E-39,1.559058756727606E-41,1.8644026508829638E-42,1.9534923741531422E-48,5.368658316214784E-53,5.368658274741E-53,0.0,0.0,-2.0207058926979016E-52,-7.390119329233402E-47,-6.108725507212909E-37,-4.1093368703453936E-36,-2.3429037284688008E-33,-1.4435638064048932E-30,-3.5239698059923437E-29,-1.564644695429726E-28,-2.2517888280368584E-28,-3.9338262761089156E-28,0.01008069426560328,0.060484165593619674,0.22043971198442208,0.8535970831146816,1.2631557777070506,1.296758091925728,1.8425160422555547,1.7232865110947373,1.633325521448453,1.8386922028579402,0.9596074962882166,0.42674939057720546,-3.7433360752632526E-38,1.9825020639923998E-47,1.0413866724370715E-50,8.733452672707316E-53,0.0,2.3693137736979978E-79,-1.258409434988741E-38,-1.5274940219430146E-38,0.2060789942406811,0.26923223441121236,-2.597508571582245E-29,-2.434253023026875E-28,0.10080694265603278,0.12096833118723935,0.3158617536555694,0.5174756389676349,0.5712393417175191,1.030088539422196,1.6065949878723793,1.6932375755007307,1.6899051682842559,1.9676488485683905,2.3485430938588046,2.257177553307508,2.2850883143913023,1.638818764076479,0.7848754623510932,0.21505481099953663,-8.331803546463943E-36,-5.55784987945953E-35,2.5037940123242587E-44,5.290064497011367E-47,-2.5943932088202324E-65,-9.36372055931129E-51,-6.762205161986914E-39,-1.1448952678868835E-37,0.41880569797299705,0.5417883235682421,-6.060683943116348E-29,0.16465133967152024,0.7997350784045267,0.8501385497325431,0.8501385497325431,0.8834626218972936,1.2329550254644999,2.0886898085144296,2.3881438769410788,2.534448972120617,2.531116564904143,2.3170254741163285,1.7211451807699731,2.4534964771225196,2.656199805036454,1.5000905990947044,0.2640032152855401,1.0112093854449782E-30,1.0107741607024079E-30,6.865859338027302E-31,1.505911876443616E-40,9.639089283238561E-47,-1.0543172401801368E-64,-1.9512671842192036E-44,-9.992620360068006E-41,-1.822084866281865E-35,0.7312480440798361,0.5417883235682421,-3.990427986687782E-31,0.060484165593619674,0.7358906813890393,0.8501385497325431,0.8501385497325431,1.6825912481758027,2.4612926940384603,2.527791618672443,2.3463038367014155,2.0830759823392606,2.5954035117295087,3.27675356960171,1.9972486733643329,2.2664544963243203,2.3496263293505213,1.1217318884819507,1.0932413188488684E-30,1.0927726601122306E-30,1.0927505067815762E-30,9.29058536118179E-31,1.7859428223481937E-35,7.609359514134884E-48,-4.25359034622213E-53,-3.2464284088137745E-41,-1.4670797034417022E-38,-5.257788172405557E-35,0.737895753571471,0.5417883235682421,-5.574280378546343E-31,-2.1676565150690617E-30,0.2688185137494208,0.5374958867381673,0.7190194653869298,2.4478884553248013,2.5311240258889187,2.1636862512739183,0.8862414218312502,0.5971847626480955,1.790017645172378,2.7218558286877337,1.8339607197570558,2.0271131056772687,2.079716708515869,0.975326255594988,6.66560908428665E-31,4.553754254056238E-31,6.453606039128513E-32,1.8838108117584369E-32,-1.5988240524277854E-31,1.76068830434859E-32,-5.311039212675267E-46,-8.015594370682944E-41,-1.6030285493826898E-38,0.1528973183076021,0.8143444127252721,0.5417883235682421,-6.256068414868532E-33,2.9388740668443027E-31,4.1777296005151645E-31,0.5261936245400701,1.6343595993311173,2.195128707907535,2.2983703286852015,0.9454709669609205,0.0399888865977006,0.768316697331859,1.5552563103313923,1.7540069857557525,1.4699831181442362,1.406236141804163,1.7571820020714992,0.9959108193692134,0.16662036082375248,2.878665688803686E-31,2.53018525343149E-31,9.391715003515554E-32,-3.236242387711472E-31,7.044100142198619E-52,-6.798128887186397E-44,-4.16151394611169E-40,-5.304492022464273E-40,0.3988625694980924,0.844259105437629,0.5417883235682421,-3.8706178225563675E-30,-1.0860169582426581E-29,0.5655243768103407,1.3910585873382701,1.6809854761563756,1.7289651989063821,1.5898284980031419,0.9183661763387786,0.07360899911421684,0.8461399838215888,1.5543145700098593,1.6238267515663432,1.135067279234577,1.0304811985880613,1.6873581312058168,0.9361584061804183,0.5498471907183833,4.754999869274763E-31,4.063093313984103E-31,1.0837228366377147E-31,-5.921441052494499E-32,-2.46907882098069E-41,-4.445641184428664E-55,-4.3561859358672095E-40,-4.2348386073158E-39,0.5284929045849724,0.844259105437629,0.3988625694980924,-2.6087821409956946E-29,0.4422700757094192,1.4343798811524457,1.6610283377814041,1.3849682687330636,0.3034879740955663,0.7017597072679004,1.0504676098266148,0.9474232661567701,1.105485789894123,1.6540629569608343,1.262609175123919,0.9707063874574334,0.844259105437629,1.561051650864754,0.8929482944847915,0.6498194072126348,-2.427585686747239E-30,-1.426936935915151E-31,-4.576145790064703E-31,-3.2686758750362125E-32,-3.1998667972147055E-38,9.099458064550873E-43,-6.20289524812038E-41,-1.0276776686128239E-38,0.5284929045849724,0.844259105437629,0.22269826796976827,0.05319913970718652,0.9613347370932823,1.6776530689399003,1.4249571553307643,0.20994165463792816,-1.332287548743444E-29,0.11760809976537161,1.2773342256178026,2.2638173926863168,2.2681974281500623,2.102017485778634,1.2070886915373902,0.8608903855114152,0.844259105437629,1.1455698076375744,0.8397666185517126,0.6498194072126348,-2.199335744423138E-29,-4.702800427903451E-31,-4.274728957962305E-32,-2.8926534483042983E-36,-1.3476293317371783E-37,1.6405227388043118E-65,-1.0817310109882796E-43,-1.7937645266024632E-39,0.5284929045849724,0.844259105437629,0.28252765339448216,0.07314881709738145,1.4977030792502475,1.6809854761563756,0.8891269311346537,0.2360176996424359,0.7812357520870223,1.4012036361243703,2.3747314341291768,3.2881670618046916,3.141196078364513,2.5394038811213653,1.2508583985444197,0.8850547792886962,0.8376113959459941,0.9827180300338352,0.8430990257681877,0.6531518144291099,-2.646652588099641E-29,-4.6871676680262735E-32,-1.0768378995226257E-33,-1.3031273795495886E-35,-1.4775627346538215E-38,-1.78158542328739E-53,-5.775773001793954E-60,-2.1570887173083685E-50,0.49857821187261553,0.8409352506918115,0.7877535747587325,0.9945000205434997,2.275872687159577,2.3656910013241097,2.0553762555569035,1.6821455558258165,1.7758717948753169,2.481751573205961,2.255701071857451,2.2274244210532403,2.2971241400753044,1.7112690621379365,0.8667578234616304,1.2784928690556268,0.9216899348447887,0.8430990257681877,0.8397666185517126,0.49319626803830746,-1.463500192010144E-29,-3.6273795532487587E-32,-2.935635504176067E-32,-9.055255970731485E-35,-8.055055305498892E-41,-1.0180488133073867E-52,7.863805911428673E-57,-1.4793952920676445E-49,6.423346689742796E-45,0.395538714752275,0.5883222900096863,0.8715769034100654,1.6109609513048526,2.13613831424825,1.5128438670414492,1.0472510973688258,1.1499868945823941,0.9790988719259051,0.9192498397553204,1.4778408066807789,1.0220827988655103,0.7879688333666811,1.185811502384054,1.7177245056854975,1.8094862941932388,0.8430990257681877,0.6198277422643592,0.0399888865977006,-2.4057744581092213E-30,-1.1595066680459204E-32,-3.757015262865252E-33,-4.323053351075195E-33,-1.0455987158430126E-51,0.0,5.161471584947961E-57,-4.899366302486678E-50,2.229429470343911E-49,1.8315997555578738E-35,-3.655705325489538E-30,0.2832546134003792,0.8397666185517126,0.7431268092739362,7.194632395797763E-31,0.16053248704915518,0.7391183257888186,0.8394511301945405,1.0455977965598884,1.4231027010094244,0.8412113966198869,0.36241913925520813,1.4217559266035444,2.1309430005284034,2.131832342773774,0.9648464347064228,0.23660091236972852,-4.67417815749172E-30,1.2644610337429577E-34,-4.608350090116963E-33,-3.8994191076391014E-33,-2.5846988593141368E-33,-8.519546400722184E-37,-3.5528016963006436E-70,-5.09872996189169E-58,-6.494122935410881E-49,-1.8970505194953605E-47,4.7852099040172075E-35,1.6848265542339806E-31,0.2832546134003792,0.8397666185517126,0.48319904638888217,1.4574355614232213E-31,0.7825958743646314,0.8394511301945405,0.8394511301945405,0.8915788379013572,1.0359151637880926,1.2747165352309964,0.8447017674582848,1.961717192494073,2.534164273721885,1.461534073288404,0.00672046284373552,-9.689893701152793E-30,4.418620948019331E-31,1.7166725396431813E-31,-5.542089861713594E-34,-1.682793622930233E-35,-2.995152269261971E-37,-3.534872946408286E-37,-1.776402881572751E-69,-2.8386229072991246E-57,-1.081774011402447E-48,-5.861322152181658E-47,6.09648032520598E-36,3.195290674813504E-32,0.2865870206168543,0.8430990257681877,0.7497916237068862,1.361951698519135E-30,0.8461399838215888,0.8394511301945405,0.9705001556473831,0.7949682368400703,1.6107043922276039,2.0679194227988864,1.7130753381192876,2.2549690275438774,2.224166929973527,0.8010218392915261,-3.1320425336099513E-28,-4.783332784524562E-31,1.8812166863430405E-31,4.510376116859267E-31,1.539733329114981E-31,1.4493658171098324E-32,-6.286504597484903E-37,4.114035357375749E-43,0.0,-2.0386970456903599E-57,1.0791474815919978E-50,-3.2846349638829808E-46,-2.3636414577258186E-38,3.853306365602022E-37,0.2832546134003792,0.8397666185517126,0.8297693969022873,1.0182953169556839,1.0934299379642656,1.3258461751922899,1.872005741454743,1.7830554479349885,2.441141570059316,2.5311240258889187,1.6630892298721616,1.7936499729898998,1.2962958152117345,0.3124423461068391,-8.842062768012416E-29,-2.509234889500252E-32,1.0705421440265565E-32,2.01034908956823E-31,3.985593987920028E-31,3.097993695533157E-31,-2.283834220101137E-37,3.3910495323369145E-72,2.5499360364088354E-67,-2.678435148125735E-58,3.2159963379232412E-52,-3.173219312242094E-46,-4.06284359171472E-41,-9.821994858997569E-38,0.2832546134003792,0.8397666185517126,1.0775844283038263,1.824071205878472,2.324990529252208,2.392679524215123,2.158124922177625,2.069104883352559,2.531116564904143,2.156364086347114,0.7752155541787272,0.5684519148868823,0.844259105437629,0.3190900555984739,-5.000524505554484E-31,-8.560441606757937E-33,-1.3367552494831106E-35,-3.8247486142927837E-35,1.0831075492881372E-32,1.0824787099443827E-32,-4.2058009759024707E-35,6.38827578633886E-98,2.470250535271059E-67,-7.0680927307347E-59,-5.585500322668328E-53,-1.4963332561851117E-46,-1.2751647640122514E-40,-4.236154196365888E-38,0.15379156765492108,1.2377486092179217,1.7897006160062923,2.5293562984787963,2.5393775593223196,2.4256790672595505,1.6899051682842559,1.5813185891293615,1.599878849221588,0.8714534794166967,0.0698238708656823,0.5617314520431468,0.844259105437629,0.5085497761100679,-1.7502204241448946E-32,-3.799716198855483E-33,-3.520376368161745E-36,1.9307325275990668E-39,1.8242135537720733E-41,-1.2999837944172145E-41,-3.1800966055050846E-69,1.179373991324097E-97,0.0,0.0,2.246075772300313E-54,-4.085794270946949E-47,0.1848127282027268,0.5779598045612546,0.7594123013421137,0.9334487301444193,1.49072998950689,2.5293562984787963,2.5393775593223196,2.395436984462741,0.9167801966313942,0.16026161265012223,0.7248382785104163,0.8378864503881877,0.1861969889751528,0.5617314520431468,0.8475829601834464,0.5085497761100679,-3.288290993706712E-33,-1.289804161912836E-35,-3.3024333465081485E-36,1.2267479934842245E-39,3.2428375864495823E-40,3.8430968677291046E-51,-6.209558140636871E-63,0.0,0.0,0.0,-4.5614710793181834E-57,-9.41072010970314E-51,0.4569914733740153,0.8501385497325431,0.8501385497325431,0.8501385497325431,0.7926353049605427,1.0991056169622921,1.289690531508133,0.7895376017251787,5.158286831698366E-28,8.960752528909665E-29,0.3191948382431191,0.8378864503881877,0.6284148377911407,0.4587377973298385,0.844259105437629,0.5085497761100679,1.5431353677821325E-35,-1.474335875037203E-36,-3.240789666999089E-36,-4.580749509581435E-41,3.1642868877971175E-40,6.292006123019314E-51,3.64825629726726E-55,0.0,0.0,0.0,1.0753990313052537E-78,-1.1278186318237714E-43,-5.6749753729239954E-36,-1.2244884821037547E-36,-2.743179138462666E-44,-4.960698271092647E-34,-1.2695658541361213E-33,-3.770350297950791E-34,-2.765928405381266E-34,-5.444182976513931E-30,-4.515362442184247E-30,-7.999179469559413E-30,0.0465492472437882,0.6117901066326449,0.8378864503881877,0.5652408593888567,0.03657440854869073,3.78847429220205E-35,-1.199619778863778E-38,-8.62981618758989E-37,-7.930888681788248E-37,-1.2817510495152314E-38,3.377567071104422E-52,-1.5172361818130473E-69,-1.813707619638585E-69,0.0,0.0,0.0,0.0,1.3108893901417703E-65,-2.370533428912008E-55,-3.282362283787957E-49,-1.7156500633058538E-48,-9.515568943723044E-48,-1.6622630722515398E-43,-5.892479637572002E-38,-3.2736444531559483E-37,-3.286481008864655E-37,-7.668877955264789E-36,-1.2756889779119242E-33,-4.919450165428371E-34,0.0465492472437882,0.48876709605977603,0.8378864503881877,0.1396477417313646,3.1698168915915834E-35,-2.9552001432049056E-39,-2.0921454688531926E-38,-6.038156745816746E-38,-1.310140082629997E-38,4.097299502311632E-61,-1.990381396758832E-72,0.0,0.0,0.0,0.0,0.0,0.0,-2.2588913961839584E-60,-4.259632033136888E-59,-2.861414915904651E-50,-2.620593756932072E-50,-5.858727002930504E-47,-4.4794195357261347E-41,-9.768566679257052E-40,-5.894099470276965E-40,-9.942829360772131E-36,-6.983748176704907E-36,-7.882638402350895E-38,-1.5333839701668138E-36,-3.501088653496274E-37,-4.816227084371372E-36,-1.5712625964531904E-36,-8.162585856575023E-40,-2.670352635404076E-39,-1.3743111973212534E-38,-5.95435685313551E-38,-1.4646813053110306E-38,0.0,0.0,0.0,0.0,
0.0,0.0,0.0,0.0,0.0,0.0,0.0,0.0,0.0,0.0,0.0,0.0,1.3306673796121603E-89,2.9136718085706347E-89,-3.438796836703644E-94,-1.4328320152931849E-95,0.0,0.0,0.0,0.0,0.0,0.0,0.0,0.0,0.0,0.0,0.0,0.0,0.0,0.0,0.0,0.0,3.45168140820274E-138,3.142727342631763E-109,1.9218254036861882E-90,-1.4388973150900271E-62,-7.002633600104798E-61,-5.419846553505769E-61,-2.6379784109983825E-61,1.783164418044563E-77,2.1155177271633415E-80,5.601384517869471E-79,1.0172909596336498E-64,1.0714033392953962E-64,1.386521968506798E-65,-1.739436655085812E-78,2.876247732677828E-90,1.0917141684220286E-80,7.052666749529216E-81,1.1893717716987904E-100,1.9700754508013827E-105,2.7525167644605526E-105,0.0,0.0,0.0,0.0,0.0,0.0,9.873166370460713E-163,2.2199384988077765E-145,1.9086261647924745E-86,3.4184349220699154E-87,-3.638513691179641E-76,-2.7818543144602502E-61,-1.0360015592806204E-60,-9.30482746093735E-61,-1.1846911272631186E-60,-3.789102080110274E-61,-1.2168686598097072E-67,-1.9334974162802876E-61,-1.870308978624813E-61,-2.506284287682047E-62,-4.934236894094186E-62,-1.384350165027084E-63,2.3801948423733977E-67,8.959643756922427E-68,4.733489129337873E-72,2.6835121144398223E-81,2.825185202240178E-81,2.8566426389056173E-83,-2.543787659978073E-112,-4.0814356070108706E-116,0.0,0.0,0.0,0.0,-4.1937483027358146E-140,6.430166686201893E-145,-1.0054907456275612E-61,-2.1618051030992566E-60,-2.1869414663903134E-60,2.993737572285964E-54,1.174003630108133E-55,7.830270673510676E-58,1.2064073005602221E-57,1.4180719801003858E-57,5.8488900018133846E-58,-3.3785476417913704E-58,3.7434993973049995E-50,1.1920090186220606E-49,1.7296750381356052E-60,3.600186527491968E-60,1.870992410161079E-60,1.2512445366628747E-65,1.2733310029703079E-65,2.2611002933478861E-69,2.872111278501177E-73,6.165792555536267E-75,1.8603684448029547E-76,9.756232660124484E-111,2.0037334824359755E-131,0.0,0.0,-2.0344917989612427E-154,9.514778099630771E-118,-4.238999361976018E-62,-1.680726062818557E-61,-1.0603924931355845E-61,3.6394466646150356E-54,1.0507421006145556E-53,5.987202483390698E-56,1.1747587329742387E-57,3.703568427247554E-57,3.791223650139107E-48,6.097366413788047E-46,2.4177529038276883E-45,8.206545430073038E-43,0.3378436920150427,1.05327739275278,1.6759696878393295,1.05327739275278,0.3312193058971007,2.631484906859385E-60,5.446537852920071E-63,3.0665228953182546E-63,7.592841344887437E-67,9.078390088091162E-68,-2.710848341578618E-80,3.0938026209991503E-90,3.09380262099915E-90,0.0,0.0,-1.367132481461743E-93,-6.084578819822728E-82,-2.156684492957786E-62,3.1221644769542655E-59,9.980804454899977E-54,-1.771076995416393E-49,-8.930376384263679E-48,-4.141055313323068E-47,-5.801305052755489E-47,-9.026946357457913E-47,0.020039090907658277,0.12023454544594965,0.4382050791071663,1.6968384415161488,2.5109871198430356,2.5777840895352293,3.662678928331549,3.4256663426050338,3.246835757908503,3.6550776398402847,1.9075731638250542,0.848321515090867,-5.831093822899657E-56,1.3132322405393223E-79,7.882084848615536E-87,4.7364103170246035E-90,0.0,6.1007712159959584E-136,-1.7248132103229493E-66,-2.1124499828100604E-66,0.4096578659109504,0.5351981796578545,-6.868525031292901E-48,-6.480885496552936E-47,0.20039090907658275,0.2404690908918993,0.627891515106626,1.0286733332597915,1.1355484847673023,2.0476801835813836,3.193698981985352,3.3659330210518448,3.3593086349339023,3.911426446623956,4.668593979580747,4.486971332896381,4.542454245473992,3.2577555998857,1.5602289214256437,0.42750060603004325,-4.448584674181206E-56,-1.077572386288691E-56,1.4088305998958358E-73,1.7046010281006474E-77,-2.4455663411178952E-116,-1.720447987135906E-87,-8.979014705165954E-67,-1.8580863947964165E-60,0.8325305016899961,1.0770037442497566,-1.6265741296009001E-47,0.3273051514917519,1.5897678786742233,1.6899633332125148,1.6899633332125148,1.7562071943919348,2.4509520068118675,4.152039913911146,4.7473151143847145,5.038150351056871,5.031525964938929,4.60594110760867,3.4214096602862667,4.877227465814348,5.280174952200507,2.9819823013135878,0.524803579161461,2.2084028151324495E-55,-2.926772803056711E-55,-3.91076223395764E-55,2.4542514842269276E-65,3.840173281626255E-77,-9.938365343691872E-116,-1.6772550508094268E-74,2.70303926183228E-69,-2.1208701661656081E-57,1.4536246854904693,1.0770037442497566,-4.566541132751986E-50,0.12023454544594965,1.462853636259054,1.6899633332125148,1.6899633332125148,3.344769526209542,4.892725316993848,5.024916410274877,4.66414263163186,4.140880367742996,5.159319938019236,6.513754006734855,3.97026699513266,4.505412672308229,4.670747308897257,2.2298550769473002,7.178686157459651E-54,8.07332241225878E-54,3.4244133790089664E-54,2.3943620178537718E-54,1.6557245894215806E-54,2.8176344250551132E-81,-3.3703125661925955E-92,-1.1905230940382697E-68,-1.5469606063259877E-63,-7.27650325137989E-57,1.4668394553585644,1.0770037442497566,-3.6370142450344845E-50,3.578223071371464E-48,0.5343757575375541,1.0684709458544364,1.429315883572456,4.866079457983174,5.03154079639282,4.301122952699094,1.761731082233743,1.1871245602802092,3.55831903763972,5.410690469477194,3.6456720753535015,4.029633548492635,4.134202574353273,1.9388199845702068,1.2755681647507467E-49,1.5063874093401817E-49,1.4655381081018489E-49,1.2752582965304388E-49,-1.6570736139173036E-50,1.2054870453267586E-49,-2.681146439697225E-76,-9.025236004743587E-68,-1.6655138238914575E-63,0.303939706966189,1.618809308841659,1.0770037442497566,2.89648449369162E-48,3.555911891505483E-47,4.850813056135312E-47,1.0460035389792313,3.2488913683803937,4.363626410322153,4.568857138455324,1.8794716076380893,0.07949263341530416,1.5273122800916037,3.0916444608167915,3.4867345952708275,2.9221325993118463,2.7954120163530067,3.4930461090324982,1.979739382966574,0.3312193058971007,2.621986149709772E-47,2.6148023846320027E-47,2.587100926897581E-47,2.000621899232233E-47,9.354960280741278E-87,-3.431867442812447E-74,-6.904340197449638E-67,-8.300687270076087E-67,0.7928861920857104,1.678275773248087,1.0770037442497566,-1.7226733708920975E-46,-4.7055527373968214E-46,1.1241878881365928,2.7652410394654585,3.341577463180305,3.4369548251535065,3.1603694110411746,1.82559085805882,0.14632498377662628,1.6820147114530712,3.089772405240322,3.2279534559396774,2.2563640752900875,2.04846073822506,3.354245461087417,1.8609594648087675,1.0930237094604323,5.270085074254478E-46,5.268834413874364E-46,3.989731992599875E-46,7.088836009490613E-47,-3.4361797581895935E-68,-1.8552174967617205E-96,-7.255299826240734E-67,-1.24565404555896E-64,1.0505742045135664,1.678275773248087,0.7928861920857104,-1.055324597766267E-45,0.8791745904960815,2.8513580589987044,3.3019053037421044,2.753134289179145,0.60329407301176,1.3950057603925892,2.088191088255991,1.883352520999193,2.1975599752490873,3.2880590451618668,2.5099005459856074,1.9296362959123983,1.678275773248087,3.1031648335936084,1.7750634606661488,1.2917552929986926,-8.165834500977605E-47,-1.116078000272727E-49,-3.693682694044411E-49,-2.638344781463234E-50,-5.707905605937035E-63,9.50734030508947E-71,-1.031868219524665E-67,-3.3589712856256304E-64,1.0505742045135664,1.678275773248087,0.4426947905811883,0.10575287462482379,1.9110066907826397,3.3349530770623623,2.832626922594449,0.41733632543034693,3.831679103786547E-46,0.23378939392267992,2.5391720046463098,4.500170458017972,4.50887739094582,4.17853357885609,2.399533145833032,1.7113365649483678,1.678275773248087,2.27724171683766,1.6693453017213877,1.2917552929986926,-8.447086170855853E-46,-3.774967410840326E-49,-3.4501431789597914E-50,-3.1995027706177764E-59,-2.39171948799322E-62,3.5999306956975534E-115,-4.9210766861422656E-73,-5.924182442358258E-65,1.0505742045135664,1.678275773248087,0.5616277193940449,0.1454102026091327,2.9772362266934933,3.341577463180305,1.767467094230764,0.46917206437746445,1.552993657371647,2.7854080586737453,4.720652946708569,6.536442524192408,6.244283589465562,5.048000056770489,2.4865415516635943,1.7593721933359538,1.6650610033799922,1.9535138574371167,1.6759696878393295,1.2983796791166347,-1.0327802633721936E-45,-3.462551676729577E-50,-5.432598278596491E-53,-2.0323450818980654E-58,-2.6568134451460503E-63,-5.439699349029321E-92,-4.0619636037104334E-109,-1.3375716416468158E-89,0.9911077401071381,1.6716683883140395,1.5659502293692782,1.9769349009362671,4.5241347937574785,4.702681758410213,4.085816963528571,3.343883548589062,3.5301989525939717,4.933394870965467,4.48403628247013,4.427826029376438,4.566379879827709,3.401777238761741,1.7230002578827528,2.5414752350160015,1.8321980516808214,1.6759696878393295,1.6693453017213877,0.980409145455418,-5.5134445970030606E-46,-1.8368470152427846E-51,-1.4900818538315287E-51,-3.510102120937524E-56,-1.4381953993113729E-68,-3.1083996280167547E-91,1.0781813167281052E-98,-1.0861125618469204E-84,1.574068688103778E-71,0.7862788071516629,1.1695071333264229,1.7325799533514938,3.202377941570643,4.246361286505185,3.0073341162799996,2.081797085635836,2.2860223032240854,1.9463194483594148,1.827347464406488,2.937752647967138,2.031765827032951,1.5663781350967692,2.3572368995161495,3.4146098092861963,3.5970201446566734,1.6759696878393295,1.2321358179372144,0.07949263341530416,-8.660165522177219E-47,-4.350032872063411E-52,-9.284687093921324E-53,-2.957993504935718E-53,-2.0261436902899864E-90,0.0,7.0755648910878945E-99,-2.0085036162127923E-90,3.208745568243393E-85,9.488193723256222E-57,-9.34265694140323E-47,0.5630728200250712,1.6693453017213877,1.477238104301069,4.25802487155106E-46,0.31911741561164986,1.4692697677119713,1.6687181524692523,2.0785105416404446,2.8289405119415414,1.6722173300050263,0.7204414583816121,2.8262633020152728,4.236033687911005,4.237801583021544,1.9179874825669962,0.47033141437388293,-1.466940307863245E-46,3.8651267449438704E-49,-2.924666521234338E-53,-2.6540856777583036E-53,-1.8417219662851548E-53,-2.470658441916846E-60,-6.93405604112199E-118,-3.3356810061829556E-104,-5.7647489096937525E-84,-3.2842090973450926E-81,2.479172927531536E-56,2.932859023369607E-49,0.5630728200250712,1.6693453017213877,0.9605359871015919,6.406946903728364E-47,1.555697401106793,1.6687181524692523,1.6687181524692523,1.7723411615618925,2.059262744492032,2.5339683813394998,1.6791557269734525,3.899635096526989,5.037584408181989,2.905337012273102,0.013359393938438852,-3.783151807848286E-46,4.715709461688787E-47,1.8360343908262678E-47,-2.722865928790224E-55,-6.885739651774644E-57,-1.0064931357971707E-60,-1.0095963987800368E-60,-3.467028020560995E-117,-1.837371983312149E-100,-9.490258569720644E-84,-1.0276298527547359E-80,3.1627308928869E-57,5.566861389340876E-50,0.5696972061430132,1.6759696878393295,1.490486876536953,1.9596278406835515E-46,1.6820147114530712,1.6687181524692523,1.9292263342688099,1.580292026224409,3.2018679359562747,4.110751125998879,3.405367877227795,4.4825810749058865,4.42135056665955,1.592325789638648,-6.861451917639965E-46,-1.0828667494599199E-47,2.0099745031894358E-47,4.812342824816933E-47,1.64276763098081E-47,1.5461342422463442E-48,-7.823162202014221E-61,1.2693324559688426E-69,0.0,-1.19089417461562E-100,6.086177300540104E-85,-6.384983050036575E-79,-6.807901720314204E-66,-2.7430352446112435E-57,0.5630728200250712,1.6693453017213877,1.6494721433675614,2.024236812433124,2.173594531359373,2.6356073633644046,3.7213005616756356,3.5444791076030397,4.852667539754494,5.03154079639282,3.3060020854586654,3.5655396263634627,2.5768651443860024,0.6210941838004732,-1.133261343582004E-46,-2.2666059890691085E-54,1.1596006435419699E-48,2.1452612600130035E-47,4.2518691656286E-47,3.3048619425278886E-47,-2.8789195572243755E-61,3.219963102445173E-127,7.873057518094176E-118,-6.635357340608493E-106,1.8103606882386617E-86,-7.438834552319753E-79,-5.968360759267932E-71,-7.374602913546958E-56,0.5630728200250712,1.6693453017213877,2.1420957476250844,3.6260130258452064,4.62177458690553,4.756331383071663,4.290067763801215,4.113107665258635,5.031525964938929,4.286567454363055,1.5410262977843163,1.1300074477924809,1.678275773248087,0.6343089536685683,-1.1813090083850368E-47,-8.581062761341333E-55,-4.350420033263051E-58,-5.335738075998919E-57,1.1596006757238598E-48,1.1596006747576086E-48,-6.331900816534958E-57,1.4931982453665162E-178,7.627024470653734E-118,-1.7509970759920967E-106,7.918460560407661E-88,-4.2686242147550245E-79,-1.8740229669461033E-70,-5.831093823035884E-56,0.305717356748326,2.4604810192069824,3.557688825462642,5.028026787403155,5.047947732504916,4.821930123153964,3.3593086349339023,3.143452834360594,3.180348183972275,1.732334602728001,0.13880064794508123,1.1166480538540422,1.678275773248087,1.0109298949092809,-1.7822758784442257E-54,-3.747691490816451E-55,-4.192423734320457E-59,3.237299091803887E-63,1.2180926794095207E-64,-8.103868961894249E-70,-1.4395446092802219E-124,2.756673683753568E-178,0.0,0.0,1.4025810237747323E-87,-1.1641702164780795E-79,0.3673833333070684,1.1489078787057412,1.50961151504359,1.855572986161065,2.9633746437912922,5.028026787403155,5.047947732504916,4.7618128504309905,1.8224381395360076,0.3185789530252682,1.4408829167632242,1.6656077753409746,0.3701350611868833,1.1166480538540422,1.6848831581821346,1.0109298949092809,-3.247412485602138E-55,1.1182329419329793E-58,-3.8328952076420346E-59,1.8348193605208183E-63,8.330752863866755E-65,2.7204409361460058E-87,-8.41558376291699E-105,0.0,0.0,0.0,-2.732655257056541E-100,-6.066551441778874E-90,0.9084387878138418,1.6899633332125148,1.6899633332125148,1.6899633332125148,1.5756544652803433,2.184877032783131,2.5637347113900355,1.5694966397275727,2.537691190774156E-41,1.3482221470557066E-41,0.6345172477489427,1.6656077753409746,1.249205831505731,0.9119102495587308,1.678275773248087,1.0109298949092809,2.2416001263715944E-59,1.036191157184655E-58,-3.7411420896328303E-59,-5.4208682451990865E-65,1.3190186681140834E-65,1.4986967883246326E-87,2.1013779590477593E-93,0.0,0.0,0.0,2.096940053573645E-135,-2.32949907013133E-73,-1.0263925501887148E-58,-2.214622929982771E-59,-3.2345576349389925E-74,-3.5450009135834497E-57,-9.072152906198338E-57,-2.669259437677023E-57,1.0506129744248262E-54,-2.31926366393727E-49,-1.9237322956218923E-49,-3.3980723842526154E-49,0.09253376529672082,1.2161580581854736,1.6656077753409746,1.1236242928887528,0.07270510130456635,3.4821231920049855E-61,-2.5953114843638416E-65,-9.663025822184591E-60,-8.610694420554901E-60,-2.156718936160536E-63,1.7786114911929824E-90,-2.101799748959411E-125,-2.5124962516296405E-125,0.0,0.0,0.0,0.0,7.265967184710559E-114,-8.812149657497118E-97,-3.3390236898793038E-84,-1.7282945266569043E-83,-2.223106408017056E-80,-1.2674481268646197E-73,-6.7128198707827624E-62,-3.71636262946989E-61,-4.3754924016093285E-61,-3.38060309754108E-58,-5.514221467833547E-54,-2.104440883042304E-54,0.09253376529672082,0.9716045356155686,1.6656077753409746,0.27760129589016247,1.571326478790332E-61,-2.4682864816637487E-65,-2.520144263278725E-63,-9.109008834677924E-63,-2.1662554318038178E-63,3.283446701373536E-106,-1.6474902580822868E-130,0.0,0.0,0.0,0.0,0.0,0.0,-1.0603337415888932E-105,-1.9994864841390558E-104,-5.070501930246895E-87,-4.288665502904227E-87,-1.3623846507866566E-79,-1.730501028579026E-67,-3.7724933709880637E-66,-2.2528991414901545E-66,-4.585524936499442E-58,-3.3195600230935425E-58,-7.766233187991803E-61,-7.633634966612623E-60,-1.387499176675423E-60,-9.366305161102049E-59,-2.6602627023911467E-59,-6.961802070433709E-66,-2.2784649196652516E-65,-1.5982947386584665E-63,-8.765291931477681E-63,-2.218176162598629E-63,0.0,0.0,0.0,0.0,
0.0,0.0,0.0,0.0,0.0,0.0,0.0,0.0,0.0,0.0,0.0,0.0,5.230600948723188E-126,1.1453212407400923E-125,-1.6473243212264643E-134,-6.8638513384436014E-136,0.0,0.0,0.0,0.0,0.0,0.0,0.0,0.0,0.0,0.0,0.0,0.0,0.0,0.0,0.0,0.0,1.0622149887620024E-195,9.254200748369442E-155,2.54840329850091E-127,-2.2175902527512092E-86,-1.0792272563389218E-84,-8.352923285362887E-85,-4.065582130043884E-85,3.986183778987853E-108,1.883622418077299E-112,4.991351212978391E-111,2.474083224892699E-89,5.510336862780557E-91,7.131024175364228E-92,1.9513463597172215E-110,5.088344149505633E-127,7.390696157649542E-113,4.774520526623116E-113,4.407131504339217E-140,1.248414801423502E-149,1.74423911971936E-149,0.0,0.0,0.0,0.0,0.0,0.0,4.027741130763487E-236,3.443505096600639E-210,3.223780153107904E-122,5.773934602585399E-123,-2.2567442748399945E-107,-4.2873398319957845E-85,-1.596664550611873E-84,-1.4340412963449462E-84,-1.8258158514444853E-84,-5.83965433997796E-85,2.1520876619719442E-94,-1.334420022722667E-85,-1.2916249108787484E-85,-9.122290306360703E-87,-1.791012412536864E-86,-5.0215688056756995E-88,2.5694933319525044E-93,9.479702754242491E-94,3.3583187364527405E-100,1.0284991833178101E-113,1.0984930144503747E-113,2.5926075443979094E-117,9.695429247964731E-160,-3.5942615563602775E-167,0.0,0.0,0.0,0.0,-2.1036316043253117E-202,9.974290624636332E-210,-1.4248853112421145E-86,-3.063503419170546E-85,-3.0991246754826636E-85,6.527207397393324E-73,2.5596891754325708E-74,1.2783785144621936E-78,2.5278014480838796E-78,3.1708048379033284E-78,1.9022284915554895E-78,8.585318431313202E-81,2.969950728859076E-67,9.456948373472321E-67,1.8776508027029296E-82,3.677115276029749E-82,1.921480764851103E-82,3.313308436858103E-91,3.3783904843696137E-91,6.196546427665614E-96,4.886726379736047E-103,5.285685842415676E-105,1.5948190041771708E-106,3.6604945869674445E-158,7.228501716314147E-189,0.0,0.0,-2.620006934147049E-225,1.9439558802977094E-165,-1.8561312350678527E-87,-7.359397528514642E-87,1.0496870591741116E-81,7.935036470928723E-73,2.290921814482118E-72,1.2800027954658237E-74,2.91227513926778E-78,3.7518727508638977E-78,5.2840499451449605E-64,5.701174218906492E-61,2.2576869138181282E-60,1.8130662022211947E-56,0.504286585055383,1.5721875887020764,2.501656980764939,1.5721875887020764,0.4943986127993951,3.7522727833787924E-82,9.669742446553392E-87,5.443278567248191E-87,4.5699202915804446E-92,5.464035120917827E-93,-8.259059747781224E-111,2.792683443794948E-127,2.792683443794948E-127,0.0,0.0,-1.5664580837864286E-134,-7.525695805110358E-117,-9.443474703380782E-88,1.4429245680064489E-80,2.2269018747604628E-72,-1.6279926085741472E-67,-2.745705930579069E-66,-1.214943955012861E-65,-1.6867842115171097E-65,5.014934651820417E-64,0.02991159805637993,0.17946958833827958,0.6540922566256988,2.5328069852634005,3.7480561268769086,3.8477614537315086,5.467143216160409,5.113363434870756,4.846429740409309,5.455797058437537,2.8473627871844283,1.266257651053417,-9.673047346689647E-74,2.25074777894937E-111,9.278875758701014E-123,4.1786102232334505E-127,0.0,3.611050825185107E-192,-3.0739416504345265E-94,4.65848397671974E-92,0.6114809041102683,0.7988702134343828,-1.9927626809945066E-66,-1.8884124583732647E-65,0.2991159805637993,0.35893917667655917,0.9372300724332379,1.5354620335608362,1.694990556528196,3.056495271244721,4.767114471530628,5.024201750186313,5.014313777930326,5.8384392903670985,6.968634817275406,6.697533516792634,6.780350775702544,4.862729378230517,2.3288950875405092,0.6381140918694385,-7.112570738558683E-74,-2.404200522309581E-78,1.0636980948152986E-102,7.52472572476962E-108,-4.7482173263963545E-167,-4.9064063302112E-124,1.2164012027854032E-91,-4.696910475056751E-83,1.2426869986757068,1.6076030220963506,-4.722773876317931E-66,0.4885561015875388,2.3729867791394743,2.522544769421374,2.522544769421374,2.6214244919812533,3.6584439693926916,6.197593972264163,7.086138897358128,7.520257727401713,7.510369755145726,6.875115229378814,5.10700964511256,7.280054183057905,7.881518755784865,4.4510929372571075,0.783354583836338,-6.92345995166834E-74,-2.5103714110730555E-76,-3.460720959391181E-76,4.892780079394479E-90,2.3392270330834452E-107,-1.929594700727029E-166,-1.9697822977371835E-104,1.467390326171215E-91,-3.499716326895721E-79,2.1697709500686946,1.6076030220963506,-1.2147148320587319E-68,0.17946958833827958,2.1835466581157346,2.522544769421374,2.522544769421374,4.992611796624635,7.303187243202944,7.500503921243689,6.9619904574454266,6.180936537003676,7.701123017078638,9.722835860439513,5.926268366272768,6.725060211224552,6.9718490110377545,3.32842088959913,1.1860716503988976E-72,9.63961009608435E-73,3.2265318820251286E-73,2.509689138081599E-73,1.6913612711232576E-73,1.5152400511489368E-114,-4.3404986327818913E-131,-5.965626811000164E-96,-2.0243691423199273E-88,-1.226082517927306E-78,2.189496140523864,1.6076030220963506,-6.125694657459293E-69,4.021862791618697E-64,0.7976426148367981,1.594866434539905,2.1334861148157183,7.263413970639486,7.510391893499675,6.420124622671294,2.629669791810176,1.771976226545691,5.311369128505126,8.076334364481408,5.441757725729361,6.014882589856013,6.170968845719808,2.894003742454089,9.179718350935544E-67,9.607596354790979E-67,9.532070940317852E-67,9.179677008759255E-67,7.934099449998477E-67,8.677660635149658E-67,-1.8470844635873524E-106,-1.7560577612253146E-94,-2.1789111191722352E-88,0.4536793804689088,2.4163358307583183,1.6076030220963506,3.175184978226443E-64,3.894899051227647E-63,5.313150383723532E-63,1.5613301804794255,4.849498072923943,6.51342118538315,6.819761382003125,2.805416650141752,0.11865566707185482,2.2797616538190444,4.614781522341618,5.204517721068772,4.361757535849949,4.172606483020184,5.213938680514302,2.955082590949819,0.4943986127993951,7.277828115903447E-63,7.277645369558135E-63,7.277128317568925E-63,5.717382752818691E-63,1.6876605966858567E-121,-2.364268113391811E-104,-1.462746168091823E-93,-1.7362217328209044E-93,1.1835114273101968,2.505099187806583,1.6076030220963506,-7.087498498379556E-63,-1.9981224803049915E-62,1.6780330207964442,4.127571399453403,4.987847124078302,5.130213328621542,4.7173646732953785,2.7249908797403792,0.2184138053218815,2.510680160379663,4.611987175322556,4.81824483773716,3.36798987538599,3.0576603758330636,5.006756168571522,2.7777842701089157,1.6315154222380042,8.55809706425461E-59,8.558097036488633E-59,6.132791189041795E-59,2.0011588734477602E-62,-6.094858689695084E-95,-1.316629752818956E-137,-1.5377485500655023E-93,-5.072666563632288E-90,1.568152641186011,2.505099187806583,1.1835114273101968,-4.5352344517354015E-62,1.3123108774485965,4.256115038781246,4.9286299823121285,4.109500108195635,0.900514394833535,2.0822726831011655,3.116964376510574,2.8112095436958517,3.2802152047385613,4.907962192383669,3.746434238906457,2.880295595459143,2.505099187806583,4.631977549923294,2.649570532150311,1.9281545899176407,-3.1092823926254447E-63,-9.24422034711653E-68,-3.192883641468661E-67,-2.2806311724776152E-68,-1.2562232366289891E-87,1.2946501135886669E-98,-2.1870201805321625E-94,-1.3756676554649665E-89,1.568152641186011,2.505099187806583,0.6607938802481932,0.15785334243259444,2.8524878838639296,4.977959151822314,4.22815577526749,0.6229422521272379,6.098716677987416E-59,0.34896864399109917,3.7901266454141913,6.717235354922529,6.730231866552812,6.237140070464194,3.581692967603085,2.554447789363482,2.505099187806583,3.3991531464751716,2.4917690085089514,1.9281545899176407,-3.6900436501512796E-62,-3.263041537431229E-67,-2.982363840932306E-68,-4.471200845829483E-82,-5.263156133780052E-87,1.58351727940626E-164,-2.9977203630476566E-102,-2.4275764391432186E-90,1.568152641186011,2.505099187806583,0.8383205943447226,0.21704834584481736,4.444008649998968,4.987847124078302,2.6382317213953095,0.7003155119964811,2.318095280742278,4.157673951277401,7.046341281462498,9.75670215795834,9.320607493564664,7.53496001303119,3.7115671457643074,2.626148766984478,2.4853739973514135,2.915936734380314,2.501656980764939,1.938042562173629,-4.5781585647294145E-62,-2.982925595435813E-68,-3.0254831003048427E-72,-3.842373083175459E-81,-5.847924048622036E-88,-2.6683963428224184E-130,-5.669127331066828E-158,-3.239209213828518E-127,1.479389284137746,2.4952365925789985,2.337435068937639,2.9508964459977642,6.753006018453695,7.019516363932404,6.098745462465042,4.991289331119946,5.269395334131144,7.363893158313419,6.693152477301885,6.609249544532446,6.816063671129295,5.077705067164335,2.571857745559299,3.7935645908462954,2.7348531894036627,2.501656980764939,2.4917690085089514,1.4634198938862097,-2.3591215955064546E-62,-1.0214940848681604E-70,-8.298467928688694E-71,-1.6621926564902842E-77,-3.3312772782884067E-96,-1.524797910184239E-129,2.5373522769534E-140,-1.5507456421285142E-119,1.9950090490862346E-98,1.173648832082612,1.7456793552825403,2.586156997041512,4.780069228403535,6.338383941138488,4.488934638897637,3.1074202890453897,3.4122595978556447,2.9051979102701275,2.727612900033459,4.3850729955757,3.032740509185097,2.3380737877390905,3.5185589499495817,5.096859763019873,5.369136816808076,2.501656980764939,1.8391628396137498,0.11865566707185482,-3.588138992582987E-63,-2.2984236078959667E-71,-4.444113181211255E-72,-2.368125191818373E-73,-6.332705253728187E-129,0.0,1.6651374317506687E-140,-4.791502388867773E-130,1.0436850409181392E-119,5.609159747278588E-78,-2.4508025671707496E-63,0.8404776417589715,2.4917690085089514,2.2050178130853024,5.359243171266939E-59,0.47633457588230765,2.1931237764581253,2.4908328863845672,3.1025145883108705,4.222653208597743,2.4960559772153994,1.0753758953220496,4.21865703793331,6.322968322762373,6.325607193367627,2.8629078494667164,0.702046030175141,-3.346246871548484E-63,4.2335860362190765E-65,-2.326375177324682E-73,-2.12417712363214E-73,-1.478057048097881E-73,-8.578735008808715E-84,-2.6099108313892257E-165,-4.082803361266206E-150,-8.230880715911757E-119,-8.450071774070435E-115,1.4656191595842375E-77,5.436596553762772E-67,0.8404776417589715,2.4917690085089514,1.4337559771182458,1.606310697122023E-62,2.3221310574262497,2.4908328863845672,2.4908328863845672,2.645507058564061,3.073784124717135,3.7823593924231593,2.5064126616693754,5.820838785121239,7.519412965736909,4.336687394148465,0.019941065370919952,-1.6545669116900717E-62,5.164974974021369E-63,2.010953371020566E-63,-1.5596871587047563E-76,-3.2694820675036743E-78,-3.505079531651273E-84,-3.5052910615024262E-84,-1.3049554156946128E-164,-2.2190943816823773E-143,-8.707511806148223E-119,-2.6451257528818766E-114,1.8697199155189853E-78,1.0319457342677156E-67,0.8503656140149596,2.501656980764939,2.2247937575972783,3.436265883582527E-59,2.510680160379663,2.4908328863845672,2.8796836611175065,2.3588425302298552,4.779307962185735,6.135963749917357,5.083064678289275,6.690980343648174,6.599583864641618,2.3768048767260592,-2.5327787447428855E-62,-2.837972486912368E-64,2.2014647430120664E-63,5.27081462509631E-63,1.7992740688079763E-63,1.6934344177016323E-64,-1.20490854490787E-84,4.957377642580914E-96,0.0,-1.438301914288251E-143,5.064541209113968E-119,-2.5309977513542738E-111,-2.533386844019926E-93,-4.552022260250723E-75,0.8404776417589715,2.4917690085089514,2.4621050917409875,3.0215022319843774,3.2444428871132183,3.9340720819457493,5.55464552562529,5.290710784955849,7.243394504234052,7.510391893499675,4.934745094449457,5.322147029989296,3.846389778835369,0.9270839513929875,-2.3801843600337184E-63,-2.8769020831550486E-76,1.2700758132760856E-64,2.3496402545610132E-63,4.656944648679488E-63,3.619716067837238E-63,-4.435219800501167E-85,6.817832601058621E-182,4.955872486610226E-168,-3.1634453854899703E-153,1.5026588669327328E-120,-2.998158745587329E-111,-1.1857000946331701E-100,-1.2233559879302637E-73,0.8404776417589715,2.4917690085089514,3.197425836156839,5.412413401190271,6.898749269003868,7.099597142853147,6.403622957587056,6.139481267526649,7.510369755145726,6.398398177208067,2.3002320527434654,1.6867196588327804,2.505099187806583,0.9468091418481575,-3.095969985698509E-64,-1.0207907044065517E-76,-5.4001691979332585E-80,-9.191400479298066E-79,1.270075813276214E-64,1.2700758132762124E-64,-1.099392610769319E-78,1.2941999534220323E-258,4.801001471403656E-168,-8.3479808783763E-154,7.633156352364036E-121,-1.7379258269556553E-111,-3.7240132640308226E-100,-9.673047346689647E-74,0.45633281150594085,3.672667568155248,5.310428434467763,7.505146664314893,7.534881910565977,7.197513917390903,5.014313777930326,4.692113934901548,4.747186236974518,2.585790771384539,0.2071825119427802,1.6667785934618604,2.505099187806583,1.5089770698205007,-2.1205215890547894E-76,-4.454438970177425E-77,-5.923841161710457E-82,1.3559927925609103E-86,5.089670460372564E-88,-6.613508977042064E-98,-2.485438410755624E-178,2.3892922217022133E-258,0.0,0.0,1.2662780382966036E-120,-4.739797687688562E-112,0.5483792977002987,1.714931621899116,2.2533403869139543,2.769744075821072,4.423317986030903,7.505146664314893,7.534881910565977,7.107779123221762,2.7202849352604708,0.47553083301161214,2.150751790644099,2.4861901433133626,0.5524866985140805,1.6667785934618604,2.514961783034168,1.5089770698205007,-3.861110197445199E-77,5.947437929876752E-80,-5.290062534442597E-82,7.475937719498916E-87,2.5910063408365586E-88,2.226264086095881E-123,-1.9586072186131321E-146,0.0,0.0,0.0,-2.8878294695725033E-143,-6.36793509881953E-129,1.3559924452225567,2.522544769421374,2.522544769421374,2.522544769421374,2.3519202172586686,3.2612838530638752,3.8267904748603803,2.3427286624279366,7.336124832681152E-55,3.897326751530175E-55,0.9471200545955666,2.4861901433133626,1.8646426074850218,1.3611741657337177,2.505099187806583,1.5089770698205007,9.94998974235355E-81,5.513254493447288E-80,-5.1634176718083657E-82,-1.3523071118986845E-89,6.805239079600534E-91,5.358271864130524E-124,1.9339798469798693E-131,0.0,0.0,0.0,9.42841775658028E-192,-6.486845419434519E-103,-2.180395791962187E-81,-4.704588430789783E-82,-8.904140286502432E-104,-2.9994292506705337E-80,-7.675958727525727E-80,-2.2576688300894487E-80,5.0450706993277545E-74,-1.085424673878279E-68,-9.003143092604763E-69,-1.5902768542392923E-68,0.13812167462852012,1.815313437974836,2.4861901433133626,1.6771917633463158,0.10852417292240868,4.011545147813696E-87,-2.6244795369648823E-91,-1.3329802025060627E-82,-1.1871948856146237E-82,-4.437861316827997E-88,1.4976930216234618E-128,-6.601138255531976E-181,-7.891015845693395E-181,0.0,0.0,0.0,0.0,7.851309094142893E-162,-5.580175274194107E-138,-4.664991265106982E-119,-2.5700996443548877E-118,-1.7542173179991343E-113,-1.3175913354389462E-103,-9.206473606044845E-86,-5.0970996363667206E-85,-7.072711255292124E-85,-1.817215251242324E-80,-2.7004526947751946E-74,-1.0306069714344043E-74,0.13812167462852012,1.4502775835994612,2.4861901433133626,0.4143650238855604,-3.504108558168617E-85,-2.6217780272834396E-91,-4.9243944103653735E-88,-1.8350145413125268E-87,-4.4418342326072126E-88,4.81756858507323E-151,-3.2312644390899374E-188,0.0,0.0,0.0,0.0,0.0,0.0,-9.155032471821631E-151,-1.7263775518292219E-149,-1.4250327703806372E-123,-1.1974405024673884E-123,-4.611845730007371E-112,-8.446090323585223E-94,-1.8412476910956985E-92,-1.0895928108210783E-92,-2.4682765020056958E-80,-1.7868504664763785E-80,-5.0845319983682085E-84,-5.003081075132533E-83,-8.857823727978385E-84,-2.3151018229422883E-81,-6.460767929229129E-82,-7.477896372690052E-92,-2.4401990760722915E-91,-3.1146271212727703E-88,-1.7578073234540724E-87,-4.4634645486609227E-88,0.0,0.0,0.0,0.0,
0.0,0.0,0.0,0.0,0.0,0.0,0.0,0.0,0.0,0.0,0.0,0.0,1.2304402833834544E-162,2.6942399308564664E-162,-4.539514926883498E-175,-1.891464552868124E-176,0.0,0.0,0.0,0.0,0.0,0.0,0.0,0.0,0.0,0.0,0.0,0.0,0.0,0.0,0.0,0.0,1.5805864278120617E-253,1.4871879043376825E-200,2.0127020360241653E-164,-2.3227786787108834E-110,-1.1304189569726298E-108,-8.749133023144326E-109,-4.258427577636619E-109,5.651929702243994E-139,1.0497855438734718E-144,2.781922376796713E-143,6.901885909166286E-114,1.8784983038214343E-117,2.4309978049453977E-118,1.3689470428792866E-141,5.3681979063839304E-164,3.1251622774958948E-145,2.0189101438690296E-145,9.478442757313888E-180,4.375994708166358E-194,6.113978422048033E-194,0.0,0.0,0.0,0.0,0.0,0.0,6.76780767101195E-310,2.3992850798598857E-275,3.27955258092218E-158,5.87382551806976E-159,-8.82821574866423E-139,-4.490705360482091E-109,-1.6724006209556934E-108,-1.5020635198378404E-108,-1.912421104188568E-108,-6.116650520609936E-109,2.050538562273333E-120,-6.238921232538356E-110,-6.041267300394768E-110,-2.234444272676732E-111,-4.386887162336592E-111,-1.2299684357141774E-112,1.8060645846362642E-119,6.658550086919177E-120,1.5571997153033257E-128,2.532162798370427E-146,2.704331369857438E-146,1.442157520985619E-151,7.399311969300722E-206,-1.6336842481344247E-218,0.0,0.0,0.0,0.0,-4.8614988362356424E-265,6.949653334766567E-275,-1.3580270995000432E-111,-2.919758263925093E-110,-2.953708378255933E-110,1.0188495488231939E-91,3.995488426757622E-93,1.0713984336247313E-99,2.1317641820873243E-99,2.6776865889587575E-99,1.6167040844128656E-99,2.0475018319178862E-101,1.7137107916371013E-84,5.456815941791823E-84,1.3716834841680118E-104,2.6761252473281225E-104,1.399648887238579E-104,5.871219980252607E-117,5.993133062573177E-117,4.1954809119548944E-122,5.3521089781825564E-133,2.8909991723379423E-135,8.722842330329998E-137,7.353224103271938E-206,1.2618127043209678E-246,0.0,0.0,-1.425262030109701E-296,2.1207383723695233E-213,-5.438049949750422E-113,-2.1561391028835E-112,5.259285282060314E-102,1.2386014124303294E-91,3.5759621420713194E-91,1.997745540012356E-93,2.4599265799838293E-99,2.263799038120626E-99,5.4406636527689596E-80,3.9940250916210336E-76,1.5811507143233864E-75,3.0174674872644747E-70,0.6714596507092343,2.0933742051523185,3.330966502537966,2.0933742051523185,0.6582937752051315,3.70927864927911E-104,1.1676389297437296E-110,6.572803978670516E-111,1.8429287588877793E-117,2.2035017769213927E-118,-8.729704248600345E-142,1.4989080627908145E-164,1.4989080627908145E-164,0.0,0.0,-1.0260251641714269E-175,-5.655267326456396E-152,-2.766727166106388E-113,6.59040586548809E-102,3.476074908657133E-91,-1.1811151994827227E-85,-6.895649128743159E-85,-2.628194394403278E-84,-3.552426819484454E-84,5.4401053768062536E-80,0.03982741516093696,0.2389644909656218,0.8709265151625483,3.3724428609420487,4.990552063793215,5.123310114329672,7.279523554839888,6.808464328970037,6.453041022942725,7.264416099422144,3.791275197842823,1.686027241812998,-1.1591847640304755E-91,8.967768817506333E-142,6.575998636119105E-159,2.2236653533396675E-164,0.0,1.0469830999433869E-248,-3.578095219651756E-122,1.268587599838681E-115,0.8141893249929615,1.063698956845643,-4.1469563234137584E-85,-3.9868892077678093E-84,0.39827415160936963,0.4779289819312436,1.2479256750426917,2.0444739782614305,2.2568868591197613,4.0697359557938935,6.347432418003648,6.689745181110316,6.6765793056062135,7.7739057963765195,9.278765763348769,8.9177932728571,9.028064791847118,6.474744057372867,3.1009333350532495,0.849651523433322,-8.523417388144683E-92,-3.7260485176627947E-100,5.3243986095514747E-132,2.1131417413993916E-138,-4.774745963485527E-218,-8.361885959121231E-161,3.2903975882878744E-115,-8.252941406700016E-106,1.6546428217598894,2.1405299995782694,-9.82981512390153E-85,0.6505144476286372,3.159641602767666,3.358778678572351,3.358778678572351,3.490437433613377,4.871233109558008,8.252121724390358,9.435222926611576,10.013253924512014,10.00008804900791,9.15424404953673,6.800004231917785,9.693421922701976,10.494274461487771,5.926648452480178,1.0430398325715107,-9.388191560169888E-92,-1.4864905014549633E-97,-2.0174344970875975E-97,6.570059115971896E-115,9.078636203950048E-138,-1.940375487288799E-217,-1.4806797268499402E-134,3.9643346322521796E-115,-4.095426399132595E-101,2.8890588951363148,2.1405299995782694,-2.917086250094527E-87,0.2389644909656218,2.9074013067483984,3.358778678572351,3.358778678572351,6.647683028729015,9.724223686907376,9.986951650812648,9.269918771057402,8.229942281206302,10.254076797518946,12.945995717964516,7.890850570196472,8.954445179086978,9.283045475490507,4.431806028903395,7.783948393790393E-92,1.0483662808181704E-91,2.0361703721416085E-92,1.8295938601652552E-92,1.2329688266480665E-92,5.0334187947414815E-148,-3.262313918957844E-170,-1.9698217558928005E-123,-1.781056751401319E-113,-1.4385161812162531E-100,2.9153230669102816,2.1405299995782694,-1.3141159738528966E-87,3.240942353096447E-80,1.0620644042916525,2.123571181149777,2.8407454885793464,9.671265411802574,10.000117526316751,8.548422195635414,3.501416084061738,2.3593935936462933,7.072109719956538,10.753672241330996,7.245722670495442,8.008840771360639,8.216670259490497,3.853377820562148,4.803955217771408E-84,4.861276332779656E-84,4.85116060585037E-84,4.803954694429435E-84,4.726405825097277E-84,4.541238402167784E-84,-8.110972343578972E-137,-2.406727290114812E-121,-1.9170154217656872E-113,0.6040759508012294,3.217361042310896,2.1405299995782694,2.5586387016353832E-80,3.1385968192371887E-79,4.281455443652135E-79,2.078917521693274,6.457126520236507,8.67264695050173,9.080540175339458,3.73542374479617,0.1579905060492316,3.035511967080241,6.144600473063598,6.929836633895516,5.8076980000936,5.555842599557,6.9423806799322465,3.9347045571680015,0.6582937752051315,1.512241197197246E-78,1.5122460412954352E-78,1.512244700653704E-78,1.1881768761067081E-78,1.8528510743426126E-156,-1.0382044599781084E-134,-2.0468247064100715E-120,-2.4221221164391274E-120,1.5758503064379898,3.335549815293745,2.1405299995782694,-1.353236590795678E-79,-4.876417284277676E-79,2.2343078309306987,5.495878201578632,6.6413388477444,6.830900031421149,6.281190358159389,3.628336502537296,0.2908188751747163,3.3429809031029256,6.140879788577864,6.415512709748677,4.484492295329551,4.071287297318957,6.66651631783171,3.6986311177563778,2.1723694581769344,1.2367026748698572E-71,1.2367026748689886E-71,8.861414137844205E-72,4.1586195327588426E-78,-7.132159712028689E-122,-5.330156847803096E-179,-2.1519743813302544E-120,-1.389968969393242E-115,2.088001656030337,3.335549815293745,1.5758503064379898,-1.349172056581271E-78,1.7473473011319356,5.667034583131967,6.56249098126398,5.471816203351031,1.1990386001387616,2.7725545947706243,4.150250816795105,3.74313700625841,4.367619962333489,6.534971734435771,4.988392513326476,3.835125366767278,3.335549815293745,6.167497054126348,3.5279140012255956,2.567345723300013,-9.523702831477041E-80,-5.2136480412467936E-86,-1.9878720484329558E-85,-1.41990860602354E-86,-1.8633149337199554E-112,1.1500993313011714E-126,-3.0605857868609306E-121,-3.7706005978258685E-115,2.088001656030337,3.335549815293745,0.8798497544278778,0.21018237112421806,3.798099285035012,6.628172972240298,5.6298067094002615,0.8294501567584659,8.812724263705076E-72,0.46465317687759794,5.046569131308703,8.944026350914445,8.96133125931043,8.304777515901034,4.769038836736786,3.4012576801197456,3.335549815293745,4.525986318253442,3.3178006270338636,2.567345723300013,-1.2516233274443212E-78,-2.0315590956628848E-85,-1.8568035617230905E-86,-4.4631067358626885E-105,-7.806647450246567E-112,3.657320195827943E-214,-1.1751533904828653E-131,-6.65399092804857E-116,2.088001656030337,3.335549815293745,1.116227300393576,0.28900076029579985,5.917215695018756,6.6413388477444,3.5128163283256213,0.932472968757979,3.0865533481264285,5.535959872462223,9.382232238260418,12.991088831635802,12.410427002216364,10.032830077965139,4.941966836189133,3.4967278251041045,3.309285643519779,3.882581689025501,3.330966502537966,2.580511598804116,-1.5676613259732586E-78,-1.8568165266724184E-86,-1.1990570782846979E-91,-5.093148534429033E-104,-8.674051971204746E-113,-7.684281932829841E-169,-4.175494031248715E-207,-4.762608773370551E-165,1.9698128830474875,3.3224177294067623,3.11230435521503,3.929130688041551,8.991655135720679,9.34651475084583,8.120504529267956,6.64592216050018,7.016221441060127,9.805053861185339,8.911959900855189,8.800242802680428,9.07561665818603,6.76098506651378,3.4244391080072676,5.051146769713945,3.6414682081942447,3.330966502537966,3.3178006270338636,1.9485495746071897,-7.891508515533612E-79,-4.039606828560526E-90,-3.288842271866187E-90,-5.500641709896366E-99,-5.0455330436137815E-124,-4.391018247331338E-168,3.389882557270438E-182,-1.3461093375989835E-154,1.6682261558794688E-125,1.5627182205510066,2.324379201996035,3.4434786198447584,6.364681729769398,8.439584143826593,5.977034833000299,4.137542825296565,4.543437611876501,3.8682829007972557,3.6318277332825106,5.8387426300868,4.0381063929462435,3.1131548119117447,4.684975633990996,6.7864896223948135,7.149027633221908,3.330966502537966,2.448852843763089,0.1579905060492316,-1.1737543243471989E-79,-9.009084680450234E-91,-1.7198498617099151E-91,-1.3415816082225445E-93,-1.159654184129671E-167,0.0,2.224610428208725E-182,-1.325656185923283E-169,1.2199816389540483E-152,2.3132385203700678E-99,-4.6964084155902984E-80,1.1190994178487237,3.3178006270338636,2.935990237414887,7.741567592806437E-72,0.6342414361618199,2.9201532789950457,3.3165541765961835,4.131010864702528,5.622480019372079,3.3235087434016983,1.4318674032837353,5.617159101786656,8.41905818490354,8.422571851908335,3.8119735118564138,0.9347771607912868,1.1106442918158509E-79,3.4115182818317605E-81,-1.317246955505421E-93,-1.2033593919066516E-93,-8.374646371116531E-94,-2.031720013577783E-107,-5.2600911709175604E-213,-2.716780079346978E-196,-7.144734176486913E-154,-1.3393986992148612E-148,6.044268391933805E-99,7.283157516325481E-85,1.1190994178487237,3.3178006270338636,1.9090519480948818,3.1791048312166963E-78,3.091927001288872,3.3165541765961835,3.3165541765961835,3.522503469524483,4.092756134909854,5.03622700218037,3.3372987111146175,7.7504706516494535,10.01212912089996,5.774317003872451,0.02655161010729131,-5.516685901101463E-79,4.1620523038285254E-79,1.6204711838676557E-79,-6.349756067431167E-98,-1.0820878230376148E-99,-8.301642111910706E-108,-8.301651686820786E-108,-2.630045585458781E-212,-1.5018098259476917E-186,1.7170126602867732E-153,-4.192866388425437E-148,7.710795067899094E-100,1.3824511597978884E-85,1.1322652933528263,3.330966502537966,2.962321988423092,4.96628539617737E-72,3.3429809031029256,3.3165541765961835,3.8343105736883643,3.1408084774895983,6.363668100686553,8.170060831246484,6.768121410649313,8.909067696010485,8.787372910369786,3.1647254153215547,-8.317130832382069E-79,-5.4379735263503345E-81,1.7739895065498544E-79,4.247340260874171E-79,1.4498952697763235E-79,1.3646073127306574E-80,-1.2620434969251579E-108,1.281778567767112E-122,0.0,-9.733952575586953E-187,2.582056829903702E-153,-6.411074454730078E-144,-6.177254183636307E-121,-5.4549871248489885E-93,1.1190994178487237,3.3178006270338636,3.278303000521555,4.023142580885013,4.31998897509409,5.238233068837507,7.396033237807339,7.044603051020846,9.644609410397141,10.000117526316751,6.570633278087774,7.086460539868085,5.121483723594837,1.2344160733764256,-4.5482608172067726E-80,-7.704702851103895E-98,1.023455484547993E-80,1.893392646413787E-79,3.752670110009308E-79,2.91684813096178E-79,-4.645558274930391E-109,7.183330120836018E-237,1.6240683432239933E-218,-8.083419948626832E-201,7.627492340048617E-155,-7.601939854320191E-144,-1.3717163424286814E-130,-1.4660277898032476E-91,1.1190994178487237,3.3178006270338636,4.257385579429533,7.206650582343121,9.185712869968953,9.453142635537116,8.526450161078188,8.174744420331127,10.00008804900791,8.51949334463239,3.0627683869791764,2.24587412500746,3.335549815293745,1.2606802451503918,-5.932334756018519E-81,-8.406136751811236E-99,-6.258911068000049E-102,-1.1064350569366973E-100,1.023455484547993E-80,1.023455484547993E-80,-1.3244859205711734E-100,0.0,1.5733162074982435E-218,-2.1331247086654144E-201,4.3089754844338736E-154,-4.409790468872806E-144,-4.738968821596512E-130,-1.1591847640304755E-91,0.6076090050804955,4.890171889489831,7.070857181998022,9.993133482202397,10.032726084213243,9.583519221347888,6.6765793056062135,6.247568896703679,6.320897892178759,3.442990988884509,0.2758643621005362,2.219322514900169,3.335549815293745,2.009209140708437,-1.7465816157448723E-98,-3.65820157702017E-99,-5.777435660773256E-105,3.965899422577387E-110,1.487333549054774E-111,-3.513074588521074E-126,-1.2933303457542594E-231,0.0,0.0,0.0,7.077681965809315E-154,-1.2026701266340963E-144,0.730169277950511,2.283438469227053,3.000331942123918,3.687925566174917,5.889665991313247,9.993133482202397,10.032726084213243,9.46403697586508,3.6220705182133437,0.6331712492418997,2.8637348065674706,3.310372345206434,0.7356382989347632,2.219322514900169,3.3486819011807283,2.009209140708437,-3.1728212296309166E-99,1.8477799921278906E-101,-5.0100669976567776E-105,2.1816664186232564E-110,7.446538734171825E-112,5.400214370988362E-159,-2.58788752549104E-188,0.0,0.0,0.0,-1.7090838775670516E-186,-3.897562512316164E-168,1.805509487295809,3.358778678572351,3.358778678572351,3.358778678572351,3.131591389453789,4.342412790142815,5.095387170184152,3.119352796600005,1.598946627722584E-68,8.49440501735794E-69,1.2610942267453082,3.310372345206434,2.482779258904826,1.812408969351464,3.335549815293745,2.009209140708437,3.101720614889918E-102,1.7267094391525646E-101,-4.890129664168872E-105,-1.9570292273618593E-114,2.3509170070708002E-116,1.1459015538270499E-160,1.0477894511301911E-169,0.0,0.0,0.0,2.0740778124506543E-248,-1.1584722234849029E-132,-3.184425277906535E-104,-6.870959105856425E-105,-1.589129149427246E-133,-1.737716417199014E-103,-4.4470592182082295E-103,-1.3079594101462587E-103,1.7197036519219149E-93,-3.612324450484197E-88,-2.996271908709325E-88,-5.292480967749681E-88,0.1839095747336908,2.4170972679285074,3.310372345206434,2.2331876931948167,0.14450038014789993,3.074182212518274E-113,-1.8559720975842697E-117,-1.2623876883559164E-105,-1.1243141650455475E-105,-6.151672538900583E-113,7.421111352614704E-167,-1.0230476717204286E-236,-1.2229535386083286E-236,0.0,0.0,0.0,0.0,4.5175362734880426E-210,-2.0147323698637525E-179,2.979707223178748E-153,2.8578519870475373E-153,-7.638629365830958E-147,-8.74606476340668E-134,-8.577012144869747E-110,-4.748687491442227E-109,-7.8108860656286965E-109,-6.7521074222721E-103,-9.312749505529955E-95,-3.554141086756474E-95,0.1839095747336908,1.9310505347037534,3.310372345206434,0.5517287242010724,-6.331626373474111E-109,-1.855879296731928E-117,-6.76240490831346E-113,-2.532833341614706E-112,-6.152779744929632E-113,3.884899773954159E-196,-3.058360270917003E-246,0.0,0.0,0.0,0.0,0.0,0.0,-4.334344280110427E-196,-8.173334928208234E-195,-2.3974037229829996E-160,-2.013446080215356E-160,-9.72244890840504E-145,-2.7318110099016444E-120,-5.955348001587346E-119,-3.4959361018989093E-119,-9.171600378161625E-103,-6.639563463909541E-103,-2.3055057387352956E-107,-2.2690445122650164E-106,-4.0056267960318183E-107,-3.969131790890692E-104,-1.1055719589264772E-104,-5.342974226131885E-118,-1.7384106471538157E-117,-4.2763269517576067E-113,-2.424110858266895E-112,-6.158807866608026E-113,0.0,0.0,0.0,0.0,
0.0,0.0,0.0,0.0,0.0,0.0,0.0,0.0,0.0,0.0,0.0,0.0,4.911586990478759E-200,1.075468185846211E-199,-1.7757110332429597E-216,-7.398795971845666E-218,0.0,0.0,0.0,0.0,0.0,0.0,0.0,0.0,0.0,0.0,0.0,0.0,0.0,0.0,0.0,0.0,1.52416911531E-312,2.674908669806562E-247,2.639953522156396E-202,-7.33178567103999E-135,-3.568135693239462E-133,-2.761639269425063E-133,-1.3441607063573317E-133,1.7679418609288203E-170,1.2110068373218895E-177,3.2091674218213824E-176,5.7033786084209435E-139,1.7237063254469595E-144,2.2306787741078306E-145,1.4472770295254398E-173,9.459443893514934E-202,2.720264103135773E-178,1.7573387568930214E-178,3.013197400822412E-220,1.8243528196956599E-239,2.5489184785818794E-239,0.0,0.0,0.0,0.0,0.0,0.0,0.0,0.0,5.827144258039493E-195,1.0436676283055821E-195,-7.427959404706379E-171,-1.4174785615096062E-133,-5.27888567806971E-133,-4.7412213958910135E-133,-6.036503534365978E-133,-1.930703560040528E-133,3.300652201679098E-147,-8.651606827119902E-135,-8.379588549779428E-135,-1.6026318564507113E-136,-3.1464513636116722E-136,-8.821826248200225E-138,3.4656291157486626E-146,1.2775996382947487E-146,1.7921155898064076E-157,1.2721599131567378E-179,1.3564535896994156E-179,1.516174506475499E-186,6.084082268637572E-253,-6.460013443168866E-271,0.0,0.0,0.0,0.0,0.0,0.0,-3.7203382237250657E-137,-7.998727181008892E-136,-8.09173460459702E-136,6.061478283390406E-111,2.3770503072119236E-112,3.0548278459522477E-121,6.079651503639798E-121,7.6369855765006484E-121,4.612097889577822E-121,5.983871719581575E-123,4.046944803527013E-102,1.28863242428097E-101,3.284571733716197E-127,6.405284141532057E-127,3.350409386064206E-127,2.8962754326139567E-143,2.9579460598369704E-143,9.533454437548994E-149,1.3505448233502974E-163,3.582511844261955E-166,1.080930297837659E-167,1.516366592282802E-254,1.431974008385308E-305,0.0,0.0,0.0,2.346555375828247E-262,-4.474260180153449E-139,-1.7740049135345253E-138,9.38437366550868E-123,7.368855952381136E-111,2.1274600249568707E-110,1.1885251575847701E-112,7.154745106313656E-121,5.25565776436228E-121,2.426937920316389E-96,1.2607022531167E-91,4.990410538144443E-91,2.4050178878361936E-84,0.8419292386339272,2.6248382145645968,4.176629360282031,2.6248382145645968,0.8254208221901248,1.208649535606434E-126,4.2608308246891713E-135,2.3984809523122E-135,2.100333920515363E-143,2.5112688180074758E-144,-1.9301754570267177E-173,1.32594477174241E-202,1.32594477174241E-202,0.0,0.0,-9.27306376998564E-218,-7.721051918001635E-188,-2.27637798454737E-139,4.4394481891757455E-123,2.0680337672704855E-110,-3.371081867916868E-104,-8.908912676736383E-104,-2.384433974427555E-103,-2.9570136583178394E-103,2.4269374741834215E-96,0.04993876443325628,0.2996325865995377,1.0920365759020574,4.228635700224531,6.257549050034993,6.424011598145848,9.127642618093951,8.53699128860724,8.091333424995849,9.108699695128857,4.753800823921351,2.1140743610078494,-5.512454908593556E-110,1.6018805760718118E-172,8.082818722638095E-196,1.960828005880008E-202,0.0,2.0858674598190462E-306,-1.04883765256887E-150,1.0521254311246529E-139,1.0208949975938864,1.3337499162113675,-3.3079934024941503E-104,-3.3448448859233285E-103,0.4993876443325628,0.5992651731990754,1.5647479522420302,2.5635232409071556,2.8298633178845227,5.102956955169948,7.9589129999477795,8.388131827486644,8.371623411042842,9.747538190034009,11.634450687166723,11.181834817000237,11.320101972633802,8.118546406795303,3.888195573744909,1.0653603079094673,-4.053275668083784E-110,-1.9204154332704503E-122,1.1025469929940972E-161,1.32693997021001E-169,-4.2430489805294866E-270,-2.402925035932984E-198,2.7289503025548025E-139,-4.6228092724196656E-129,2.0747220918843494,2.6839658807710234,-7.84252259221128E-104,0.815666485743186,3.9618086450383316,4.211502467204613,4.211502467204613,4.376586631642638,6.107937504221725,10.347163158935762,11.830629057982517,12.555410059275875,12.53890164283207,11.478315509732866,8.526383349526393,12.154379389018516,13.158551668805966,7.431300769863158,1.3078458715638712,-4.474631203132993E-110,6.653122000297453E-119,1.839354921563275E-118,2.5530784116341756E-140,7.929106644116037E-169,-1.7243028835768764E-269,-2.53908200750959E-165,3.2878919307923323E-139,-1.5891252096384735E-123,3.6225306366234675,2.6839658807710234,-2.796794860152036E-106,0.2996325865995377,3.6455298036277086,4.211502467204613,4.211502467204613,8.335390972705142,12.193001078138103,12.522430187370453,11.62335762822237,10.319352818145287,12.857372832321428,16.2327137701739,9.894172800587967,11.227791877076758,11.639816928877991,5.556949061267802,-3.8889746852158834E-110,3.434245950371162E-111,5.057272621743692E-112,5.007618902568836E-112,3.37468761852463E-112,3.273477454461673E-182,-3.7148214711582936E-210,-1.6725657987054946E-151,-4.4968647088891975E-139,-5.5837125172074127E-123,3.6554627333200442,2.6839658807710234,-1.2388216746584904E-106,1.1258786968534923E-96,1.3317003848868343,2.662701572375797,3.561951464732266,12.126597802541044,12.538938603814255,10.718688134261871,4.390352532249551,2.9583943723769464,8.867570740504537,13.483805129763827,9.085260394841644,10.042118250664506,10.302711307182543,4.83167000609488,1.026917496363641E-101,1.0299710311540393E-101,1.0294321707562665E-101,1.0269174935923893E-101,1.0250264712310624E-101,9.707579431080238E-102,-8.034801624014328E-168,-8.863338796223119E-149,-4.8401368292411546E-139,0.7574382240212704,4.0341818453306795,2.6839658807710234,8.888516027713616E-97,1.090324632744069E-95,1.4873450153193574E-95,2.606711280972996,8.09645614476369,10.874450961072997,11.385899760518845,4.68376985290098,0.19810099732562994,3.8061650861799037,7.7045862585067395,8.689177487985292,7.28215128082504,6.966355051825059,8.704906205441274,4.933643903348161,0.8254208221901248,1.380311295561918E-94,1.380315699329675E-94,1.3803151760705344E-94,1.0845212406972342E-94,3.7235792505650055E-192,-1.028454607873834E-165,-7.575697585895007E-148,-8.958249535820626E-148,1.9759258017946184,4.1823762804652755,2.6839658807710234,2.29452942323949E-96,6.988535986102242E-97,2.801551945798006,6.891166945016641,8.327436136609643,8.565122947543012,7.875853463978177,4.549495395385641,0.36465171644729566,4.191693966337828,7.699920969903078,8.044277456522826,5.623011270861158,5.104902149922423,8.359005640747307,4.637636345938594,2.723888713227412,8.932805232246819E-85,8.932805232246812E-85,6.400671466785489E-85,3.795824343577597E-94,-2.1995134279150246E-149,-2.949206622968261E-221,-7.965050878541674E-148,-1.0685215322399604E-141,2.6181016873778695,4.1823762804652755,1.9759258017946184,-1.2333283810453326E-95,2.1909623032704233,7.105776358786073,8.228570442857754,6.860996107757279,1.5034494695864742,3.476448326538479,5.203912858551282,4.693441350426449,5.4764674923439935,8.194064633751605,6.2548412347875155,4.808783635319682,4.1823762804652755,7.733295803512346,4.423577717410844,3.2191412065414857,-1.328866607255076E-96,-9.78345077182863E-105,-4.8474093327503117E-104,-3.462435237678794E-105,-8.013867603510874E-138,2.5591934446644827E-155,-1.1328072360593344E-148,-2.898646620237857E-141,2.6181016873778695,4.1823762804652755,1.1032252393353288,0.2635432873858801,4.762357404392003,8.31092772016584,7.05909710508291,1.040030235959557,6.365502941525761E-85,0.58261891838799,6.327787681580467,11.214727925934655,11.236426189315146,10.413187156668794,5.979798238938638,4.264766000453338,4.1823762804652755,5.675039759976284,4.160120943838228,3.2191412065414857,-1.86663069857419E-95,-4.953944388759806E-104,-4.527799926195346E-105,-1.473931206471279E-128,-3.357534188619668E-137,7.940508518833544E-265,-1.0850792868428691E-161,-5.115258366770295E-142,2.6181016873778695,4.1823762804652755,1.3996141096045214,0.3623720201555852,7.419473232200505,8.327436136609643,4.404647060540558,1.169208389221721,3.8701648083339477,6.941424515392692,11.764185140092508,16.289255084042573,15.56117533802878,12.579956189419008,6.196629047407352,4.384474022214661,4.149444183768699,4.8682881271011755,4.176629360282031,3.2356496229852896,-2.3511889008921684E-95,-4.527796725832117E-105,-1.762842735782784E-111,-2.169390654826552E-127,-3.73059353735082E-138,-3.4427489922999833E-208,-2.957852334445021E-257,-1.1250669381524977E-203,2.4699072522432735,4.165910232116987,3.9024534585443718,4.926654945210587,11.274448664904776,11.719399728261557,10.182131105612097,8.333183056792887,8.797493594319933,12.294352346254676,11.174520473624504,11.034440736429099,11.379726265143495,8.477458032590334,4.293832708946056,6.333527486814032,4.565960966971429,4.176629360282031,4.160120943838228,2.4432456336827695,-1.167045384939816E-95,-5.912362435346675E-110,-4.835225789575637E-110,-6.1455628806379584E-121,-1.9344612077411603E-152,-1.9672851384571333E-207,6.05618262791687E-225,-2.129001839880864E-190,3.652244325851124E-153,1.95945975344633,2.914490557647062,4.317705955370274,7.9805415518742535,10.58221837320175,7.494479200531353,5.187978573303271,5.696921572737063,4.85035917504325,4.5538729767341355,7.321077494285876,5.063297306613972,3.903519828442248,5.874393143918954,8.509437662776506,8.964016506209779,4.176629360282031,3.0705654585472635,0.19810099732562994,-1.711789757797698E-96,-1.3151759895869135E-110,-2.519744830475276E-111,-2.7138910106816018E-114,-3.274469382294155E-207,0.0,3.9743698495704464E-225,-8.377054232007546E-210,2.9693042105384613E-186,3.2343775883008128E-121,-3.771202926939072E-97,1.403215397723212,4.160120943838228,3.6813768669679563,5.591795404373912E-85,0.7952620963802994,3.6615192354176287,4.158558045655315,5.179788284275601,7.049910321408538,4.167278231789229,1.7953886453163084,7.043238533927642,10.556481301808017,10.560887015514021,4.779754007765028,1.1720975675099772,9.211110341842458E-96,1.1851354703739966E-97,-2.664556051155688E-114,-2.4342781475422305E-114,-1.694125063652595E-114,-1.4735551470628581E-131,-1.0885277985637657E-261,-1.9884535352504088E-243,-1.1300086688598432E-189,-4.096413400793459E-183,8.451115633947285E-121,3.8797854378177724E-103,1.403215397723212,4.160120943838228,2.3937203843513615,2.8448621183793007E-94,3.87690271985396,4.158558045655315,4.158558045655315,4.416793564661066,5.131821477194234,6.3148199017687165,4.18456918442512,9.718153351292779,12.553999691508118,7.240295546524959,0.033292509622170854,-7.79224583411092E-96,1.445865273856274E-95,5.629393484276476E-96,-8.914107599818152E-120,-1.2089629431933013E-121,-6.020977897919762E-132,-6.020978020319924E-132,-5.442638992818828E-261,-1.2815180768780321E-230,2.6670072406892936E-188,-1.2823526402484891E-182,1.0781258627669377E-121,7.364407538413181E-104,1.4197238141670145,4.176629360282031,3.714393699855561,3.5871895018589586E-85,4.191693966337828,4.158558045655315,4.807761983287647,3.938194182412448,7.979270583527793,10.24426871812571,8.486406145523574,11.170893998347399,11.018303447132636,3.968183131469991,-1.2166042163803528E-95,-4.366657455862329E-98,6.1627044459447746E-96,1.475493660615624E-95,5.036825749089479E-96,4.74054188149598E-97,-3.983603574950688E-133,8.87213437894831E-150,0.0,-8.306135683468729E-231,2.4837412967827286E-188,-3.3146017678335746E-177,-3.848807163467593E-149,-2.594096427573438E-111,1.403215397723212,4.160120943838228,4.110595694506821,5.044534495054906,5.416743991788911,6.56811109167184,9.27373167731092,8.833080702555243,12.093174398849403,12.538938603814255,8.238779898866536,8.885564934003941,6.421721524931168,1.5478085447391179,-3.6521146054011127E-97,-3.633792985040324E-119,3.555406411121985E-97,6.577501860575672E-96,1.3036490174113944E-95,1.0132908271697656E-95,-1.4663571401974202E-133,5.58255643832294E-293,4.814051673610171E-270,-2.1304881572545322E-249,7.280199250655393E-190,-3.9301385768368585E-177,1.6262238757343125E-159,-6.971634149103614E-110,1.403215397723212,4.160120943838228,5.338246900873492,9.036268719176288,11.517773606729795,11.853098206912438,10.691137858818715,10.250141372704347,12.53890164283207,10.682414851907815,3.840341342086211,2.816054680482925,4.1823762804652755,1.5807406414356948,-4.763626315486177E-98,-2.2657000601722257E-121,-2.4857740110593617E-124,-4.4105928513937795E-123,3.555406411121985E-97,3.555406411121985E-97,-5.2802414825353304E-123,0.0,4.663612558809853E-270,-5.622121526088349E-250,4.7710736387458444E-188,-2.280259467393935E-177,-1.3892537535801819E-160,-5.512454908593556E-110,0.7618682470260076,6.131684445012304,8.866000209306335,12.530181456698156,12.579825793824472,12.016574686119213,8.371623411042842,7.833696215340427,7.9256419119506605,4.317094525088998,0.3459005646939676,2.782762170860754,4.1823762804652755,2.5193053972881385,-4.711977632229595E-121,-9.75795037726199E-122,-1.7871000181154308E-128,3.571506586180653E-134,1.3393235255871612E-135,-4.627287261516902E-155,-5.5979710197693745E-286,0.0,0.0,0.0,7.824508986380551E-188,-6.218889455157733E-178,0.9155440146096986,2.8631558275066937,3.7620535873053065,4.624212878299676,7.384929233851733,12.530181456698156,12.579825793824472,11.866758392819445,4.541638608450514,0.793920211342632,3.5907772906326167,4.150806776327611,0.9224015058505804,2.782762170860754,4.198842328813564,2.5193053972881385,-8.483396227478566E-122,1.9291268089591345E-123,-1.4932454749199542E-128,1.9643580015216722E-134,6.697295701872571E-136,3.857843791440176E-195,-4.5721607171012876E-231,0.0,0.0,0.0,-1.2719710541119932E-230,-3.5997385721289177E-208,2.2638906543076183,4.211502467204613,4.211502467204613,4.211502467204613,3.9266370681402605,5.444860745358986,6.388999601401105,3.911291352053739,1.6778047285936412E-82,8.913337669388058E-83,1.5812597243152806,4.150806776327611,3.113105082245709,2.27254177082363,4.1823762804652755,2.5193053972881385,3.260258612211987E-124,1.815171347029726E-123,-1.457478390811169E-128,-7.938751314765913E-140,2.2881548683588985E-142,4.150546353119491E-198,8.942407412385547E-209,0.0,0.0,0.0,3.118081881307374E-306,-4.798085834360774E-163,-1.4762810853282633E-127,-3.185336781621149E-128,-6.5837984828423985E-164,-3.1379071625149226E-127,-8.030343061059694E-127,-2.3618656703809147E-127,2.1681789477624125E-113,-4.44451200332626E-108,-3.686536730693936E-108,-6.511733186579678E-108,0.2306003764626451,3.0307478049376213,4.150806776327611,2.8001474284749763,0.1811860100777926,6.443470694810394E-140,-3.591120287128958E-144,-3.762513464446268E-129,-3.3509885594937874E-129,-2.4692744926291598E-138,5.782398690890265E-206,-1.1261293313025566E-293,-1.3461775914421366E-293,0.0,0.0,0.0,0.0,2.603412357088142E-259,-9.920078486801136E-222,5.468018225295722E-187,8.370566404078106E-187,-6.420411408714436E-181,-1.3203323519693702E-164,-2.4024343214752545E-134,-1.3301234304608323E-133,-2.613982021541565E-133,-8.112030646864636E-126,-1.1354255021422717E-115,-4.333266408754162E-116,0.2306003764626451,2.421303952857773,4.150806776327611,0.6918011293879353,-3.451497009654702E-133,-3.591094791864921E-144,-2.709432083980845E-138,-1.0158003787532742E-137,-2.469361062559646E-138,3.6196036114685863E-242,-1.859260254895506E-305,0.0,0.0,0.0,0.0,0.0,0.0,-2.3461679193546883E-242,-4.4242023622116986E-241,-6.799628127162308E-198,-5.710387193380684E-198,-4.161508346395524E-178,-2.3758558717521916E-147,-5.179365800419778E-146,-3.0186254543320853E-146,-1.1018841210475651E-125,-7.976829833350413E-126,-3.24761443945781E-131,-3.196327661686282E-130,-5.640789686582264E-131,-2.1687984109532135E-127,-6.039824742146297E-128,-1.0427372672632094E-144,-3.383324232956024E-144,-1.7133235240009857E-138,-9.720234061438664E-138,-2.4698323877366363E-138,0.0,0.0,0.0,0.0,
0.0,0.0,0.0,0.0,0.0,0.0,0.0,0.0,0.0,0.0,0.0,0.0,1.668641921315445E-236,3.653750413914854E-236,-7.36018597742606E-257,-3.066744157260858E-258,0.0,0.0,0.0,0.0,0.0,0.0,0.0,0.0,0.0,0.0,0.0,0.0,0.0,0.0,0.0,0.0,0.0,6.825407975985296E-293,3.0259977557682705E-239,-9.731175153178975E-159,-4.735838574547102E-157,-3.6654093076974145E-157,-1.7840487780828125E-157,3.410220307237345E-201,9.316773639122498E-210,2.4689449771859715E-208,2.046055215257263E-163,7.64007306836189E-171,9.887153382585976E-172,9.517980829449161E-205,1.4464852022930868E-238,1.5897313465422316E-210,1.0269945867042736E-210,9.658182954819502E-260,1.0014000935270353E-283,1.399119279608695E-283,0.0,0.0,0.0,0.0,0.0,0.0,0.0,0.0,8.50514411262748E-231,1.5233093933064142E-231,-3.9759939210212216E-202,-1.8813605294861442E-157,-7.006446109870124E-157,-6.292826598667028E-157,-8.01200087599724E-157,-2.5625427903371304E-157,2.431599004054174E-173,-5.144214472822446E-159,-4.983194231324385E-159,-5.006776381512441E-161,-9.829817822371534E-161,-2.7560236883899544E-162,3.156528744365518E-172,1.1636377659247016E-172,1.1083317370102873E-185,4.368052370013171E-212,4.62819325090292E-212,1.1884956608464262E-220,7.23043820470979E-299,0.0,0.0,0.0,0.0,0.0,0.0,0.0,-4.541672542930493E-162,-9.764595967300562E-161,-9.878136930050224E-161,1.1364727231399733E-129,4.4567557770195023E-131,3.1148174360488827E-142,6.199095240595209E-142,7.787040213534548E-142,4.702759836350014E-142,6.106890718663032E-144,2.7597694491559615E-119,8.787686930207141E-119,2.9843414397076745E-149,5.819506399864679E-149,3.044044341889726E-149,6.634661710359856E-169,6.777510392795659E-169,1.0375545238812578E-174,2.0029104960739495E-193,2.6495761132367315E-196,7.994410686490139E-198,4.932663916333317E-302,0.0,0.0,0.0,0.0,4.1568904215653E-310,-1.6879562337053357E-164,-6.692598400305366E-164,5.735599870174168E-143,1.3815942908761934E-129,3.988796420432589E-129,2.2283778885622905E-131,8.1765120254594E-142,5.319814309748463E-142,2.9155624920315107E-112,1.02329540123455E-106,4.050567431330282E-106,4.564395737527007E-98,1.0083515631376123,3.143684285076085,5.002214617133645,3.143684285076085,0.9885799638604041,1.4833946343933247E-148,6.515409247877821E-159,3.667614478578235E-159,1.0891069621467304E-168,1.3021931069145689E-169,-2.6399538211290996E-204,1.0346493489288428E-239,1.0346493489288428E-239,0.0,0.0,-9.194998154815134E-259,-8.250083289508337E-223,-8.587847493039447E-165,2.4509278097637464E-143,3.877377526007093E-129,-2.921412966644864E-122,-5.142553480082496E-122,-8.418255533070464E-122,-8.438654985084399E-122,2.915562490906459E-112,0.0598100515657821,0.3588603093946926,1.3078970747006804,5.064500937370217,7.494465183619286,7.693832022171892,10.931883915387312,10.22447982009351,9.690729734247505,10.909196585970829,5.693474310767082,2.531958849618109,-7.861967261656271E-128,1.6713635802938384E-202,8.232870862158533E-232,1.5283359485765181E-239,0.0,0.0,-1.611579892510273E-178,3.586203520705166E-163,1.222693095079404,1.5973893661521243,-8.2582740960101E-123,-9.759190034488497E-122,0.5981005156578211,0.7177206187893852,1.8740482823945062,3.0702493137101476,3.3892362553943185,6.111647376350193,9.532134051307192,10.046195632514602,10.026424033237394,11.674312899041626,13.934207292393314,13.392123825944532,13.557721950010048,9.723321847071185,4.656766750293526,1.2759477667366848,-5.78085828062961E-128,-3.6877067907431636E-144,8.717820175389099E-190,5.053953942066219E-200,0.0,-5.922985097991091E-235,9.301715379631612E-163,-1.0169896585082758E-151,2.4848279029033047,3.214499588676497,-1.9582507539922798E-122,0.9768975089077744,4.744930757552047,5.0439810153809574,5.0439810153809574,5.241697008153038,7.315280248399519,12.392464433569009,14.169163815802412,15.037210703890555,15.017439104613345,13.747209213455406,10.211775032727768,14.556909171809005,15.759574005763529,8.900229857316285,1.5663649252451055,-6.382062320373278E-128,5.420901335265005E-138,1.2558925751957968E-137,4.3844388284448225E-165,4.167576826742722E-199,0.0,-2.5790727835226177E-195,1.1206885999556157E-162,-2.3136254543047922E-145,4.338588401894659,3.214499588676497,-8.396903360457445E-125,0.3588603093946926,4.366133764302093,5.0439810153809574,5.0439810153809574,9.983029607485667,14.603165126356842,14.997711772315416,13.920921492574006,12.35915688309961,15.39886180262647,19.4413990547218,11.84993245467325,13.447165118298932,13.940634267451827,6.6553791162986595,-6.837619548409187E-128,-2.220857405410965E-129,4.1867002127497567E-131,4.399765091809202E-131,2.965053441945043E-131,1.520121071404561E-215,-4.137806888060015E-249,-7.258851628904312E-179,-5.06950613048286E-164,-8.129760108113518E-145,4.378030114639156,3.214499588676497,-3.711338724258889E-125,1.0596097547050007E-112,1.594934708420856,3.1890320106123844,4.266034676632441,14.523636059455217,15.017483371592624,12.837427944068533,5.258183984442766,3.5431737643463257,10.620404194453851,16.149119612119858,10.881124090090054,12.027121960629627,12.339225880798892,5.786735725102014,6.354112840696406E-119,6.358979168281241E-119,6.358120404381608E-119,6.354112840388104E-119,6.352707411074913E-119,6.006622294424755E-119,-4.7756255841758284E-198,-1.6172928552254327E-175,-5.4564913313775015E-164,0.9071593931234286,4.83160981120087,3.214499588676497,8.36534016872342E-113,1.0261483940301064E-111,1.3998002548997648E-111,3.121974239880789,9.696865050908807,13.023980070644606,13.636525843758339,5.609600469764711,0.23725919132649698,4.558521474365921,9.227535095110031,10.40674833505781,8.721598312631148,8.343379328739141,10.425586113941254,5.908866581207477,0.9885799638604041,3.335852024361869E-110,3.3358613623258615E-110,3.3358602635944474E-110,2.6210074547048268E-110,5.80300552558183E-227,-6.11280074774506E-196,-1.383911387550398E-174,-1.6362034793230665E-174,2.366502764669814,5.009097518551107,3.214499588676497,5.0706715304999375E-112,7.915990002097431E-112,3.35532863586049,8.253328952115286,9.973502356211668,10.258172202968304,9.432656317211238,5.448784271785013,0.4367316294621749,5.020257011158417,9.221947629037913,9.63437231465995,6.734499699420193,6.1139770735257555,10.01131213568475,5.5543478526516425,3.2623138807393337,1.458127597139408E-97,1.458127597139408E-97,1.0448000892891474E-97,9.173526091475346E-110,-3.3626146851533356E-176,-1.8114068141180972E-262,-1.4550447749176474E-174,-3.7724746590610126E-167,3.1356161631875037,5.009097518551107,2.366502764669814,2.228837004931006E-112,2.6240450644794677,8.51035974271899,9.855094095444816,8.217194310965382,1.8006330617709996,4.163630318766487,6.23255901394543,5.621183711206127,6.558988930396853,9.813767597975772,7.491222120411368,5.759325455109293,5.009097518551107,9.261919593539309,5.297976719812413,3.8554618590555756,-5.382479439185903E-113,-2.6453709013779573E-123,-3.602649780126836E-122,-2.5733212715191685E-123,-1.5195118195600445E-162,3.0046975805029264E-183,-2.06939701321621E-175,-1.0233840425392408E-166,3.1356161631875037,5.009097518551107,1.3212973769406462,0.3156373167668585,5.7037222519203095,9.953730756934458,8.45445350229188,1.2456107544641093,1.0390594294577151E-97,0.6977839349341246,7.57858773295186,13.43151884430057,13.457506156289629,12.471539251574757,7.161811972779168,5.10777303559483,5.009097518551107,6.796812547008254,4.982443017856437,3.8554618590555756,-7.854073862945492E-112,-3.681828634979191E-122,-3.365112431986605E-123,-2.039566040172418E-151,-6.366230554472528E-162,3.029961783E-314,-5.701175052786382E-191,-1.8059718329278615E-167,3.1356161631875037,5.009097518551107,1.676272791641118,0.4340013105544305,8.886064395965223,9.973502356211668,5.275304081103073,1.4003232727946044,4.63517188263433,8.313520827302337,14.089586072934035,19.509116767333648,18.63711907881881,15.066608814281588,7.421503256349003,5.2511434820933935,4.969655805806609,5.830592070577999,5.002214617133645,3.8752334583327843,-9.923084360876646E-112,-3.3651113525033715E-123,-8.443790136570255E-131,-3.6867056063079917E-150,-7.073589504769697E-163,-1.46041584638195E-246,-3.5805926859364646E-306,-2.4190481976443835E-241,2.958128455837268,4.989376662178858,4.673842960222883,5.900496130890102,13.503044452070137,14.035948025989887,12.194810852602114,9.980385257629129,10.53647505094278,14.724550279576068,13.383363672195486,13.215594677506482,13.629132046956766,10.153178754625433,5.1425852972422,7.585462113022993,5.468504557154151,5.002214617133645,4.982443017856437,2.9261966930267964,-4.887975481966394E-112,-2.8017189607810647E-129,-2.3160110088878416E-129,-2.5115927652955887E-142,-3.863041038019813E-180,-8.345233407896856E-246,1.2336527364487027E-266,-2.626090569460306E-225,3.9959472083483925E-180,2.3467819082975656,3.490591577887975,5.171177516450662,9.558037872130488,12.673982501659069,8.975896631194129,6.213475033130867,6.823019690185052,5.8091191414962555,5.45402716013354,8.768218986185554,6.064148291177918,4.675120117143043,7.035571681495038,10.191479728872519,10.735914185251502,5.002214617133645,3.6775174655607032,0.23725919132649698,-7.114273186980071E-113,-6.2376316083726825E-130,-1.206352312403964E-130,-1.87476121784605E-134,-8.850873236992363E-246,0.0,8.095846082944613E-267,-6.547081259061422E-249,5.001534193344786E-219,1.645466500428126E-142,-8.494230675980969E-114,1.6805859385626867,4.982443017856437,4.409066638817402,9.127649131706716E-98,0.9524598282039685,4.3852837923557715,4.980571184983252,6.203665787454828,8.443450787036028,4.9910150713759505,2.1502792204742236,8.435460201810358,12.643158039246321,12.648434620814388,5.724557604108503,1.403783548681774,1.0732032013913792E-111,1.1153786891631592E-113,-1.8406750899216274E-134,-1.6816040075955377E-134,-1.1703054531750536E-134,-4.4060053327782766E-155,-3.552336422664215E-309,-2.109229922891048E-289,-1.3938480714827776E-224,-9.107436329918837E-217,4.299444726925103E-142,6.183098333309311E-121,1.6805859385626867,4.982443017856437,2.8668818951951716,6.823705601177231E-110,4.643241662494346,4.980571184983252,4.980571184983252,5.28985155831914,6.1462174857689345,7.563056640261914,5.011723889075197,11.639119623030279,15.0355215517885,8.671469046214124,0.0398733677105214,-2.855710253394547E-112,1.3607620007790544E-111,5.298048773525006E-112,-4.618609832859174E-141,-4.940838184222323E-143,-1.8003032535442794E-155,-1.8003032542535905E-155,-1.7761682113321073E-308,-1.34020005428144E-273,2.03582450410255E-222,-2.8510215387344973E-216,5.48488833476042E-143,1.1736436650901847E-121,1.7003575378398952,5.002214617133645,4.448609837371818,5.855473027880597E-98,5.020257011158417,4.980571184983252,5.75810185533842,4.716648475373442,9.556515674230651,12.269231072060702,10.163895621612983,13.37902035942459,13.19626756527399,4.752565274875609,-5.064774347895824E-112,-9.83542522201232E-115,5.799969183648428E-112,1.3886464680081332E-111,4.7403594289434265E-112,4.461514756652637E-113,-5.28727183403949E-157,2.9862699905222448E-176,0.0,-8.686481833305629E-274,1.7851480179589747E-222,-1.1649700968110887E-209,-1.2348295622162392E-176,-3.6997492996029504E-129,1.6805859385626867,4.982443017856437,4.923128220024813,6.041676675398025,6.487460015165827,7.8664153496971725,11.10685008173372,10.579096585591994,14.483605924128728,15.017483371592624,9.867321632454862,10.64195526111114,7.691089275157341,1.8537604989913543,-8.225992031247563E-114,-8.576040356419343E-140,3.346136067489478E-113,6.190351724855534E-112,1.2269165580794752E-111,9.53648779234501E-112,-1.9462350308160577E-157,0.0,2.6294E-320,-8.806104747435747E-297,5.163715840619262E-224,-1.3811592632513446E-209,1.028405858059509E-186,-9.94307624268293E-128,1.6805859385626867,4.982443017856437,6.393446574731401,10.822448336272494,13.794466906809598,14.196074392613616,12.80443186549897,12.276264561518493,15.017439104613345,12.793984600752426,4.599453276569669,3.372698094620509,5.009097518551107,1.8932022117358511,-1.0729554787649803E-114,-2.2809008557812338E-143,-3.713473643105454E-146,-6.59117313316457E-145,3.346136067489478E-113,3.346136067489478E-113,-7.890834134501674E-145,0.0,2.5474E-320,-2.323833197239989E-297,3.7201352818386136E-221,-8.014780458824996E-210,-2.3814927127510353E-190,-7.861967261656271E-128,0.9124650891565189,7.3437211954139885,10.618523219763823,15.006995218220647,15.06645264367302,14.391864912505582,10.026424033237394,9.382165936772108,9.492286339587835,5.170445226073297,0.4142739782565018,3.3328247269099878,5.009097518551107,3.017291024954013,-4.761504794034722E-143,-9.441986306648424E-144,-2.2203235101427635E-151,1.3193180769284297E-157,4.947445397391803E-159,-3.2561049876850705E-183,0.0,0.0,0.0,0.0,6.099558666728113E-221,-2.1858492159362906E-210,1.0965176120393385,3.4291096231048406,4.505690551288918,5.53827099731116,8.844692160468885,15.006995218220647,15.06645264367302,14.212434757808236,5.439374450836013,0.9508526956645668,4.300558440948447,4.971287739078022,1.104730608684005,3.3328247269099878,5.028818374923355,3.017291024954013,-8.289621052855545E-144,7.383464677696625E-145,-1.7743791307453146E-151,7.256258366466915E-158,2.4737433005121885E-159,2.267733667180616E-230,-9.210965740865499E-273,0.0,0.0,0.0,-1.1639554907297561E-273,-3.2681755860211236E-247,2.711389004315455,5.0439810153809574,5.0439810153809574,5.0439810153809574,4.702806891417254,6.52113454636365,7.651899280052829,4.68442782095236,4.164872271152156E-96,2.2125883946220186E-96,1.893823900601151,4.971287739078022,3.7284658043085166,2.7217501682488545,5.009097518551107,3.017291024954013,1.2553683943485682E-145,6.989350929589152E-145,-1.7318490184856032E-151,-1.410702993911487E-164,1.017099813310045E-167,1.2824674726751175E-234,7.116450798404828E-247,0.0,0.0,0.0,0.0,-1.1525318790821456E-192,-2.699941270000492E-150,-5.8255994207479486E-151,-1.5817516385966341E-193,-2.285990728912336E-150,-5.850169822377807E-150,-1.7206381859862652E-150,8.938131259977766E-133,-1.78905305938704E-127,-1.483944685831383E-127,-2.621173327061441E-127,0.27618265217100124,3.6298291428188727,4.971287739078022,3.353646490647871,0.21700065527721524,6.396648540988711E-166,-3.3000743698535636E-170,-4.47087789654367E-152,-3.981875626701753E-152,-4.376851609745718E-163,4.210324370767565E-244,0.0,0.0,0.0,0.0,0.0,0.0,2.4393832078879235E-307,-5.436685192301254E-263,6.07183484403615E-220,9.326832689114528E-220,-3.817258304815395E-214,-1.1840047961199462E-194,-2.8376016682967117E-158,-1.5710602996924727E-157,-3.687184904166669E-157,-3.758799469638442E-148,-4.784457942801904E-136,-1.8259525482172013E-136,0.27618265217100124,2.8999178477955123,4.971287739078022,0.8285479565130036,-7.809082891405369E-157,-3.300069866413204E-170,-4.800846257954014E-163,-1.800232672505523E-162,-4.376882683049348E-163,4.601082619665142E-287,0.0,0.0,0.0,0.0,0.0,0.0,0.0,-1.7551200737904447E-287,-3.3096549962905533E-286,-1.6548578287479506E-234,-1.3897596345228555E-234,-1.2163030247370567E-210,-9.99348708021143E-174,-2.1785801834860914E-172,-1.2619314555160337E-172,-5.105702606911283E-148,-3.696152807457248E-148,-1.856787814040138E-154,-1.8274695635721947E-153,-3.224959679158107E-154,-4.6572943690705085E-150,-1.296971058215246E-150,-9.655292564751038E-171,-3.1251416390747326E-170,-3.0358313281150346E-163,-1.7225905950973986E-162,-4.3770518599246663E-163,0.0,0.0,0.0,0.0,
